{
    "layer0": {
        "weights": [
            -0.20559626834006522,
            -0.8322752108075918,
            0.8485625911458495,
            0.9866665668006565,
            0.5156795363692268,
            0.4662775639050062,
            -1.1035978766502903,
            -1.1938701761501467,
            0.31968816958592133,
            1.4176760580621637,
            0.006912101721748759,
            1.062923488181234,
            0.7696912202679778,
            0.2518051810845559,
            0.6826522641392123,
            -0.023801054818507854,
            0.9042401516641254,
            -0.6485076212388075,
            0.2954276715912224,
            -0.8956165206144873,
            0.8389470501762254,
            0.730904815746405,
            1.04315322911089,
            0.10899510291024683,
            -0.4460625172323579,
            -1.0101362946420436,
            0.36759154567773233,
            -0.4305411789150318,
            0.48727549222120853,
            2.589328317586479,
            0.1917583114278812,
            1.2087842538423978,
            0.20729482980792227,
            -0.2027573261193858,
            -1.0481489578439571,
            -0.36348463246686147,
            -0.3287836693332434,
            1.0879446329554066,
            0.4203915013670271,
            -1.6191632376239156,
            0.31974373750458884,
            0.77428125114439,
            0.5642598963405123,
            -0.7051997693033287,
            -0.011795095888874816,
            -0.8499674123105739,
            0.8081088140964626,
            -0.6677230515215914,
            0.1803140586159873,
            2.0917280228776627,
            -0.923109874956178,
            1.112012896438375,
            0.1776184091892436,
            -0.5768268892832671,
            -0.3025719943158123,
            0.3956852375843868,
            0.42573216682197873,
            -0.27550717714004164,
            -1.0460866091387957,
            -1.7672328777679804,
            0.5848610233300919,
            -0.594950967677322,
            0.5684368599010298,
            -0.10939644637231478,
            -1.8862792497654695,
            0.4850296311986551,
            0.1784363171882237,
            -0.7147605191386157,
            -0.2063926832702908,
            0.20107770013917034,
            -2.107063214339328,
            0.64355878364548,
            0.5623981527630275,
            1.7405281890906301,
            0.20956354483866374,
            0.07628511308108538,
            -1.5937086831116642,
            -0.18434369000877218,
            -0.25103967371996205,
            -2.153754172843181,
            1.2817727648960975,
            0.5289316362136729,
            2.7541147736969345,
            0.49091878907576386,
            0.3500322985277973,
            -0.1550510762647325,
            0.6857789832753246,
            -0.28096742997553525,
            0.11508823437174422,
            -0.08959394862267625,
            -1.5109237796346182,
            0.3235069092828212,
            -0.6926081319715824,
            -0.5990156069941255,
            -0.7161035257388473,
            -2.9158213850544943,
            1.131689966838474,
            1.1312133947283722,
            0.14266714912814682,
            2.025286268650993,
            1.8289187529345021,
            2.150344798790033,
            1.4742321803717182,
            -0.613722023955617,
            0.6550603965077032,
            -1.4985370261603732,
            -3.3257760211111878,
            -0.34919515384412575,
            -0.6475998929610693,
            0.09631395036300587,
            -1.036493776867763,
            -0.9302815633706489,
            0.5525959481602659,
            0.5895641915355992,
            1.0149283733100176,
            0.8652110509073482,
            -2.1966660697992966,
            1.0867908702742135,
            0.10607614542266858,
            0.2905494234706385,
            0.7957547338744962,
            1.1769772322691165,
            -1.5745638741182562,
            -0.7168324589636546,
            0.10869719076337206,
            0.594306824033547,
            2.2157910859456633,
            2.8389666271857132,
            3.801292062934488,
            2.3796300448142067,
            3.3971047100033345,
            1.938512481750336,
            -0.07217144710612919,
            -0.924724451511105,
            -1.6544157275582538,
            -1.460909570087808,
            -1.8061000886721361,
            -0.4500657518688079,
            -1.0835246710345052,
            1.1316632953084438,
            0.3934250322122907,
            0.1704955571300367,
            0.6008891430421216,
            1.7037570682585454,
            -0.04845421673707833,
            0.19506152555350656,
            -0.9353772120602871,
            0.15728118056498905,
            -0.9815977068282595,
            0.525359937803717,
            -2.876011031312299,
            0.5817750004256009,
            -1.8823704807329351,
            -1.2079756817719638,
            1.3784518172904514,
            -1.4137579121861998,
            3.2314958280080486,
            3.5190338474884384,
            4.567611795627801,
            1.6815168913213205,
            0.9840261178544095,
            0.27530191578566726,
            -1.4656001295987964,
            -2.6327034495411534,
            -1.0280859362961,
            -2.422133050285416,
            -0.44178488124747234,
            0.7381035177766937,
            -1.7218247165566334,
            -0.851623361831611,
            -0.38152403086263903,
            0.34547261990655664,
            -0.5127158335149384,
            -0.8393083960149368,
            0.17885170204640244,
            -2.9659531376613644,
            -1.4702637542106252,
            -0.5196467330258291,
            -3.5060555175104997,
            -1.5876821262309153,
            -1.0548185862183541,
            -1.6869751430702085,
            -0.3705334688137811,
            0.49060261116698284,
            3.378449946874879,
            2.4073072594694733,
            3.0578077854616725,
            7.292074270158605,
            0.9477686576917119,
            0.09455553784081197,
            1.7264885555636331,
            -0.2682888535067529,
            -0.10012300661084074,
            -0.7234906607535103,
            0.4487345978799949,
            -0.015483129447397733,
            -0.6048040339354525,
            -1.485942071061432,
            -0.5037819598384724,
            0.8077359610671109,
            -0.6264868548537853,
            0.6981652190600385,
            -1.9670380459700068,
            1.1928227340579316,
            -0.7682069414160306,
            -1.9366218707676794,
            -0.044840395486690686,
            -1.0245234074688583,
            -1.0299865965958228,
            -1.9815974029315102,
            -1.6568183679891302,
            -1.6866881176249922,
            1.3273557712588686,
            0.30088636379538336,
            4.155899453036311,
            5.433711224086702,
            1.7825498198193106,
            0.44717441511513434,
            0.8791538564612199,
            0.3488355306068921,
            -0.049508083271261626,
            -1.2727457766522952,
            1.7215243365601547,
            -0.604370603801253,
            -0.12155383259847015,
            -0.3089395470422957,
            -1.3132420037564438,
            -0.8612615357255765,
            0.08132719019174847,
            -1.1837895462719805,
            -1.382874694040625,
            -0.39231088263667296,
            0.3869479676713315,
            0.36734976953469506,
            0.7305654762244017,
            -0.0030204352442510245,
            1.059630643116009,
            -0.5566592352884786,
            -1.0763335749761764,
            -1.234261314850478,
            0.06752774819528666,
            3.432422974410448,
            2.6637150518257733,
            3.7518637861228092,
            2.2785011088976748,
            2.331577376769115,
            1.0713473942169138,
            1.607181059763133,
            1.5576009274324416,
            -0.5458530818711728,
            -1.5436316101086716,
            0.2725861594074454,
            -1.2516521696771887,
            0.30711856467240245,
            -0.5530715539849629,
            -0.495738172545539,
            1.5779574757877397,
            1.6259325541378913,
            0.38214474532874215,
            -1.3078309744337588,
            -0.24480289938096172,
            -1.6436302403162844,
            -0.24674127337119997,
            -1.744959755996028,
            -1.0655377336182668,
            -1.6067026998175207,
            -2.68219677130714,
            -1.353995496998403,
            -1.4434474081439912,
            0.39882780741237384,
            2.7649218132991162,
            2.5646973377692124,
            3.3551403267411284,
            2.9009624114864434,
            2.145463916669739,
            -0.44187427000217866,
            1.1539814924077363,
            0.9295455219006535,
            -3.1393448415172887,
            -2.2190445694573313,
            0.48012260186284006,
            0.04760559140008131,
            0.5033290014506253,
            -0.9498986254330735,
            -0.3256583348122294,
            -1.3433184174000352,
            -1.6672509396610395,
            -1.1368214258001619,
            -1.6652104728763855,
            -2.531572979151317,
            -1.6974984204705255,
            -3.9059648737114356,
            -0.7296779981221919,
            -2.851199245159539,
            -1.4057168356050818,
            -2.1085471282720163,
            0.1835518385096319,
            1.6176530512239526,
            3.244784309809734,
            1.7871183713563241,
            3.516960739189119,
            3.3157279850948953,
            4.536043959778233,
            4.151106108164119,
            0.4276082192307003,
            -0.7848272285813729,
            -2.9274091438421035,
            0.4714075053804435,
            -1.6305635489806436,
            2.5899155835865035,
            -0.22032855194784123,
            0.39010028026738996,
            -0.3188316502017736,
            -1.2871806316078056,
            -2.3797964588177862,
            -0.6585098607259429,
            -2.134192079563016,
            0.6481365242768555,
            -0.6255434782671626,
            -2.1149348966101567,
            -2.1552190473281554,
            -1.9708404618881774,
            -1.070642273064853,
            -1.3002264430491777,
            -1.4704672535076457,
            -3.140844337540548,
            0.9930070076488493,
            -1.0343348610799703,
            0.6582026597907898,
            3.876265356846484,
            3.721629504343696,
            4.64835335896489,
            2.843766567383488,
            1.105846088634088,
            -1.6729462848042191,
            -1.182109143091479,
            0.9109421481245069,
            -1.1049414954135497,
            -1.3035575581834906,
            -0.17522865759432968,
            0.1678444170344718,
            -1.520388912274494,
            -1.9741799340269197,
            -0.222062050143188,
            -0.7737441233761241,
            -0.6761075257991184,
            0.5403496439667665,
            0.4667023677047439,
            -2.350780952157868,
            -4.088273623995853,
            -3.2737784206096676,
            0.05196773366900599,
            0.9867579595226097,
            -0.19931885119323328,
            -0.24411327494567392,
            0.30626007883406914,
            1.4278742970244427,
            0.5406776758423723,
            1.9139351471857229,
            1.7668406419020435,
            1.0816714934615494,
            2.080620957804346,
            0.593735363150233,
            -0.6218467262401842,
            -1.1578094707362692,
            1.1694540850857096,
            0.6539438158223504,
            1.4965804358783792,
            -1.8235369000014174,
            -0.046313261447896104,
            -1.2310585394775102,
            0.20470017295580653,
            -0.5951858104185669,
            -0.4056692754306791,
            0.1225393451892828,
            0.5683885975042141,
            -2.4841579508643123,
            -2.7531917246544713,
            -1.6028506567732823,
            1.7639321162215487,
            0.15329193071248845,
            -1.3444760299842158,
            -1.7694037765063488,
            -0.7907264169708781,
            -0.5204852113333033,
            -2.0961041304947536,
            -2.837047191885948,
            0.28247091218747883,
            1.1115289782053097,
            1.6196145462637566,
            -1.3093526165678635,
            2.2441279775617518,
            -0.2429550435069617,
            0.6208119781094689,
            0.26237958219758845,
            0.5116608522167323,
            0.020094261356734956,
            -1.2233240055080143,
            0.9302416120728484,
            -0.11213086528635983,
            0.3704245544658084,
            -0.15040091138171993,
            0.4413294078373978,
            -0.2745855434261232,
            -1.27652597556537,
            0.19229819511428992,
            0.4956402802808464,
            0.4311846317507701,
            1.696018294072691,
            -0.671619565910025,
            0.31392919086334925,
            0.8034358110419698,
            0.7645864079670349,
            0.9926622316678103,
            1.053873259382039,
            -0.07276598733473644,
            -0.5933046531017319,
            0.3724186101068111,
            -0.5804024044932556,
            -0.6504436024886745,
            0.4557493944040912,
            0.9621570419624081,
            -0.635403468775619,
            -0.5613242302081503,
            0.23019537471816948,
            1.6490254507253561,
            1.9402765285759205,
            0.6707760510214467,
            2.584217018115879,
            -0.2949111777556636,
            0.13894436367910853,
            2.4699699779974127,
            -0.3019892189087627,
            -0.7465474034662083,
            -1.4694437053453584,
            -1.2183915632466693,
            -1.0658282495331355,
            -2.550082375083134,
            -2.701148144238987,
            -0.2672574695232177,
            0.33941138327307946,
            0.10606471832145054,
            1.3394874652321065,
            1.5509327999946496,
            2.1772425860393145,
            0.7131630272125827,
            1.8971539567061022,
            1.6700785470917718,
            1.0389118913264603,
            0.7571186415265635,
            0.6041519044462174,
            -0.3437159313562492,
            -1.3744281268134917,
            1.7628231543540482,
            1.5108867417557323,
            0.4678743894785396,
            -0.09223453207890732,
            0.2788740457666664,
            2.321486821742758,
            0.09980113906122041,
            1.2995929830009312,
            -0.8209398473385837,
            -3.0815463009551842,
            -2.7133132908518807,
            -1.836965757502182,
            -1.9776078637399057,
            -0.8724516527660727,
            -1.0383980918480453,
            -2.3984997653151847,
            -1.3699867468331037,
            -0.98977984364686,
            1.0087726920177917,
            0.585075668280884,
            -0.53961291112066,
            0.2682659318841869,
            -0.3700268582804969,
            0.883065229410983,
            1.7161316957989625,
            1.0009916557882084,
            -0.8255852840623237,
            0.5622050952657837,
            0.19531698763312852,
            2.3615208245435193,
            -0.2694847192446737,
            -1.4855529855841572,
            1.83522510156302,
            1.2918260908101087,
            1.0879048375781433,
            -3.446768209744293,
            -4.7982062713814795,
            -3.3123338181222013,
            -1.2698191482141499,
            -2.805069758057933,
            -1.2013594937382093,
            0.2819874278228111,
            -0.3349878377973934,
            1.1545635453058511,
            -1.3132282723417552,
            0.309424117742365,
            0.8605427643516016,
            0.8942148213181785,
            -0.18744062154399654,
            -2.2390892059042615,
            -1.036692820326242,
            -1.1318348046759412,
            0.630374424075485,
            1.2268498353857038,
            0.4212984087310737,
            1.4763061560150335,
            -0.3509958932270375,
            0.8677467187988462,
            -1.4851232129175391,
            0.13968094791948016,
            -1.1101477165563916,
            0.7590733211657732,
            2.8331130756082468,
            0.28499932869397837,
            -4.924391143239222,
            -4.14711978206152,
            -3.008085422037393,
            0.213869428494353,
            0.13393477642938817,
            -0.44434108712114156,
            0.7738328533106666,
            0.7930725767308918,
            -0.8966093738991106,
            0.6858454434085719,
            1.0047146197324477,
            -0.10855459866705529,
            -1.0209441942831146,
            0.452702998451939,
            -0.8123670015669741,
            0.5098241326698565,
            0.7915751776021565,
            -0.3308301946325846,
            -0.22135384722195756,
            1.2786491414621972,
            -0.26950384571079405,
            0.578287217407101,
            0.14201126659013466,
            1.4752764175536044,
            2.610228069559345,
            2.13546438099432,
            1.1155230027438878,
            -0.6342653454706642,
            -1.5328181738655315,
            -2.7262263583475996,
            -1.4834097288319128,
            -1.6298634343861944,
            0.24055611590769352,
            -1.9738660583968397,
            0.03677387988363094,
            -1.248957769596467,
            -0.2981811114561252,
            -0.19738635320623094,
            0.29730602322636857,
            -0.6503906840137517,
            -0.401913290463621,
            -0.11988048949535454,
            1.0022903543891366,
            0.14178146397538752,
            0.295376158025021,
            0.8396047024682789,
            -0.20622637233489874,
            0.6409964585320599,
            0.4230455600248814,
            2.2945874378038447,
            1.7127375673630145,
            1.9709077788160314,
            0.1817587162351949,
            1.7981832091613332,
            1.5332747354849945,
            -0.3260109398509479,
            0.6178665002920226,
            0.7493795718099404,
            -4.5088843145136055,
            -2.58865819552216,
            -2.525119640887679,
            -2.379897735111208,
            -1.9621504912472658,
            -1.1441852228701974,
            0.79101252011128,
            -0.2993445134834226,
            -0.08159282897981539,
            -0.8292226018185767,
            0.888264173801767,
            1.2694372023322977,
            -0.6961371347855881,
            1.225009253200493,
            -0.006244193969817249,
            -1.740762369931421,
            0.11709606730398776,
            1.5892568356262469,
            0.05615450264711311,
            0.9441107401777322,
            2.039517670301977,
            2.3974969772832875,
            -0.6868899047745398,
            0.020112150393581836,
            0.16351290713921998,
            -1.2553579713684437,
            -1.55373566758869,
            -0.3140651550058656,
            -1.68251504719641,
            -1.6175139817570772,
            -0.46392121729964536,
            -2.2713861474552597,
            -2.7133866659013233,
            -2.0052801616124594,
            -1.1668132573530374,
            -2.7426289233211953,
            -0.19570632389475692,
            -1.0171178944935473,
            -1.1646822717294767,
            -1.9110679594225601,
            1.0730784578247405,
            1.0636063252177403,
            1.6723969687387015,
            0.5639975300544666,
            2.2713870326297245,
            1.541879744074253,
            -0.7192699574988414,
            1.0646871257795747,
            0.26334235267268946,
            3.260183520648728,
            -0.36302367431612725,
            -0.9378751920468287,
            -0.033542444199831906,
            0.4561144676820517,
            -0.6756632324847922,
            2.866311927355138,
            0.5729133277482215,
            -1.720949903953657,
            -1.3952477709802908,
            0.4417286220659357,
            -0.8170429808258346,
            -0.8648022066655768,
            -2.4899654438597447,
            -2.449569130898027,
            -2.3345569895809826,
            -1.011320123187995,
            -0.35642400458209916,
            -2.77523233087603,
            0.16052012547920477,
            1.2871498218286443,
            0.4279530327611689,
            1.0948784828598892,
            -0.7747144512995363,
            0.4816029850425475,
            1.8687390831777286,
            -1.0389631379926962,
            2.7574244917521793,
            0.9288867134527387,
            0.3324411683693844,
            1.5465846214460879,
            1.2339239887831097,
            -0.9664570264944157,
            1.6215643038236691,
            2.293419121484714,
            1.6163091825146665,
            -1.2259762624917256,
            -0.6782986873599799,
            0.9521024239574852,
            -0.5347673703415302,
            -1.5995506531395887,
            -2.462404260713838,
            -2.34336422763111,
            0.35719467810068367,
            -0.5657333945902916,
            -1.232585878887773,
            0.20597521959805656,
            -0.45101683539693066,
            -0.6026490944230506,
            0.5600905946827146,
            -0.46701879159099724,
            -0.636046266206123,
            -0.5920495667970387,
            1.4737040592399249,
            0.31840369842574046,
            -0.12657723879546307,
            1.3562251141421802,
            0.8463222687254512,
            1.2436559378750176,
            1.5687665495347727,
            1.15707244548719,
            0.6810358724596076,
            0.6872153107666006,
            0.14720986363025468,
            0.22766052130401895,
            -0.9364233147818968,
            -1.0517388551786606,
            -1.2887078974077077,
            -3.228362773644031,
            -1.3250258732258404,
            -0.48098772763208886,
            -1.3917005093953674,
            -1.2708138458852427,
            0.23766102203967163,
            -1.1066358472117541,
            1.7414089867521882,
            0.07960985060030806,
            1.4610262545939874,
            -1.1160175421180905,
            -0.4899362514537906,
            -1.644925955648497,
            1.0042826211588056,
            1.4011672719361927,
            -0.5257398054674768,
            -0.05858579601158578,
            0.2696335353409442,
            1.172819140033947,
            -1.4582952960241677,
            -0.1723809487366691,
            -0.6639026681000046,
            -1.7168963075147663,
            -1.6000560931008758,
            -1.2586107866857543,
            -1.29569287581898,
            -1.7086758470870305,
            0.7753761791446151,
            0.16411917090625183,
            -0.5931727543068884,
            1.127134628350089,
            -0.36138224481434456,
            -0.6184721920713705,
            0.638351302987569,
            -0.0019210518577171126,
            -0.5333837496707033,
            0.8700748911586121,
            0.4011406720630904,
            1.642300898198197,
            0.3584799309300294,
            1.3493906885842997,
            -0.3014573971475218,
            -1.8948930863782985,
            0.47668111589793244,
            0.6166073118287602,
            1.2583448414003793,
            -1.240111986189466,
            -0.1201041386855086,
            -1.5697808172685672,
            -0.22510594054934904,
            -1.7193694522146283,
            -1.2047354899098421,
            -1.0254188935964377,
            -0.10084467654413569,
            -1.066105788360936,
            -1.4842848294018,
            0.7213568427545882,
            0.25913476817513725,
            -0.7181197592823142,
            1.7524198992705033,
            -1.093993452454026,
            -0.1391312587386552,
            -0.17311997689503,
            0.2937667259796531,
            -1.257147075651939,
            -0.46689026928319816,
            0.9605820357348911,
            1.385256289269483,
            0.7690491047477424,
            0.8874924501550275,
            0.7442222369026851,
            -0.23186134517327128,
            -0.27429240495575463,
            -1.191197052229847,
            -1.3967119808988293,
            1.2249918035828622,
            -0.7128478478204078,
            0.07435071333762994,
            0.8276776110520098,
            1.1831403205496476,
            0.35348571500961523,
            -0.3827373519664906,
            0.014732014209637512,
            0.5074228679393552,
            -0.9265884072106343,
            -0.6531300840246469,
            0.09083814999983911,
            0.9404256991163632,
            0.0706656779110212,
            -2.0478243285802744,
            0.23838732753182393,
            0.5169388813699816,
            -0.3304466305640933,
            0.8354817062266572,
            -1.6225569519785514,
            -1.3984416563302688,
            -1.749776184781073,
            0.5307124469183866,
            -1.7734163680589399,
            1.3347625349332928,
            0.9503018812011198,
            0.7599465308761142,
            0.7532558087592824,
            -0.15123610438505353,
            1.8770117355355092,
            0.7074923058445011,
            1.1015025444384468,
            -1.8116525770817622,
            -0.18512296365020398,
            -0.8376972773330292,
            0.5487476075277326,
            -0.31508803360624077,
            0.7965413925000109,
            -0.22716624841034974,
            -1.1091521003104465,
            -0.46042055767838713,
            1.0570748701343697,
            0.5259780735171021,
            1.3761486917547467,
            1.9539485063186681,
            2.013217448798234,
            0.42767013427412043,
            2.560132885605119,
            -0.5150508893139937,
            -0.4294146168076257,
            -0.37376594223803644,
            1.856268755638561,
            -0.6656258076739507,
            -0.29039865518304275,
            -1.1513080182734503,
            -0.4233569070553754,
            -0.5389072433966856,
            -0.7697262839359086,
            0.8904663129262451,
            -1.5267571940279463,
            0.8440966443064752,
            -0.09224998278375353,
            -0.25771174971366856,
            -0.9648155163167336,
            0.7980947524033679,
            -1.1282057611782697,
            1.3891826693039475,
            -0.6550892278670047,
            -0.5768082366345862,
            2.468418165625292,
            0.2428906533772771,
            -1.3073258802580419,
            0.40415107286496105,
            -0.3163605614688213,
            -0.321063968016598,
            2.207817235390751,
            0.8688157491820896,
            0.27371624003248196,
            -1.9574092996359627,
            0.7312865507542238,
            0.022694234236248494,
            0.0877845280617196,
            -0.10277416255849124,
            -0.1932727402969414,
            0.6388010956640208,
            0.1996453105222086,
            -1.4182889464467803,
            0.41318370655797754,
            -1.1061485230050814,
            0.8781496017071374,
            1.5815876856853104,
            -0.04546215425459529,
            -0.6083829103831766,
            -0.7326570894055854,
            -0.9752708788055442,
            -0.3589207201694975,
            0.8410141432739606,
            -0.9392667055533162,
            -0.22104036790898132,
            0.0025958527820452992,
            -1.6452462258665574,
            -1.6874262837037293,
            -1.3070681987221369,
            1.331455236062052,
            1.3880514255186676,
            0.35138205081393603,
            -0.5992188340053805,
            0.5604334007026005,
            -1.131387862201616,
            0.823557622001346,
            -0.05471702264604644,
            2.134275260366462,
            0.6343518366872731,
            2.6264020039011435,
            1.8165167530484196,
            4.274883654271994,
            0.8211819715553184,
            3.012837421582843,
            2.2683452250941607,
            -0.16847381275706017,
            -1.0067612266508748,
            -0.29997543300160734,
            -0.7179740569141846,
            -1.1021142595892737,
            -2.7107128474981717,
            -1.727723070689754,
            0.6993797192598619,
            -0.05908397426750141,
            -0.004259785325787777,
            0.02296670734394341,
            0.4591297809134379,
            -0.0070690735198468725,
            -2.4052096114361383,
            0.011809964044205437,
            -0.24522722464076332,
            0.9759335509415739,
            -0.706162669835495,
            1.573237704308507,
            2.4635463192574227,
            1.1578697070650883,
            1.5783898100950697,
            0.9336388945615868,
            -0.3605993609155898,
            2.5514343895687785,
            2.4240916437772153,
            2.552807454281661,
            3.0208748496732984,
            1.3717613604909376,
            1.277414057510088,
            -1.257577614308393,
            -0.521377535154165,
            -1.3744379324398666,
            -2.5175262157053364,
            -0.6640567239461567,
            -1.085220004560512,
            -1.8728197321783961,
            1.6935403422369857,
            -1.3106458643851548,
            -1.0161359007087198,
            0.24643616549260977,
            0.7894431241121086,
            -0.2785750486901111,
            0.5461557615740289,
            -0.3387552530034046,
            1.0347919945647157,
            0.6033148475340598,
            1.2801192820304912,
            -0.5481490712923618,
            -1.5763692601638812,
            0.4916301653814962,
            0.24082812119871994,
            0.571538930696089,
            0.21170135429548492,
            1.6557718029001498,
            0.2137243062823967,
            0.309271308320528,
            1.294339897379421,
            -0.9792117728738672,
            -0.2397259329154073,
            -0.3533236675198596,
            -0.6795297352090187,
            -2.5593259231107663,
            -1.0056638160530276,
            -1.803502176763375,
            0.08517224638213866,
            -0.07791390714024315,
            0.470095661842831,
            -1.211724493730429,
            2.071613727735335,
            1.3393260939440728,
            1.453197037262764,
            3.6787603502120443,
            2.41265368348387,
            0.3169161995130788,
            -0.37996936455709635,
            2.6388395978154158,
            2.507276731425379,
            0.28015790453605677,
            -1.5798296101935174,
            0.8400507318612243,
            1.498014932881674,
            0.4485439461350597,
            2.8337341176398048,
            -0.6358155409342008,
            -0.08795843842683954,
            0.23450479004528338,
            0.9865120985253675,
            -0.8974174825469454,
            -0.8541371181063444,
            -3.3303068564984986,
            -0.7071234913267381,
            -0.844520901955181,
            1.6982067293527419,
            -0.06521616415181478,
            0.716277963855149,
            -0.044259595124518804,
            -0.8806304650194898,
            0.4162749968454325,
            2.129962050208565,
            2.038807874428373,
            2.7857685852629492,
            2.20508181345428,
            0.44207520596963573,
            1.0836053003971444,
            0.4133231506304249,
            -1.221472201501157,
            1.919771446844537,
            0.5869108866464791,
            4.121550305941033,
            -0.12563712413490324,
            2.017062099811778,
            0.6257394654522344,
            0.3489541365665024,
            1.240631827100003,
            -0.6540704965288012,
            0.020964770796831796,
            1.1309721092443212,
            -3.621044251941271,
            -3.5598285524184474,
            0.44085707006038594,
            1.3717082358877788,
            1.7081063814320374,
            0.25170357492608875,
            -0.024795839820309345,
            -1.5912982718427324,
            -1.6191898512275444,
            1.2536024278289521,
            0.3264826135586098,
            -0.49197420492814536,
            0.26414867413650417,
            2.5106247692293873,
            2.1633301101955382,
            1.8062105417937686,
            1.4522828463703326,
            2.2285495840483187,
            -0.503352609084631,
            1.1255518500416526,
            4.344247628283126,
            0.7514538398963141,
            1.9573942386032028,
            1.0438098532941709,
            1.0284461145425536,
            -1.2919810984746738,
            -0.16896810644653076,
            -0.43093119975856237,
            -3.9194956839348967,
            -2.8971146121078277,
            0.1818187697241455,
            0.44556045475698747,
            -0.642434679926447,
            0.3306159064396039,
            0.8654531230636252,
            0.7989613978741438,
            0.9475801429401346,
            0.345730113923494,
            -0.6542822152307968,
            1.2558550117575775,
            3.0983117561228095,
            1.9440297275341825,
            2.365716183400809,
            1.3792287182608214,
            -2.0615716729310307,
            -3.1740369713871996,
            -6.628893165178571,
            -2.794676244810467,
            4.85442367065607,
            2.6282826243793003,
            -0.19770690785488157,
            0.8174826323616012,
            0.6278912478607102,
            0.05719331463041658,
            0.5365588007370384,
            -0.8751511091331483,
            -3.3715126254443026,
            -2.5828341935859913,
            -1.1047753125354354,
            -0.7862616812982283,
            0.004587207907473866,
            -0.569422969400496,
            1.3662672130837739,
            0.9836443176701679,
            0.9305552385396658,
            0.6997231419030571,
            -0.5650412451785237,
            0.3444889101969094,
            -1.1481265893030985,
            -2.370763921022568,
            -2.5701732144818377,
            -7.7667984809944635,
            -12.90022951216955,
            -8.426956622635764,
            -10.257834749066939,
            -4.8150606889570025,
            -0.2771248612008503,
            2.9237864561955997,
            1.9516314431791315,
            0.034368457536266994,
            0.4919237001699624,
            0.2702854711235616,
            1.1491027134366967,
            -2.904495880804226,
            -1.1440341800425748,
            -1.7156897021189237,
            -0.8928059350665584,
            -0.7182428629332868,
            -0.1995474772882247,
            0.6901388406838703,
            -0.4778907145736508,
            -0.6220997452454934,
            -1.2730996359961049,
            -1.1201479161674324,
            -4.932397187485335,
            -5.911499259165799,
            -8.703760631673653,
            -12.372859238622095,
            -13.115770314001914,
            -12.142229091612364,
            -5.454378935452571,
            -0.6993100722321479,
            -1.9666046289066723,
            -0.9951249578849748,
            1.264042270551088,
            1.324351778976847,
            2.2391534048338837,
            1.3361724574522467,
            1.1997853793591253,
            1.6350104982277016,
            -0.8368941738567325,
            -1.0132974498454075,
            -1.73146181169974,
            -1.6890940512449775,
            -1.489808427920732,
            -0.36039767098597225,
            -0.7549810310667511,
            -0.16971582678826413,
            0.40413637452598206,
            1.264724422022598,
            -2.180947533609664,
            -3.2650576559857787,
            -7.202778645787251,
            -7.707830217291899,
            -9.966177566047058,
            -9.708697415123238,
            -4.567279311824063,
            -1.3336398195580723,
            -0.073328384911808,
            -1.6698459981001026,
            -0.7622743919465642,
            -0.0670121888212277,
            0.6035594834406104,
            0.876314893826854,
            -1.0665843854442685,
            0.4940744302429721,
            -1.5220961989997817,
            0.38979734534408156,
            -1.9604798045216076,
            -3.1611719109470533,
            -1.6431979975327666,
            -0.14927057527382412,
            0.8633123210694502,
            0.011384593648663323,
            1.0068783497452949,
            0.04010990768506023,
            -2.3484509795368775,
            -0.3240314179240126,
            0.5543782626639672,
            -2.211025899500949,
            -5.818336576142867,
            -5.674181315922285,
            -5.637351031599233,
            -0.10380039010081248,
            1.2539575650132537,
            1.45766183064724,
            -0.7322549036864758,
            -0.22170736263200114,
            -1.5752140731780704,
            1.362765510075567,
            -1.0563254707612735,
            0.40263110670898994,
            -0.6779785080143237,
            -0.4219073140947805,
            -0.4540923122754252,
            -0.5350505791291698,
            0.8426615056610703,
            -3.549014504054827,
            -0.5390646355407301,
            0.3512462566101745,
            -0.32738609096888704,
            0.008409656311025363,
            -0.9992466393704503,
            -0.711602750912991,
            0.893461279467459,
            -2.2011754498748206,
            -1.1826281012668058,
            -2.2249875173556455,
            -4.6647342506768315,
            -2.7698538801964556,
            0.693661638272308,
            2.1360090235752214,
            1.4826096459668894,
            1.5685904904067498,
            0.9473766383970027,
            0.13617089476361693,
            -1.2328820986135434,
            -0.043387673543069744,
            0.5563033613104874,
            1.4230618766207181,
            0.6160463303839758,
            1.3836229714819688,
            -0.08402952614145189,
            -0.1181077799808077,
            0.9568804307312223,
            -0.5981893000132582,
            -1.0357389714110807,
            -0.09465595801705937,
            0.12089753498287527,
            1.6387568166420217,
            -0.6509700327711214,
            -0.10322279702503873,
            1.4311857976133628,
            0.7869859766727495,
            0.5728298839697954,
            1.266990603961414,
            -0.615041303225378,
            0.8285154836048099,
            -0.44159422027256406,
            1.6019383885208431,
            -0.020816985166525376,
            -2.282375641927403,
            -0.8588415001225203,
            -0.35623691833777743,
            -0.014833965883995024,
            -1.120134883044527,
            3.0530019189931976,
            -0.03777445243104953,
            -1.2365659373216218,
            -0.7964185652421859,
            0.46252122449926586,
            -0.8201054085589203,
            1.9754909136301875,
            -0.30553924787408615,
            0.3464246172588242,
            2.7735382269495426,
            1.6212361363551442,
            0.6030928929346008,
            -0.11756516867948415,
            -1.3818890811933138,
            1.1010921003662393,
            0.06531123936203367,
            0.2393729107263053,
            -0.2656799563333766,
            1.3396879527789056,
            1.8405512401940258,
            -0.0178221835251005,
            -1.6640203779103704,
            -0.2664288084015342,
            -3.5059926278429767,
            0.014938159597630968,
            0.01261689670971609,
            1.0813015751109791,
            1.758157000278716,
            -1.0635604354170318,
            -0.44241187164654955,
            0.8715575875823164,
            0.6143590552174366,
            1.7018322794625305,
            -0.5469067370582363,
            1.6952557507233428,
            2.026317223432083,
            0.20591474233269982,
            3.175414228109,
            2.038095367185387,
            2.481281204477463,
            0.5880412017171532,
            -0.7740670199701096,
            1.7717367062749165,
            -0.5283405551260977,
            1.9029599567547628,
            1.266770640241398,
            -0.2899480173054221,
            1.5003513215021047,
            0.12082611023225356,
            -2.488672008002307,
            -0.8402977197744359,
            -1.8606993451251006,
            -0.961414679517363,
            -1.7767209734369331,
            0.4108106721472276,
            0.677919481041528,
            -0.9929137237804321,
            -1.3667489818990004,
            0.5635306336985403,
            1.0885212199182441,
            -0.4892590214548833,
            -1.5585169884504941,
            0.17511183466080116,
            -0.25986541369659527,
            1.3175946916109404,
            2.457219630690597,
            0.024570557064728306,
            1.4301455971854429,
            1.7411246338265955,
            -0.6271969545786682,
            -0.19287631997046156,
            0.5805559737312873,
            3.035894500053709,
            2.7690056528436555,
            1.3669032092022468,
            0.415991505284315,
            1.1696997977290005,
            0.759759291073168,
            0.646028418437378,
            -0.02947000794871891,
            -1.3698782401524636,
            -1.0755847858720686,
            -0.25205527202813865,
            -0.04236110841341975,
            1.4438275863304633,
            1.597180300485611,
            1.8137969022728724,
            1.2179027851640567,
            -0.04138014379278312,
            1.0106327026641715,
            0.13212597821377225,
            0.2306784005696409,
            0.6559456920037026,
            1.5301265789781946,
            0.5694195351225243,
            -0.9634112408941646,
            0.9267509122111665,
            0.1756588198314281,
            0.19342427230776194,
            -1.1026877169932574,
            2.8899147025788023,
            3.892494983417267,
            1.4269718155041284,
            0.8326691772628307,
            -1.8625507575453524,
            -1.185003195465321,
            -0.3580178455406125,
            -1.2735453029623844,
            0.5100268932203265,
            -0.05845336709054181,
            2.965147753125712,
            -2.138377181730577,
            0.5183387946665629,
            3.7430557456270397,
            1.5852506012834597,
            1.7276039371122704,
            1.6666704112446442,
            0.6888950934377088,
            2.2426995116328663,
            0.7992807119688713,
            1.0343055078525414,
            2.507584786144255,
            1.4361580259587843,
            0.07270317764342177,
            -1.0012922606683328,
            0.5383205919202597,
            -0.7944677439171504,
            -0.05694157198129156,
            2.831109324498981,
            2.7389318187399447,
            1.2430265830951963,
            2.8304588167049,
            -0.3394938672823099,
            -0.2874027656848331,
            0.853066200047761,
            0.9208727903559725,
            1.6371542993831907,
            -1.3224206230691748,
            -0.428520412604243,
            -0.06199401304519608,
            -0.3654565301447408,
            0.7694343859614599,
            -0.3566283189988711,
            0.577083524140578,
            0.4215252690300868,
            1.098252892604928,
            0.6904311963653346,
            0.6323697654050151,
            1.1915130389386455,
            0.5879071668141149,
            0.389048150543294,
            -1.002987260213716,
            0.5591924990023484,
            0.731396259489873,
            -0.7371270491782146,
            0.619003731225678,
            1.970898627648497,
            2.079424617520719,
            1.7136769004391577,
            -0.5795142728141779,
            0.2374067068017709,
            -0.2563224815367947,
            -0.5944054108626868,
            0.3216266765633768,
            -2.245284572867429,
            0.030020059723699494,
            -0.3657710288346618,
            -0.24059583848667584,
            -1.1033392976397984,
            1.2776856491410704,
            -0.8641200784338167,
            1.0275812187274016,
            0.622621967356643,
            -0.9372332012849334,
            3.3335459125189533,
            2.6208978122993205,
            0.11949343085622396,
            0.45722831938649294,
            1.1831093589811223,
            -1.2043417711596367,
            0.112028570694572,
            0.7383965303602166,
            -0.6213449290805858,
            -0.48100529772818346,
            2.853674756012421,
            3.1466329212940916,
            1.0050072438917574,
            0.3582104126289368,
            -0.6095797408479998,
            -0.40606023543017516,
            1.6160638838092753,
            0.3268155060779833,
            -1.5603172167881996,
            -2.602632865310745,
            -0.9099234164256095,
            -1.4550415353889676,
            -0.48247256776940733,
            -1.680318145279081,
            -0.8773094263447677,
            -0.6123814507767644,
            0.8635194135566577,
            -0.04785604196259266,
            -0.6097477586628112,
            2.6821083669827197,
            1.1162470897350787,
            -2.5682761235465255,
            -0.5153253506554452,
            0.047854005981220346,
            1.1460524978829236,
            0.5267819926910425,
            -2.1308209520644628,
            -0.24777973430850786,
            -0.4969521818524249,
            1.1200817752073162,
            2.5077429763017984,
            2.869086585024567,
            1.194293652389046,
            0.2907585478315417,
            -0.38319029346462535,
            1.7102902510488511,
            1.927261000552725,
            -0.15239865405342828,
            1.2799112851797576,
            -1.0486730876110337,
            -0.48174240947233615,
            -0.09992996988346264,
            -0.0730461302451544,
            0.4119547851025641,
            1.072262095019412,
            -1.1643154667737736,
            -0.4614369035464509,
            1.4820602978193946,
            0.046708436490136535,
            -0.7739075271190614,
            1.1674430179987656,
            -0.11326511201536428,
            -0.04254502819666283,
            0.9624327174182221,
            0.6910625277761892,
            -1.126425041959516,
            -0.24984788940657016,
            2.0469912433479904,
            3.9423288880353526,
            2.6523714343213687,
            1.5988088699948797,
            0.2531225129693,
            0.9881497214739337,
            -0.2122868963795345,
            -1.1755306684995945,
            -0.18302399407950992,
            0.21445764005512122,
            0.12308281014171993,
            -0.49520185404329725,
            0.5639205532945731,
            -0.5241138944908323,
            -1.1487695672963758,
            -3.9047782271830185,
            -1.3539265550559143,
            -0.1746311107455125,
            -1.4851986871871872,
            -1.3214110648360538,
            -0.014168543704744544,
            0.2508777362363758,
            -1.6877414823442614,
            -1.3846028460869801,
            0.31906184826151807,
            0.12686152219674465,
            -0.6376424813209556,
            -0.32372352246243447,
            0.5922440268401765,
            -0.97685889941324,
            0.9385327937244892,
            0.25228061964195436,
            2.514201981820492,
            1.4488890612330474,
            2.4341183369577015,
            2.4808851284773565,
            1.621657318457573,
            2.090062081156004,
            1.1120255509479273,
            -1.9164062731234452,
            -0.05223974208683285,
            -2.031093494857643,
            -2.2313905339005204,
            -2.3324652701496698,
            -1.427864948714461,
            -2.7448496650103307,
            -2.4978883734616546,
            -0.15517880834710807,
            -0.38272658186483133,
            0.2157678660571262,
            0.18044250845957274,
            -0.699658581676796,
            -0.5637575338215931,
            -0.5901552594394324,
            -1.6191530976839308,
            0.18913761738345472,
            0.9106945436195676,
            -0.46892133038683553,
            0.1515090039429073,
            -0.8644725675376371,
            1.3473894272400755,
            -1.0426739186661347,
            1.0688403923363488,
            -0.32047475397079045,
            2.1070356946785536,
            -1.2554980336642145,
            0.4781563432009024,
            1.191549091256136,
            0.09814490198854701,
            -0.5299798717813122,
            1.0801242950405139,
            0.669663084768171,
            -2.1717779846170897,
            -1.3504420876668597,
            1.1297830184030493,
            0.45712085337020286,
            -0.061566895008918404,
            -0.9303354907569291,
            0.5855309367408309,
            0.5012680600308321,
            0.23256324594105332,
            0.21757319348290366,
            1.4465679150413957,
            -1.0676640044041719,
            -0.44521620519358807,
            0.6594008117356753,
            -0.7140786394694847,
            0.1979083886643333,
            -0.30070833714857303,
            0.3253876932569539,
            -1.3680889775263583,
            -0.5950270328642149,
            -1.5699180578468044,
            1.413165187747415,
            -0.24542025381239654,
            -0.9748504035053552,
            0.0536650697786014,
            0.8543851434507611,
            -1.0607133438498142,
            -1.4655656575859581,
            -0.19810907058748956,
            -0.48051242714562087,
            -0.23180914327715102,
            0.3289247111896588,
            0.9099605683398774,
            -0.5639382201273405,
            0.2577600255791144,
            -0.9545844318127659,
            -0.16693755700913063,
            -0.37952252487675814,
            1.0157713950568272,
            1.8025961261167225,
            -0.4087015418818212,
            -2.1069439236660354,
            -0.046828512174233006,
            -0.32205940385693127,
            0.34475554546973136,
            1.3460214847165402,
            -1.658078957899738,
            -0.649339935354896,
            1.2534791633285849,
            -2.101985680129997,
            0.2777306630658499,
            -0.3332124937448435,
            -0.12066866335403255,
            0.9165269314770764,
            -0.8009805309838453,
            1.3534899365011575,
            -0.7351935215776024,
            0.29041744692292537,
            -0.8786565832906182,
            1.2397704038387853,
            -0.08454710390264779,
            0.21864318080748552,
            2.586225252447578,
            -0.49155793533353004,
            -0.2559377639639321,
            -0.9330945980169774,
            0.05695343870191821,
            0.37306655573513237,
            1.0539205522755786,
            -1.3875724262761315,
            -1.066371302277588,
            0.5011732707284445,
            -1.7293769059225503,
            -1.0383915073708068,
            0.8124827590718261,
            0.11416782048814043,
            -0.3197319524452191,
            -2.2471103881003676,
            0.10772158307085589,
            1.4287601687406823,
            -1.5514958195418223,
            -0.8324828157131162,
            0.5538352810163601,
            -0.26466688758952384,
            -0.6693914453759908,
            -0.04291114562767629,
            -0.6329658646241587,
            0.5324394144018071,
            0.9232401696607764,
            0.6251603308330717,
            -1.2283646760441986,
            -1.8061300493187418,
            1.1460696474278733,
            -0.4290796025446035,
            0.32778415845087205,
            1.169642711560575,
            0.5065955675385267,
            -0.459104257817944,
            2.827232934792272,
            -0.3974231921460002,
            -0.6634981760724955,
            -1.469260984429981,
            -1.0595899068529775,
            2.138876415933225,
            0.10852135672694121,
            -0.3047107062630773,
            -1.3852288616990431,
            1.0589941137425245,
            -0.1811540883885073,
            -1.2366175238821766,
            -0.8204978996319398,
            0.10325038316067069,
            -1.0100349382639695,
            -0.1692292019841007,
            -0.010905208133351513,
            1.1453286052530913,
            -0.6143646199668217,
            -0.5278540560956502,
            -0.7396281250687528,
            1.8268656271980406,
            0.38937868383411234,
            -1.9460659622017833,
            2.0589610313249143,
            1.011182441238956,
            0.5787363958424379,
            0.7661956463013289,
            2.8153570100366965,
            -0.4415263742861732,
            -1.272227875197089,
            -0.6885817660048993,
            0.3397325710240267,
            -1.856808535939043,
            -2.684212618776456,
            -1.9110946602928922,
            -1.5990457251067733,
            0.04293106778854891,
            -1.6388902182782326,
            0.2669550378589287,
            -0.9206883234820304,
            2.401266172416571,
            -1.0278340345430257,
            -0.9800423638934369,
            -0.0975301148043225,
            -0.7265061207521231,
            -1.6852705135264383,
            0.5170329453269279,
            -0.2996646801083853,
            -0.36082273670514076,
            -0.21309914466437208,
            0.5886961112065913,
            0.6266578272847264,
            0.1615508659087098,
            0.8917749256142186,
            2.4255009103930334,
            -0.5795464587389649,
            0.9312787067823327,
            0.8547218536354244,
            -1.9009845720986616,
            -0.6101981661747907,
            -2.117054888752694,
            0.2580175839326868,
            0.2237732813482566,
            -2.697959004558031,
            0.29257938726255533,
            -1.3553144769996026,
            -1.227825763905357,
            -0.2010332906348741,
            -1.0483454366316116,
            -0.7012752151774749,
            0.2906617755705962,
            -1.1896865699454457,
            0.5441556080204061,
            0.2371028457058598,
            0.8530562395001025,
            -1.3691920375335127,
            -2.2449137548379463,
            -0.7648968503010355,
            -1.2024251723479107,
            -1.6843184569575713,
            -0.4746088028037361,
            -0.12955765452672818,
            -0.23963597299527029,
            -2.546321153418577,
            -0.7561444574352304,
            -2.1403154896958876,
            0.09199334893120181,
            -0.8495382535330955,
            -0.7051854477458821,
            1.1874895780829935,
            -0.7786753008503279,
            -0.6222740657345394,
            0.8011262161581809,
            -1.1943001363958248,
            -0.7012630691301018,
            -0.08384510655821734,
            0.4587876093257271,
            -0.9986299226515144,
            0.08639795987504009,
            0.7973911048593945,
            -0.734310480866814,
            0.288106775451907,
            1.6024879035234856,
            -0.9134456506129999,
            -1.6095238056277756,
            -0.44505113702576865,
            1.0093020431732354,
            0.2043693083153568,
            0.33194292427422417,
            -0.42050906379432695,
            -2.0323847433595637,
            -3.329338441417599,
            -1.3786566221684327,
            -0.40200159769580246,
            0.10968340199934773,
            -0.07894991648694355,
            -1.0343586102440379,
            -2.0393081165824665,
            1.1037602088855367,
            -0.4676362807298727,
            0.13175269179982954,
            0.7146963061516863,
            -2.0495350440709923,
            -0.30926704973204866,
            -0.37175750127808854,
            -0.21102450314139706,
            1.2438990729850117,
            -1.1623529256918153,
            2.0124053485642213,
            -0.8980198949868895,
            -0.035817846968901265,
            -0.3785803747099803,
            -0.5382816035828655,
            -0.31904016357950965,
            -0.37261480021226073,
            1.197137046074045,
            -0.0269396916975586,
            -2.5105151032189204,
            -1.8422219151733377,
            0.44612639172723545,
            -0.25922357786727795,
            2.5681146633171728,
            0.264854478771258,
            -2.5875076721850028,
            -2.1106668874884837,
            -1.2649543832377523,
            -1.663813216045319,
            -0.572252425373777,
            -0.050508130431156865,
            -0.0615140358871121,
            -1.0978081408373221,
            1.0934012735746448,
            -0.7602317495661192,
            0.30483454985309977,
            0.2526693244462035,
            -0.3488566546453828,
            0.3618369005531307,
            -1.2028029952373165,
            0.7262923047772232,
            -0.2675225855109027,
            0.641995072777846,
            -0.7778391504349377,
            -0.5494852226640546,
            0.5052071132363205,
            -1.004588488668917,
            -0.4176472045999058,
            0.2946561943090234,
            0.27419420988179505,
            1.3934697376315925,
            1.507025083304708,
            0.8854679522185176,
            -0.05308255759946267,
            -3.4097978539337936,
            -2.5010477330647354,
            0.08267657147239706,
            1.4841483491646827,
            1.6011767570886788,
            1.0060589256662895,
            0.4664596166600595,
            0.509378104360512,
            1.0388747467879837,
            0.831509887356621,
            -0.5408513809804845,
            0.4428609586975008,
            0.8228858355079274,
            -0.4558582204311447,
            -0.2299799952403639,
            -2.8524931537595077,
            2.029582103109864,
            0.38369406240387866,
            1.4935271467832971,
            -0.7376825049375685,
            -0.31169398316481706,
            -1.194858321641808,
            -0.3276864946390601,
            1.6605414409661465,
            0.32558776116402355,
            1.1541324592060935,
            2.9530496478770263,
            -1.8770606149010043,
            -4.377941640133799,
            -2.4542469468074337,
            -1.0554326342921654,
            -0.36601711508930246,
            1.4926098736143536,
            1.7025061380515931,
            -0.32358612415583154,
            -0.9766263322844819,
            0.2434838169952642,
            -0.40058416942005065,
            1.4732631876732654,
            0.6105052259906734,
            -1.4972453588001127,
            -0.9514972755631431,
            0.3735762695122592,
            -0.5603034582502997,
            -0.42399290832423897,
            -0.5512242538956437,
            0.5442507715746344,
            0.6436201326444607,
            0.24647480444723419,
            -1.8231982487492633,
            0.13196590260322802,
            1.6527202591118315,
            0.4037284295126735,
            4.192840859564625,
            3.717044806639155,
            3.3911748426578163,
            -4.632377191656617,
            -4.442198833156023,
            -3.1534938950350617,
            -0.5759412535489832,
            -3.3324997698075904,
            -1.3901093717817925,
            -1.0186201681770286,
            -0.27219464997165244,
            -0.47936234483924656,
            -0.8298376493320936,
            -2.000121255960509,
            -0.2167160923793764,
            0.5400066168603329,
            1.9330314715379413,
            3.9653318855990016,
            0.43424232561879766,
            1.2199031262504814,
            1.1197919032822208,
            -1.0492240855923294,
            -0.47475866909513825,
            -1.205923949464489,
            0.7922957425257048,
            1.6701952882279278,
            2.986171070133531,
            2.18360053071862,
            4.303977645774883,
            7.124524663419315,
            5.954741153199053,
            -1.105323899634836,
            -5.542369615170836,
            -2.8844654839111152,
            -1.249393719610258,
            -2.230576604110384,
            -1.9333401732849198,
            -1.7120368535585635,
            -2.8569872509273404,
            0.30342479458010707,
            -1.3237366877793535,
            -1.1791021752602966,
            -0.2613822399418258,
            -0.40565537705208926,
            0.3800311807727027,
            0.2360291619821415,
            -0.957532547997494,
            1.7499012504950415,
            0.4288013457039916,
            -1.6700233060385439,
            0.755261301175846,
            -1.4501044425247078,
            -1.4204764103245646,
            2.2053944077517302,
            2.3100022835237453,
            2.4049106839988434,
            0.6693622028278828,
            3.855224154170414,
            5.327131692913735,
            0.3637022781854452,
            -1.2728073575233285,
            -1.0653781787055119,
            -0.3066003600637954,
            -1.3966172881709524,
            -0.20144456301131053,
            -0.8709187043166413,
            1.125603229052922,
            0.2104333064231135,
            0.9501057601955569,
            1.3425204635514696,
            1.5318682465125628,
            0.4055996915656332,
            1.3888964847574248,
            1.4349514204186515,
            0.7984807793205656,
            0.8032974187285039,
            -0.6327837013013641,
            1.0405923746459427,
            0.16584918236946175,
            -0.05110753175044776,
            -0.32457432738275593,
            1.382685726453837,
            1.182874383975333,
            1.4614536080799312,
            2.0992413858819816,
            4.261877030034123,
            5.32689201929518,
            0.9298952787415171,
            1.9110081002319372,
            -1.1124203220870206,
            0.0623960374350195,
            -1.407462484821178,
            -0.18055002476145746,
            1.5586036828193899,
            1.1405614234871286,
            2.2836805880645996,
            0.890789833230739,
            2.503034245786794,
            2.3918715758322424,
            -0.0028025164029789823,
            -1.2634384423246874,
            -2.196891136442433,
            0.37690996426824314,
            -0.11559090634988181,
            0.07470618005791131,
            -0.5421659312575727,
            -1.3195417130229439,
            -0.3860102736386468,
            -0.6407293677566265,
            2.0311680932590326,
            1.7276676179052082,
            0.6669358285439001,
            0.7614039999036328,
            2.8422473099232235,
            2.851784520463824,
            2.807906841308096,
            0.2647729720276275,
            0.5689907944232682,
            -1.0033761389749485,
            -2.1943110015493055,
            1.88800875765747,
            2.165686593242642,
            -1.0522292216626847,
            1.125213858250148,
            -1.3587431395249883,
            1.0394187229685625,
            -0.0735731993691404,
            -1.5880751337096108,
            -1.594335763806042,
            -0.04450203542538634,
            -0.5045072209526998,
            0.7667094137147895,
            0.03101926716280481,
            0.5128366391695709,
            -0.2642787517551449,
            0.0742133390397252,
            -0.37535707349807484,
            0.39123387890347,
            0.20676154597641364,
            -0.6878599990318554,
            -1.0383803540138021,
            1.8693938020660994,
            0.9053608246223424,
            2.0825761944951835,
            2.722123514545075,
            1.0918957101030358,
            0.5773569898542518,
            -1.690622394975231,
            0.318557144694759,
            0.35317437892243386,
            -0.8581513931367094,
            -0.1729720748567343,
            -2.370417752621444,
            0.418677449888242,
            -1.5789749891867229,
            -0.9364145188942686,
            0.2260791251422334,
            0.37146442386125106,
            0.6142746473554533,
            0.8284222619275224,
            1.6079283105990956,
            1.6866553676468163,
            -0.6355075671186614,
            -1.0596318466664476,
            -0.8359329316548182,
            -1.03012245685113,
            -1.8145846927545122,
            0.21059192962979945,
            1.1405405579845784,
            1.5733196917759624,
            1.8691195009142996,
            -0.40281107189538945,
            1.0079591129789518,
            -1.4133602335261322,
            0.5215807145923747,
            -1.3954000184548347,
            -0.1292011297208824,
            -0.42012629338242513,
            -0.5160622265377749,
            -2.6540617669635953,
            0.19043756216593574,
            -1.0986928486080998,
            -0.5624728973269141,
            -1.664737723412453,
            -1.1325770034986102,
            0.10920162355100589,
            0.5369505867558919,
            0.522782325154609,
            -0.2612127156787667,
            -0.7990031502071349,
            1.236188593596903,
            -0.8466635582204283,
            -2.2547015802457833,
            -0.2274748232713475,
            1.7454367176690242,
            -0.6421010297632948,
            -1.258522635710407,
            2.478166242286616,
            1.7840068163402742,
            1.8776618363673638,
            1.5048467269615766,
            2.8406892663245986,
            -0.1133850610202839,
            -2.833341298827213,
            -1.1123948271556918,
            -0.25238632488727847,
            -1.0838961614402358,
            -1.3668017063566096,
            -1.4402967048970599,
            -0.015699159796322075,
            -1.4495121864526541,
            0.8444508091466162,
            -0.898722973806811,
            -0.09033080431275621,
            0.45577934820089605,
            0.7986039615602709,
            0.5585011676544014,
            1.4108270654062776,
            -0.28758688157760015,
            -1.913633565799687,
            -2.19452155771967,
            -2.635037681544944,
            0.28259019721189077,
            -2.4602626082513295,
            0.32353912914354566,
            0.0030799513339620013,
            1.1846203562646536,
            -0.5386673340988906,
            1.7766372090853495,
            0.9338429569997054,
            1.5220444115630307,
            -1.4502234638562372,
            -2.4533023191181487,
            0.46428049609853744,
            0.7952488843057893,
            -1.2236133299447598,
            -0.8113153523026296,
            -1.9187426313423284,
            -0.40870069783750823,
            -2.6455210466646584,
            -2.2175616530501374,
            -1.1587421237179116,
            0.7895507637151575,
            0.23754843681889065,
            0.17569301502730594,
            0.4509047073226419,
            1.1250181827304746,
            0.8763549617278944,
            -1.6257004003252011,
            0.40026410196190515,
            -0.7101930126761987,
            -2.703806672771822,
            0.04837196880993488,
            -1.5037609422957903,
            -0.11938346011682581,
            0.34430634250781283,
            -1.3099660702618605,
            0.8812482357745964,
            -0.5076327648186019,
            -0.311702371456586,
            -0.48716439373278414,
            -1.9169367139676206,
            -1.2961761468036195,
            -0.9615824671625115,
            -0.9477659049448369,
            -0.5303597725714164,
            0.4707075819718839,
            0.11342932945426483,
            1.2838553797745804,
            0.6978678577501777,
            -0.4579672729220202,
            -0.12519622141258602,
            -1.9512051230828187,
            -0.8163963897638093,
            -0.848906260632469,
            -0.8288028096666963,
            -0.9694521399097835,
            0.468645132472041,
            0.19909171220076285,
            0.13161176904976365,
            -0.24543609072506617,
            -2.0695294839606855,
            -1.474103210666395,
            -2.126834986766475,
            -0.08213802850301476,
            -0.11971585183358649,
            -1.526831279011492,
            1.2135697304640616,
            -1.331370662149021,
            -0.4846631741748482,
            -1.011253091152103,
            -0.15307994350814094,
            -0.6051134485055933,
            -0.506569411407042,
            -0.02346079445409003,
            0.3379596156175414,
            -0.31365975817463065,
            -0.7164305040948445,
            1.2325878604064135,
            0.8038260158567577,
            -0.4357842261849565,
            0.06127226247833739,
            0.5503531475424627,
            -1.596843687664512,
            -0.47349985861637556,
            -0.7263160812062872,
            -0.9088797702822202,
            0.7406891849827009,
            0.7284531326355651,
            1.4440234974217743,
            -1.6314299570969826,
            -1.9513936944540293,
            -0.1629194239673005,
            0.400584903239685,
            -1.724566154469857,
            -0.6116809927254662,
            1.121462926542132,
            0.2086995427666874,
            1.2076778061375666,
            -1.5894925420050119,
            1.7351770351123847,
            -0.426705859655218,
            -1.4924099556469779,
            1.3387011728573348,
            -2.106115164307043,
            0.20671514498121923,
            0.5975889380270485,
            -1.2403622614088388,
            1.6525088962507504,
            -0.5147421610467849,
            -0.4949185649656405,
            -0.25520791762664663,
            -0.6984728254711242,
            -0.3868277090515971,
            -0.4175635747154534,
            -0.785981919601487,
            -2.3719522506001574,
            1.0912418229857916,
            -1.184747976443979,
            -3.5475516291538,
            0.9832046796056398,
            -0.29751383572237716,
            -0.19716269993778757,
            -2.1025763703570868,
            -2.082143863638165,
            1.088886861252609,
            1.1488364529665196,
            -1.27074569414488,
            -0.2655354452728006,
            1.9687999623169525,
            2.0595493342905966,
            -1.171036632165225,
            1.355895305137355,
            -0.735172067141432,
            0.6334392735507157,
            -1.5416576661068362,
            1.3838230853946973,
            -1.670596576382639,
            1.0497076456386931,
            0.5264578665938048,
            -0.5746217293215792,
            0.14035139662363835,
            -1.9450037337691422,
            -1.6566712023627093,
            -0.7991335800086165,
            -1.7045269737530035,
            0.5947198491326149,
            -0.09437902264374941,
            -0.2526737538606887,
            -0.32080948516014773,
            0.5318821430170149,
            1.3820434963941106,
            0.48130628802307995,
            0.22886395066212947,
            -0.2332609231693639,
            1.0076398427317608,
            0.38745351108415693,
            -0.42350478204874836,
            0.9846627742355077,
            0.39636727277419415,
            1.4290338285865312,
            0.5229530008948671,
            -0.3869292768418742,
            0.013366617474354497,
            -0.4688136194025951,
            -0.8434341133972151,
            -1.1234197314252536,
            -0.1355669135012427,
            -0.9608286238300665,
            1.0319199555878216,
            -0.9838350113083992,
            -1.168908002705412,
            -0.46350827283488377,
            0.8351653291167971,
            -1.3592660212838237,
            -0.8836452897803246,
            -1.2016481252745772,
            -1.8712884062160717,
            -1.8811260994456032,
            -1.2208237035133251,
            0.4520085336202659,
            -0.017356434857466716,
            1.9264422713515668,
            0.3300515987307019,
            0.9221252461573338,
            0.7225091949851788,
            0.6732747666938977,
            -0.7512987518377228,
            0.1323512582766358,
            -0.07797606224941847,
            -0.8652465527345659,
            0.3096254102539837,
            0.1687357653526924,
            1.7840792465374045,
            0.40333970416422465,
            -1.2146188170032564,
            1.7191238638585848,
            0.6138266360169669,
            0.5384511205272433,
            -0.1778671539910833,
            -0.6497948995553269,
            -1.3635615161393395,
            -1.1408996033498262,
            -1.1000056991523373,
            -0.967741954626773,
            0.14095335079643012,
            -1.3135702124470492,
            -0.6762302740782403,
            -0.835144817445297,
            -0.25289986237889267,
            1.465360738968904,
            0.614298869026133,
            1.2254035407736668,
            0.5470642799372938,
            -0.09835200198861958,
            -0.23015385357851123,
            -0.45113861613673817,
            1.1426731713468123,
            0.8537765740264507,
            0.382569903908407,
            0.47457569620767964,
            0.9670626015938674,
            1.3236590981189411,
            -0.22167079517916996,
            -0.6602146145914767,
            -0.33428217840833646,
            0.2715737422325651,
            -0.6702000502604122,
            0.6618573302548529,
            -0.9236837791828805,
            0.4566542051094118,
            0.659865278070978,
            0.08909037248966492,
            0.3827251733438531,
            0.33793461152237764,
            -0.037093583765485605,
            0.17157691557289814,
            -0.4333638624464859,
            -1.3787960044578378,
            0.5395457022806198,
            0.08671289586803144,
            -0.16622749848963833,
            -1.1073496167023733,
            0.3569852246066493,
            -0.615577770458282,
            -0.7789547233803741,
            0.4714176863983447,
            1.9703870676887314,
            -0.32858178530527987,
            0.13817408554615576,
            -1.1802155279932176,
            -0.24237708037588898,
            -0.9473636714026894,
            -1.3475017243100746,
            0.4227852414678649,
            -0.19151184883885378,
            -0.4926174196889545,
            0.23548150738673343,
            2.1892012575999886,
            1.990296309914901,
            -1.6579264494161663,
            2.1491624268071505,
            -0.6692867322488794,
            0.09164117482601927,
            0.4720319662115078,
            -1.597785039149951,
            -1.6330217224280024,
            0.5440858528271518,
            -0.18620800888793596,
            0.6174341581466872,
            -2.923418013609138,
            -0.26585446989033573,
            -0.06281306166466664,
            -0.37489191764293467,
            0.3913281850981825,
            0.025894437254219242,
            -0.30822996270752495,
            0.12454247830671006,
            -0.38441633289693944,
            0.38559477342719395,
            1.2435316787210329,
            0.7124374482922943,
            -1.3699932467144338,
            2.5163672376169997,
            -0.38149505873372097,
            1.1649480393205796,
            -0.2943909102104597,
            -1.124033610987083,
            0.3806225672035543,
            2.059574645104414,
            -0.6931476256365489,
            0.07657677938446857,
            0.2237412745260909,
            0.34877325422613425,
            2.1526055550175562,
            -0.8662373926592888,
            -0.49954524286904245,
            -0.06350241702575568,
            -0.6391121615690268,
            -0.5910949285836639,
            -1.4935833318400429,
            0.69779888377196,
            -0.9348133584838285,
            -0.39812547658192826,
            -0.6913852646260328,
            -0.7072902117773925,
            0.17271865525943525,
            0.2038179368924573,
            -1.164309591111787,
            2.1072935289799135,
            0.7153754634596222,
            0.7167936741452233,
            -0.40462957607571665,
            1.3417974585239452,
            0.17959550438425684,
            0.6352052752328677,
            0.401086785570961,
            -0.19171867412511281,
            1.6468472506785548,
            -0.04388966341095494,
            0.259479073663116,
            -0.28369910159548056,
            -0.1391853813665118,
            -0.6581440475513238,
            -1.4233112729127657,
            0.24188975405009047,
            -0.8057103484071008,
            1.0392528908454097,
            -1.4976571671740369,
            -0.3900204576342891,
            0.8992479000298634,
            0.60078011604276,
            0.8043808271744635,
            0.24031569103892475,
            -2.2706209878269394,
            -0.8418147379009459,
            0.8279061675909971,
            -0.9337501144589403,
            -0.8124509764399083,
            0.03589417534808367,
            0.47875543886713745,
            0.13717040378787507,
            -1.1583386846200978,
            -0.4375518831751503,
            0.5536547293267184,
            1.8703042363250901,
            1.5040809515608322,
            -1.1354589178975956,
            -0.3153323265381723,
            -0.22418191690327735,
            -0.9549415614059064,
            -0.6487158674429162,
            0.784525505691413,
            -1.0653904111051866,
            -1.3271424663207616,
            0.07958975364013209,
            -3.524492575947348,
            -0.034584457263188914,
            -1.4859144245829747,
            -1.1877152005469824,
            -0.8688721578351801,
            0.5990452717071664,
            0.906070090395541,
            1.572007415563031,
            -0.30182294654673103,
            -0.5096663647776514,
            0.9969281778956036,
            -0.6103729921729149,
            -0.6171500605555723,
            -2.6749015364504127,
            1.231590724045962,
            1.9770172360425156,
            -0.5227609790566747,
            -0.5511833125466723,
            -0.725588318091464,
            -2.0324769732853394,
            1.04107442942406,
            -1.0916457105120343,
            -0.7963679597322613,
            1.0561583847276328,
            -1.182610304168198,
            0.2628694898054973,
            -0.016186467272925834,
            -0.5008197734005437,
            0.28940350248485497,
            0.8210375154225388,
            -0.6282167868611942,
            -0.4094884017215269,
            -0.5263150424173995,
            0.1553595783703115,
            -0.5042652256271613,
            0.640850560599655,
            1.097073272767779,
            -0.4607637124599713,
            0.08685238819345138,
            0.32962938148878584,
            -1.3311775570846818,
            -1.3532085066202209,
            -0.4549991183811859,
            -1.3687875842910302,
            -0.27926213664124244,
            0.3224533299176507,
            -2.111549042377332,
            -1.0992203503482043,
            -0.013361519082428046,
            -1.6781018296013785,
            0.8215440902777862,
            -0.005919145577792653,
            0.7938302089807586,
            -1.7220864246812964,
            0.37651006783743074,
            -0.47715469382241527,
            -0.18737244990837668,
            -0.2085765726146542,
            -0.2551013150416723,
            0.06216007293802867,
            -0.6402823215165742,
            0.3389918542112406,
            -0.6653919270309828,
            -0.5714632113490731,
            -0.8478226831185016,
            1.012209702409465,
            -0.6043767431376108,
            -1.0670018884672179,
            -2.3460279172456064,
            -0.4040184300113129,
            0.18908808059889504,
            -1.827339141649749,
            -0.19201641201573227,
            -2.0917003758733737,
            -2.3982972428214326,
            -0.019262651020418475,
            -0.5564337548224817,
            -1.1272742532974007,
            -1.5771144452497798,
            -0.8107566479610155,
            1.369940557017411,
            -2.182445441252319,
            0.022554149432033675,
            -0.6335738017186973,
            -1.0361969321681763,
            1.7017235901205452,
            -0.7627882264778507,
            -0.5478666028119503,
            -1.1319793002358616,
            -0.02406987661417057,
            -2.4066027431657986,
            -1.1361500564576146,
            2.178757976726223,
            -0.9112007105300275,
            -0.7818516062796137,
            0.19139445774197353,
            0.2952376667560523,
            -1.0929207713992968,
            -2.1101329123920443,
            -1.6371276383221998,
            -2.584227226797532,
            -1.7322286621650484,
            -3.080453461979708,
            -0.9773378136439912,
            -0.05586453112736111,
            0.5501519015209101,
            0.8154817804052237,
            -0.9233318531391699,
            -0.3809766398297051,
            -1.4060404800020512,
            -0.7691461145777302,
            -1.1643490613311234,
            0.8148291331827157,
            0.8171611531593439,
            0.8174094672878265,
            1.7949491453121436,
            -0.47386713061645347,
            -1.443924393520794,
            1.4517207529074663,
            -0.4614098143594696,
            1.0038676281126444,
            0.3629690609891149,
            -0.057590697333841666,
            -0.6313240880061484,
            -0.6164983903199635,
            -0.8638188033245436,
            -3.458975783621917,
            -3.2484492846699085,
            -1.5282511758846096,
            -1.8516475899927582,
            -0.7858717928332569,
            -1.8207288566593862,
            -1.2657621547433378,
            -2.0453513558973273,
            -0.8751031849824559,
            -2.609113576879989,
            -1.6287624831321206,
            -0.863113166061763,
            -2.3570650949370813,
            0.016575321480026068,
            -0.6152679844089354,
            -1.8085140833612279,
            0.34121272812247905,
            -0.19621814947594116,
            -1.5950458599046529,
            -0.29308291385897184,
            2.3356026738241265,
            0.03351793805260537,
            0.487413227947229,
            -0.3076649433298239,
            1.5292524914023462,
            0.8047369949652571,
            -0.47693210570996375,
            -1.036161489996878,
            1.1502219578660269,
            2.148528019371643,
            -2.0738655271680853,
            -2.6471067114367073,
            -1.3231479754103905,
            -1.4675671913710835,
            -2.5317414212356195,
            -0.898963601017812,
            -0.6350400836002803,
            -1.5330188750171165,
            0.008973929858669388,
            -1.4416001982839652,
            -1.0893168091980603,
            0.24820203462166965,
            -2.3616917833519935,
            0.5226676808491976,
            -1.0135434990057548,
            1.661392157338792,
            0.3643010825499339,
            -0.39415588925132516,
            0.4895727505010064,
            -0.04046643170291316,
            0.16639964579852978,
            1.287959334000922,
            0.17372760936877024,
            -0.3570425005544732,
            0.2759424077056749,
            0.0465798242489937,
            3.2734578813365514,
            1.354794403515666,
            2.216461788757251,
            -0.8295547756068192,
            1.5150658971043884,
            -2.0093644743451162,
            -1.1074722910496495,
            -1.012015211588087,
            -0.09445487303478271,
            -1.8023765753941987,
            -1.3107074719141756,
            1.1978918303558834,
            1.9961951454167182,
            0.7047788907707122,
            -1.1086264836418869,
            -1.049267017199933,
            0.796717025427143,
            0.1677213750123192,
            -1.3410389366763342,
            -1.8308016342297189,
            2.333786925084936,
            1.5035813165468768,
            1.8295775428711036,
            1.7843308871206165,
            0.6514700026615056,
            1.1293864586082567,
            -0.8163732414364587,
            0.21545750498532648,
            -0.29615332609285105,
            0.5902719038579628,
            0.7859800692115995,
            -0.602869267444814,
            -0.06901096962137707,
            0.29007334302304943,
            -1.3921561668186833,
            -1.8241657892071665,
            -0.4719311301715003,
            -0.06575966369732303,
            1.4894199321189276,
            1.3321223211990005,
            1.2702434551964783,
            1.5646432484026032,
            -1.0856326685357776,
            -1.457155206070339,
            -0.34160727077513514,
            -0.4445785278235189,
            0.6205615750250913,
            0.37850469061333375,
            0.9852544998881734,
            1.487376891687432,
            1.1994869589225796,
            0.7411322469539453,
            0.6811241881094666,
            1.7642850178392995,
            -1.5828627382522256,
            1.43102209324443,
            2.6777308045438604,
            -0.16216331353984326,
            0.1205827536094641,
            1.9532065473053855,
            1.8995690158782212,
            0.0640361891996356,
            0.9807010151482262,
            -0.8770719158792222,
            0.341867141174715,
            -0.5594639887801353,
            -0.737127647219422,
            -0.494620569623024,
            0.7198484139153146,
            -1.143382046681139,
            -0.13690445349124206,
            -0.9061131738690449,
            -0.586511338093395,
            0.6182577986649103,
            -1.212358392910312,
            0.6987357347660786,
            1.17197128927143,
            0.41712312216051994,
            2.836636843111214,
            -0.039426968318865274,
            -0.37559513442476555,
            0.7291015195660243,
            -0.7049223256204267,
            2.1987891797149675,
            0.7750456702056491,
            -0.03656360829176858,
            -0.44171055524626346,
            -0.6379955034982484,
            2.687109048020897,
            0.8503992623882922,
            0.48499150944666886,
            -0.5087107747332243,
            0.3203406473314252,
            -1.2670964914786709,
            0.7549763373701729,
            0.854352919774586,
            0.6077549863642014,
            -0.7926810342385446,
            -0.2912477299042643,
            -0.4936048439265152,
            -0.7941766520094601,
            1.7348931092374058,
            -0.3092282347565593,
            -0.19446414151740013,
            -0.4082970593423909,
            3.5484968183193257,
            1.0456513937743186,
            -0.0895965750822984,
            1.1039096808708058,
            1.9506825634141052,
            0.7267858026739913,
            0.07866759687565847,
            -2.081478960557103,
            -1.1050765383532437,
            -0.30108905396363356,
            0.3933180695949863,
            1.574981229708823,
            -0.9985932143469135,
            -0.5625189767849051,
            -2.2310543543880024,
            -2.3633710659256604,
            -1.323410389739518,
            -0.24406970818833681,
            -1.0380776468042971,
            -0.8342497349195781,
            -0.44419233605681896,
            1.0000877066504992,
            0.2673730598182892,
            1.357370204946252,
            0.9838453379317391,
            1.2501926463059185,
            0.3198248118990272,
            -0.8847217060894058,
            -0.8641151868983018,
            -1.9284241296468225,
            0.10018699739311024,
            -1.3595703118899056,
            -1.185823230666354,
            0.53767715912028,
            -2.247095418017314,
            -0.7802552231998509,
            -1.0707683246291129,
            -2.2024636215147235,
            -2.606373236184636,
            -0.3008422617412455,
            -1.8821600913704188,
            -3.810076526471139,
            -2.222443282081821,
            -0.827076786372936,
            -0.21409328931771768,
            0.6058447256229506,
            -0.6323039243867685,
            0.6552312760729684,
            0.6067240192533288,
            -0.26859365286520176,
            0.540695400151138,
            -0.35572717578489477,
            1.233294548731699,
            -0.13938984742436777,
            -0.9918743578191817,
            0.2639463266421645,
            -0.0019375279167114779,
            -1.9408040979020116,
            -2.207853410913139,
            -0.28656544299487385,
            -2.152016730324644,
            -0.8938834260756368,
            -0.26647976242222565,
            -2.5560519853143746,
            -1.8510046509903795,
            -0.21326611192212314,
            -1.094619797470426,
            -0.8119542517012999,
            -0.8188429477704544,
            -2.462920837651699,
            -0.11751125019088354,
            0.7751476247419805,
            0.8607054028684233,
            3.2003597332138374,
            2.835816872817964,
            2.111825373606956,
            -0.662583835975178,
            1.1051706397075673,
            1.7523187207788937,
            2.0728736313361034,
            -0.011219858261356882,
            0.5978635054715005,
            0.07472526531373108,
            -0.103493051685658,
            -1.02839460669973,
            -0.7385255798722422,
            -1.4870548643656911,
            -1.171432599949145,
            0.018550597731393063,
            0.41093290346561845,
            -1.6715268502557892,
            -1.527401945200738,
            -1.9914690121914764,
            0.3086311525959718,
            -1.1086707615164624,
            -0.5522115513276316,
            1.497093029599743,
            -2.2527051831857547,
            0.5136816974003839,
            -0.39335055183511636,
            2.495074435663057,
            -0.16518699553272181,
            1.6508024317803467,
            3.0228085244913663,
            0.71290429113342,
            2.2756476379743495,
            2.667466828423997,
            -0.6859121295680667,
            -0.21955124497695166,
            -0.13112012484839503,
            0.32200303668404956,
            -0.16537870213309144,
            -1.5478756012175583,
            0.9726123740644479,
            -0.43957035134197436,
            -0.46700350343264835,
            2.1099408333303473,
            -0.9139255780488413,
            -0.6447516292781883,
            -1.368695564055375,
            -1.6323015328260642,
            0.1609484234327847,
            -0.8156554385901975,
            -0.25544436640142054,
            0.29888242840743096,
            0.4621384952520097,
            3.1222168041205096,
            2.743298225831151,
            0.4313324499910418,
            0.6190541073125844,
            1.6746807578684118,
            2.102706957028956,
            0.2173218612844383,
            0.15739391917096332,
            1.3284563408865606,
            0.13490077010348345,
            -0.6078029506481265,
            -1.501058791321904,
            0.858198340577441,
            0.7994435814365706,
            0.7476188171645494,
            0.43318389913329963,
            1.4199408191596863,
            -0.397391009165507,
            -1.7616343086627906,
            -3.2808641406294803,
            -0.23898641485199126,
            -0.27539443611791636,
            -2.657383090106896,
            -1.9223313877629364,
            -1.798123323468421,
            1.7664118143972645,
            0.3864670312419163,
            0.029330497571010535,
            1.1709982875058584,
            2.4623580441649398,
            0.5100420104521304,
            -0.1833813132502218,
            1.9938119514911679,
            1.2585535398675858,
            0.343666673378707,
            1.053897276690691,
            0.5171951667145743,
            -3.304515510087881,
            1.4158976024295766,
            -0.1983177410129052,
            -1.5454863031005448,
            0.5383482742235953,
            -0.08773809865680601,
            0.03826609334010183,
            1.320596425931393,
            -0.2929261686578497,
            -1.8453439048303046,
            -1.3825367835034865,
            -2.8964866119298684,
            -1.8893473887604497,
            -1.2329167188749897,
            -2.5563319938704128,
            -1.4255245538829404,
            -0.15480301047877462,
            0.49505601408569944,
            -0.5020270913990232,
            -0.7036772968764503,
            -1.0455614960001383,
            -0.319812217930287,
            -0.7049230675094044,
            -1.3648362875471276,
            -0.29655935545139556,
            -1.2229957866828636,
            1.3804543221895145,
            0.43459933271690054,
            0.4123566163881529,
            -0.24178246874966633,
            -0.26087264281514877,
            0.09275787028735508,
            -0.7877264424974014,
            -1.2999807666797853,
            1.6486322977434371,
            -0.7969127174234419,
            -1.1521089823286281,
            -1.1146675756644284,
            -1.052586630523485,
            -1.2546579372459317,
            -3.5658767532302287,
            -2.9596809642310453,
            -2.210670887277193,
            -0.5091022629094872,
            2.233931814936912,
            2.332774397956691,
            -0.24855905872797285,
            -0.5183617853601025,
            -0.20995279938464415,
            -0.2181586403467993,
            -0.376485796220178,
            -1.6380602170395673,
            -3.1117420595112635,
            0.607719084117467,
            -0.40239046219819524,
            -1.7985662965902993,
            -0.3791085849044896,
            -0.8698727070164952,
            -0.1629003282824772,
            -0.7386888118054458,
            -0.10851467693879321,
            0.4033673531616475,
            0.4280294492245895,
            -0.04142916165590055,
            0.935554961112022,
            -1.1820632913494311,
            -0.0027665279190558665,
            -2.071724175774001,
            -2.195204086061767,
            -2.507037123573926,
            -1.5193111844746658,
            0.4938236013309131,
            1.299670183817389,
            1.5413884653037637,
            1.8621364593002605,
            -0.35361081648224324,
            -1.0737402806359617,
            -1.3459536351205559,
            -1.3511536387959588,
            -1.4345174424499714,
            -1.1855897736391385,
            -0.7998847012896637,
            0.5343423234718817,
            -0.25855483658670325,
            -0.8068651591400484,
            1.4876873516180276,
            0.8028960774045009,
            -0.3654457388734452,
            1.5860147178201036,
            -0.23764316666980237,
            -0.31829276195817074,
            -0.5989078953167504,
            -1.7743391179908612,
            -1.1093858161699333,
            -1.6166392152624207,
            -2.8277522856194253,
            -2.0656541087372697,
            -1.365694652049701,
            -1.1654564099453175,
            0.1144265454933679,
            -0.08094053916292401,
            -0.493150844116587,
            -2.134927631604957,
            -0.8967279343036405,
            0.7728043181720973,
            0.48947396911091456,
            0.040476350201250566,
            -1.0604719897172479,
            0.9198630131111616,
            -1.3006538485167887,
            2.1610053218085046,
            0.17799990926829787,
            -0.41474680958483656,
            -0.020673759637736256,
            0.6268505143715505,
            1.0509346286371863,
            -0.2755144716658573,
            -0.8129229982240126,
            0.35887297613897484,
            -0.7349018086815565,
            -0.5591822688126007,
            0.26802243272874077,
            -0.3410820436300594,
            1.0774543667842245,
            -3.559574520279379,
            -2.0074902187916037,
            -1.6615731472409005,
            -1.3016302637079524,
            -0.7293224819523656,
            0.6619212995058182,
            -0.21330232276101674,
            1.22375703101688,
            0.626547109549129,
            0.5363617845277526,
            -0.5677218812736703,
            1.2246193243099563,
            -1.2073706064392928,
            -0.2354098414669837,
            -0.5494232820974507,
            -0.8975325811141122,
            0.6369689249148665,
            -0.5733672715766751,
            0.3834564441484172,
            0.5587744843706608,
            0.038673830580083064,
            0.8324811087673992,
            -1.3699197315214637,
            -0.17885761666435704,
            -1.2134452713256612,
            0.14087363317612017,
            0.5617323906289665,
            -0.14244669755019213,
            -2.117739531758475,
            1.6176489272294519,
            1.895017771372167,
            -0.14693681117520008,
            -0.011205740744426693,
            0.1780779044738523,
            0.4473387069071953,
            1.9425490191787957,
            1.9602538247526622,
            2.109024682386911,
            0.4250140978890207,
            1.8078692906700786,
            -0.02090232093401631,
            -0.8555652365747168,
            -0.06976170381714593,
            -0.3845476916214258,
            -0.00417903398252039,
            -0.81433805446637,
            -1.2422499392210995,
            0.18544850077764383,
            0.7145304381531319,
            -0.24642685492207392,
            -1.332002747253793,
            0.5013652428398457,
            -0.3896671644246616,
            -1.639764937745103,
            -1.3617075546851767,
            0.45864991384696996,
            -1.5990951268549958,
            -0.052268992005564244,
            0.024012413866482094,
            -0.6176441623546539,
            -0.4280586283793435,
            1.2257420272856896,
            1.2430544698550001,
