{
    "layer0": {
        "weights": [
            0.485146161652024,
            -0.9868794337229522,
            -2.0859677547831073,
            1.355819646100001,
            0.6576803685288374,
            -1.0049453969337137,
            0.9530978061752003,
            -0.1439526165865609,
            -0.45464868974860106,
            1.1338010454811656,
            0.05120757991876796,
            1.1824753711415192,
            -2.407686262952895,
            0.9036028247367858,
            0.17479299925078337,
            1.1437111462489495,
            0.3703946483201507,
            0.9485272722670159,
            -0.14196295286682653,
            -2.556119912396376,
            -1.1671248726234922,
            1.5723058919591724,
            -1.3869500573373594,
            -0.06912488063703624,
            0.5944584744795968,
            -0.20554106020225596,
            -0.19155388130632708,
            -0.23480439695023797,
            0.21324934251616223,
            -1.106845971977391,
            0.8413092841559512,
            0.45119958332139803,
            0.6128707464911998,
            -0.7012123370216224,
            0.5804136684043497,
            0.4980775225936568,
            0.5758977436713791,
            0.541265437705573,
            -1.6421909566803194,
            0.5285480967696079,
            0.5615937886579866,
            -0.9300543300535817,
            -2.0904184125482956,
            -1.1045255005001144,
            -1.1932972575395782,
            -0.690933329529934,
            0.7204308317624775,
            1.1604934734529397,
            -0.8491282065158652,
            0.25307412851643907,
            0.3734603001148949,
            -1.556136123203316,
            -2.8909444836697245,
            -0.811537084972808,
            0.08338113513152041,
            0.13336968402819907,
            -0.4980063458038566,
            -1.2787201313478747,
            -1.3694568643054046,
            0.09249796000966144,
            -0.8107997414814496,
            2.5904299193675886,
            0.32647973925254653,
            -0.9587982225315732,
            -1.110062844615872,
            -0.48150874011965095,
            -0.6167822711905692,
            0.8046020964366773,
            2.457610992890992,
            0.7056057823106163,
            -0.36483867881321524,
            -0.9243399541661044,
            0.359900088939555,
            0.6745916910909231,
            1.699891511184004,
            -1.394925562503287,
            0.5784259322892739,
            0.45428757671776315,
            -1.2263072779510091,
            -0.22448177533397148,
            0.26699462796492546,
            -0.8885081871923213,
            0.8998591575563156,
            -0.4427693782178362,
            1.198376483454379,
            2.0702663888964072,
            0.039054565558335454,
            -1.5347188852555032,
            0.8844508727475863,
            2.936987436955936,
            1.371101189779696,
            0.2904398145183147,
            0.30982076396444824,
            0.5409960133768106,
            0.9448960065569424,
            0.736593863457724,
            -0.7813337029647075,
            -0.22351475349196884,
            -1.5430209570301754,
            0.35656412661950104,
            -0.3423182271522859,
            1.4534572259699372,
            -0.5329150053760112,
            -1.8487558406047195,
            0.4382474298647036,
            1.4740902553461452,
            0.9140660948155459,
            -0.07763739058045913,
            -0.6955097857035175,
            0.4942667325875621,
            -0.12849117679479158,
            1.126178020498039,
            -2.3957851802201873,
            1.390233827991231,
            -0.01849417572926078,
            -0.36532701487043323,
            1.3100122488495611,
            1.3814052324886248,
            -0.7916973558111645,
            -1.3850372945807132,
            -1.8000738670257082,
            -1.663846941758036,
            -0.8548779025071174,
            0.5128539961523495,
            1.0293947211747296,
            0.5480354230771758,
            0.5336454397680308,
            1.1230297206535407,
            -1.1727556068400067,
            1.288205056179238,
            -0.27393256741530697,
            1.1729705864500415,
            0.341961437723703,
            -0.08547079067453964,
            2.1224949655650183,
            -0.4989697683623654,
            0.6832464956488733,
            0.6186447129889792,
            0.3771252793777229,
            0.15394179856643736,
            -1.5345625491004011,
            -1.111057110135132,
            1.0872367579898385,
            0.465709488211605,
            0.111387206831923,
            0.02107391551314892,
            -0.17713217660313738,
            -0.3140884394432342,
            -0.479828468579575,
            -0.6394728270275744,
            -2.619310652789676,
            -0.2368792577078058,
            0.5012583279451222,
            -0.7078617230524236,
            1.3967020310877245,
            0.9032453334071423,
            2.631351831250804,
            -0.934791931886084,
            -1.4803665225781675,
            1.2072858645886926,
            -0.3637524731520148,
            -0.2162489180997888,
            0.3891909815501458,
            -0.3874070734072729,
            0.23662949737092143,
            -0.390039107412833,
            1.4648454569888292,
            0.11439473803472813,
            -0.5705445481296053,
            -1.4593607626085474,
            0.4813532146007884,
            1.7363359326779673,
            -0.8222204131518853,
            0.6115021085935498,
            -0.7979968294368465,
            -0.1451358495163217,
            -2.1790065667168457,
            -0.4124362656553428,
            -1.2469568482539088,
            0.49124354737037734,
            0.6868388782655688,
            -0.4501832980630275,
            1.3103512785559766,
            1.0906796437288888,
            0.5653860615196719,
            -1.06775821977237,
            -0.19970180524658018,
            0.3125165013756382,
            0.21009668401814596,
            1.6391175652809453,
            0.32648997312456124,
            -0.38333219532484236,
            0.7860737994936904,
            0.016098807443721778,
            -0.4726963919104519,
            0.6152962414506523,
            0.7477776591395214,
            0.32178902949342597,
            -1.9915646662055102,
            0.03663478736353406,
            0.6440881119087577,
            0.790438802558564,
            -1.5701543708416144,
            -0.20364433055819942,
            -0.7865172984221286,
            -1.6200044115607461,
            -2.2559170698466784,
            1.0035637036176002,
            2.5213772488028003,
            1.1310925173020066,
            2.027822067981025,
            0.1615232560263076,
            -1.244617536739649,
            -1.214157806338954,
            0.7549985013116893,
            0.5899780801450526,
            -0.8414265732797049,
            -0.6311513031752302,
            1.1222191639358379,
            0.24690792631218086,
            0.2700770570570136,
            0.4091125136234937,
            -1.7125891418330825,
            0.5892681175313449,
            -1.3661071041752268,
            1.860804850550125,
            -1.2685509579843683,
            -1.382370729397569,
            -0.37271956542302803,
            0.20273109486970398,
            -3.1807170099813127,
            0.11526701153025233,
            -2.7473501423621753,
            -1.4885822395149897,
            -2.048000418181109,
            -0.24412385473868187,
            3.8370107986230924,
            1.3346520160750142,
            -0.33664402206829125,
            0.5921682423334722,
            0.929698779441923,
            0.5966677453770564,
            -0.866334918373738,
            -0.6160649541726771,
            0.7233737399776589,
            -1.0397231857930418,
            -1.0403506464051109,
            -1.0284454095891724,
            1.1846213218041075,
            1.9410492936899273,
            0.878917616489861,
            0.8669387168282789,
            -0.21636981086848803,
            -1.7082234564330832,
            -0.38061325430622156,
            0.5365572379639946,
            -1.798471710282385,
            -0.2575923087520052,
            -1.5814388396750192,
            -0.48355022773879885,
            0.4086299310257266,
            -3.191736798853715,
            -2.7170500497267933,
            0.22835624062708335,
            2.036710912833638,
            1.630959432173762,
            2.1369379377127946,
            -0.7139043678947514,
            -0.148615053243313,
            0.0868433452537795,
            1.3052178878928165,
            -0.7974879201743735,
            -0.7000238639558601,
            0.5079385583211585,
            1.3081820050840929,
            0.34945566634830055,
            0.9295492744482898,
            1.6853156038901833,
            0.9009656935979937,
            1.2194300455999647,
            0.7004546461925693,
            -1.876599839552667,
            -0.5791191371491858,
            1.4939987208711112,
            1.588483831792272,
            -0.8520513083923322,
            0.6144775651065324,
            -1.9409806142524586,
            -1.6508570966310654,
            -2.330436944371446,
            -1.5172125780050931,
            0.9129559539248006,
            -0.09042813365639431,
            2.1743641275593477,
            0.7044764766052055,
            1.254086482532576,
            0.4562409091338274,
            0.6291526007507721,
            0.6520513428713225,
            1.5749514151026445,
            -0.7883504503132757,
            0.9129764800928519,
            -0.27194285348204866,
            0.8198710986276865,
            0.7956315951504477,
            -0.08548425195960095,
            -1.2450763869759682,
            -0.199276091055489,
            -0.15866852761030234,
            -0.38143159243368385,
            -0.4548170402522115,
            0.4885064890854772,
            -1.0215121189944973,
            -0.5838030197846095,
            -1.2988918742924367,
            0.32839037912240016,
            -0.1933652503569021,
            -2.592723114298186,
            -1.550595848752981,
            -0.5427071917933007,
            0.03356606677411222,
            2.0323721969850825,
            1.4050347315790825,
            -1.2494892346357842,
            -0.3876149018542488,
            1.3132393948568784,
            0.20879550585163337,
            0.08955744674627074,
            0.5064123660384321,
            0.9948889452030052,
            -0.7926585236055845,
            0.18671471858485078,
            1.623441278011239,
            0.3856164965173081,
            0.20674082500175023,
            -0.7807351346392819,
            -0.6909495855920059,
            -0.781879814070541,
            0.1050092336949783,
            -1.1050372582443342,
            1.3525730190716767,
            -0.1602748268456976,
            0.7920841823885394,
            -1.130899498604773,
            -1.239115856910989,
            -1.4242667283990438,
            -0.7888836575555259,
            -0.08792351975990624,
            0.556231081838561,
            -0.7334433490677446,
            1.4588459735403194,
            0.10325373606311929,
            -1.0039727837781414,
            -0.4381984524747166,
            -0.11208479684190126,
            -0.06846858740865953,
            -1.1860325922321995,
            0.6254328256536753,
            -0.7019400371951952,
            0.24642121714543097,
            -1.7374468912836336,
            0.04386727529092846,
            1.6272718481690158,
            2.150228470232614,
            1.6062897032666936,
            1.002267019084837,
            1.4237439706650796,
            -0.5283642664762676,
            -0.004465267626737043,
            -0.9522350902986129,
            -2.046251800820053,
            -0.6406397862116183,
            -0.4665341758803473,
            1.7361368652893703,
            0.30325726398320074,
            -1.065306440784128,
            0.8284357801312093,
            0.8360612689323269,
            -0.39523191764846516,
            1.3926950065148993,
            0.10086717795462,
            -0.7597811743969476,
            1.316018653730413,
            -0.8753551715727991,
            0.02041930397854076,
            1.1107178218885638,
            0.6662631415118622,
            0.17884842607092064,
            0.8059160312886614,
            -1.4805963830709719,
            -0.20753636437524614,
            0.48978179037833125,
            2.5614200781001806,
            0.291389243998325,
            -1.1454529035117602,
            -0.5392989472823542,
            -1.2686899698493164,
            -0.32451193063486794,
            -1.1464254832463205,
            0.5019586085045648,
            -0.6150532157982272,
            -0.4097546555927211,
            -1.7105233903610857,
            -1.3003111894659112,
            1.3858171407598852,
            -0.6645813694232887,
            1.0428125465575504,
            -0.061211046939034335,
            -0.36457438996755,
            1.4762975273357941,
            -0.7129910335455422,
            2.1971085754097115,
            -0.35662099029346084,
            0.055374825820526385,
            -0.09758588898870067,
            -1.113002094551903,
            0.17616450799257263,
            0.062246534406746254,
            0.8977778793406318,
            0.6448262771641841,
            1.1257042324592028,
            -0.2652303085205701,
            -1.4499895205557005,
            -0.12627158227304633,
            -1.9051448003753937,
            -0.15375341156760805,
            0.42706277274856164,
            -0.9126330496918111,
            -0.6509178369195726,
            1.215644062158746,
            -1.346571638388352,
            -0.12789776911169773,
            0.020135237958561127,
            0.6581810585088583,
            -0.8744877530679536,
            0.38372815023547735,
            1.3228851012485194,
            0.25129125113610334,
            0.7454591680741309,
            -0.3124105549348617,
            0.1209415431200347,
            2.3189777476085522,
            -0.2020519780923215,
            -0.08861848373616216,
            0.894439342787496,
            -0.5229760376212537,
            -0.25507176646191726,
            -1.0987974585310005,
            0.0705525807679867,
            -1.0985105371885424,
            0.9262953423422315,
            -0.6696145150725905,
            0.11924989941167248,
            -1.7818112852596388,
            0.36816818187276995,
            0.7838614712191683,
            0.12534230052031053,
            0.030315747330294938,
            0.03892478670615401,
            -1.1583579807806776,
            0.4168900548916176,
            0.032225594926714965,
            1.646175500725208,
            -1.7880080319969074,
            0.040365556928444644,
            0.43264560743462704,
            0.8349571306186787,
            -0.31379723193160075,
            1.064101510966487,
            0.32598882087352277,
            1.0719481831425905,
            1.3529975397678389,
            -2.1455935987558057,
            -1.214020220189911,
            0.6640441361325804,
            -1.1307410458694143,
            -0.21161276386059164,
            0.6851269851829578,
            0.6882478004650461,
            2.045297908585168,
            -1.1347031278733208,
            -1.3429175888507863,
            -0.42317235090059085,
            -0.9516845683077216,
            0.4275254022403258,
            -0.8141314090243527,
            0.23168450047534306,
            -0.013074026073597736,
            1.4598994831601566,
            1.3771163859199251,
            0.6726994032416839,
            0.5127077701863536,
            -0.24939716741676854,
            0.6062551228414935,
            0.55735097415743,
            -0.856613982116249,
            -1.2044710605291389,
            -0.8026389636395314,
            0.8597153793377074,
            -1.6525270704046475,
            -1.0190580527255362,
            1.6510019718562243,
            0.16811970722180786,
            1.5421125644683105,
            0.800766798772783,
            -0.6581699855588523,
            0.44147839955153473,
            -0.8902205139128225,
            -0.028543336332220316,
            1.721180442069503,
            1.6091392859425668,
            -0.9972947362951495,
            -0.4076242563517476,
            0.09745488086076096,
            -1.570558212996127,
            0.1188078231274248,
            -0.09867241715828518,
            0.08028308447393029,
            -0.3837582218077133,
            1.6933948719711858,
            -0.4122206343787479,
            -0.4401567790273211,
            1.4039957979063606,
            0.010832723463938699,
            0.828700060993276,
            0.32427487030345575,
            0.8270218569338752,
            -0.5883185738165585,
            -0.14682453081477265,
            -0.027128632718302487,
            -1.6932724217208162,
            -0.8200662895388132,
            -0.36071001882324727,
            0.5675273887865482,
            0.9551145883248434,
            1.660083143220446,
            0.5515806879453543,
            -0.1808782897965213,
            -1.016251135623663,
            0.2918819520178085,
            0.0265948697397032,
            -1.0782960017767464,
            -0.4258080101098503,
            -0.23641876233444686,
            1.6932723086196855,
            -0.7961878593200408,
            1.2014276719902348,
            0.3170991179371032,
            0.9219438179159659,
            0.5902235910445204,
            0.8192903825576818,
            1.1016451950120292,
            0.2150474094584935,
            -1.2586501288842713,
            -0.9294978263626593,
            -0.0489669552142342,
            0.19592325053816761,
            0.8410712032187044,
            -0.1381864661487869,
            1.3031751506634568,
            0.04169014037094576,
            0.8099282839586063,
            0.022520407178018426,
            0.09259659666613292,
            -0.4225082437823634,
            -0.2700628481153384,
            0.9374566000350876,
            -0.8667187416421321,
            -0.27988704937703945,
            0.9538242083104419,
            0.5637483409103035,
            2.0947505424971973,
            -1.1406445383174066,
            -0.5277404959029243,
            -1.6630512397749908,
            -0.8445182463812664,
            2.399442338739022,
            -0.730059001629316,
            0.9982342843598038,
            -0.1354309023408931,
            0.7754806318933187,
            0.9084452432868164,
            0.6357967398261596,
            -0.6916916848444884,
            0.06786623881360057,
            -0.1603965782508619,
            0.13342710969145444,
            -0.12879041594345345,
            2.3882507758603153,
            1.7854159168743058,
            -1.485266630275913,
            -0.9697039807070418,
            0.39089160384370064,
            -0.08393637454604054,
            -1.7701723030188146,
            0.0352078534862834,
            1.8996045803359454,
            -0.04426796324110034,
            -0.2079054736257315,
            0.8507319828001443,
            0.825943216467309,
            -0.2531229482575201,
            0.7828194243951094,
            -1.2787594773287096,
            1.406055359131218,
            0.28742510674591615,
            1.350576396302084,
            -0.5090642741974343,
            -0.49376648712544946,
            -0.5917291767973482,
            -0.5911970383969122,
            0.20233947440592345,
            -0.6075867869118194,
            -0.5233646052078712,
            0.6062367611578885,
            1.8373209367657148,
            -1.5648121258731456,
            -1.0864195168439237,
            1.5749820053232564,
            0.9649446300225164,
            -1.5453054004385878,
            1.2570370966610656,
            0.5347415066935082,
            0.5263235405464964,
            -0.977287161169234,
            0.5642126396702164,
            -1.033134503519782,
            -0.22086679596506506,
            1.3849806117097512,
            1.5023071223229425,
            0.3259482799208358,
            1.5614070884541633,
            -0.8966854207682748,
            -0.3065135407592994,
            0.5357359862011283,
            0.11252058080824105,
            0.46054315591405576,
            -0.36219360016893004,
            -0.26122516227146264,
            0.26306116994885753,
            0.11628576119418842,
            -0.07654203278242903,
            -0.7372615153496872,
            -0.38186094299879597,
            0.5739356672005034,
            0.5161109277487619,
            0.308908366309439,
            -0.4998701659870847,
            -0.08049294776987966,
            1.4413407478555171,
            0.19637741472517797,
            -1.8899800198877632,
            -0.005533300586755689,
            -0.5459728914833518,
            -0.08297951800888595,
            0.5112143461636225,
            1.306851371766593,
            0.600910856466249,
            -0.4294048323379666,
            -1.2432632114356297,
            0.8239625129839027,
            -0.26243352249865215,
            -1.2344893332940934,
            -0.0394856463169109,
            -0.8002974784334921,
            -0.6263243831896879,
            0.032289478820196546,
            -0.2900275554794575,
            1.6777463561710684,
            1.023562799456605,
            0.47754467254440364,
            1.0215131148087455,
            0.2747727690532783,
            0.39243697192447435,
            0.639000802039367,
            -0.9748205136148098,
            0.01861826913522359,
            0.4088683108756185,
            -0.4629148535943604,
            -0.4236792053875286,
            -2.079579418120616,
            1.2758966347304006,
            0.313415693522525,
            1.5790096268835543,
            -0.9777258681102546,
            1.990393945066699,
            2.136476904304647,
            1.6702953502221525,
            1.533890809585958,
            -0.533905523004614,
            0.6920725897790594,
            -0.05112171278187561,
            -0.5083577959472514,
            0.6628198124020793,
            0.6625872753239274,
            -0.21572118154910352,
            1.5720867053015424,
            0.5470765624666513,
            -1.3174760159092194,
            -0.35559418645165264,
            1.0783811857382206,
            -1.7528380569924102,
            -0.26754166782158695,
            0.31123545424330396,
            -0.6610367005079962,
            0.3500003270900718,
            -1.058150382083944,
            -1.7913885852464821,
            0.11611654943995725,
            0.3657967284784387,
            0.44168281713882857,
            -0.24586043441085406,
            0.25842111321383926,
            1.9750905305589623,
            -0.6262899817860675,
            0.5760915599173903,
            -0.6083708147696825,
            -0.2899360800847741,
            1.1866891994128563,
            -0.2509290352275946,
            -0.822606526572257,
            -0.22568539845749883,
            0.8319400469500475,
            -0.1570404882072749,
            -1.8733540953182057,
            0.18836062590161398,
            0.8109369121768724,
            1.3481138204694372,
            -1.3661821451617866,
            0.027232328451174986,
            -0.29811540559613914,
            -0.4973178640462732,
            0.9690423203891166,
            -0.44405870223579796,
            0.6791712345718846,
            1.2309742439160534,
            -0.2595807515764051,
            -2.314195626165236,
            -2.950528637353729,
            -1.3332687117449402,
            -0.10773331098281044,
            0.03813445378476649,
            1.164139683952327,
            0.18639260289141127,
            -1.5510559186143043,
            -0.16480704284564768,
            1.5314756257986037,
            1.7804336760514041,
            -2.9299916617876027,
            1.0929012977365977,
            -0.573692126193087,
            -0.5030928439280211,
            1.2776165399147128,
            1.2951670656671015,
            1.6922326504148524,
            2.4493255732768446,
            0.17926881560954255,
            -1.3472406944285986,
            -0.34172926340046117,
            -0.34810597581614855,
            2.802373783824319,
            -2.3713964373023355,
            0.28233480734060845,
            -0.4118315741166536,
            -0.14078795231510938,
            -0.631197505296449,
            0.383725173953851,
            -1.144260927462912,
            -0.6476198329991549,
            0.7748165550882524,
            -0.1545329654056203,
            -1.537498079320931,
            -0.10272436351384528,
            -1.018694525061144,
            -1.7019730648181977,
            -0.1171521842357017,
            0.7257107995071999,
            0.19589208814386094,
            -0.14158146774944202,
            -2.0633805067845823,
            -0.7314911431648853,
            -1.5545321249748942,
            -0.052523932832738034,
            -1.162424606546135,
            1.8469563440077241,
            1.2003639032339617,
            -1.1099690370830366,
            -1.0340652995539605,
            1.4480097793065576,
            0.5734174169426803,
            -0.4420456902020024,
            -1.1650576432252713,
            -1.7485493128195508,
            -1.1128607109220894,
            0.343956653800334,
            -0.45960258647519814,
            0.011495371946785378,
            -0.5100113921471784,
            -1.4342458906948983,
            -1.9226254220357293,
            -0.06479232780324082,
            0.14456887513092642,
            -0.02233347436562379,
            1.2673044335838815,
            -0.14133082641850753,
            1.5108532467557134,
            -1.4244267173772909,
            -0.14122711518305822,
            1.1859039771576958,
            0.11367055872595293,
            -0.4661156869368388,
            0.9518065085486724,
            0.5779174160484771,
            -0.8027579695963688,
            0.018818549331389413,
            -0.09973236394220573,
            -1.4126254751897582,
            0.32911467585897475,
            0.16885900044356325,
            1.210281734563786,
            -1.564125525940318,
            -0.880801137552104,
            -0.049495442813931936,
            0.4111616532036443,
            -0.3770733745782552,
            0.8377113467058901,
            -0.7442824920109005,
            -1.3538159724355323,
            0.00035960802094686607,
            0.7297823683595991,
            0.7854778625847836,
            0.8087537429348546,
            0.06925546516334563,
            -0.2596182568705076,
            -0.7129413900340215,
            1.9619879042191521,
            -0.6858414768750505,
            -1.3171427016403479,
            -2.1184362351758623,
            -0.12576894257289778,
            -0.9781266717703345,
            -1.0343394980604932,
            -1.7333177095081023,
            0.34654972522726996,
            0.3163772390412591,
            -2.585620353621051,
            -1.2371742688392646,
            0.8658295991837216,
            1.2525336848232564,
            0.42610463214404554,
            -0.2889692486356624,
            1.7318117560604025,
            -0.42814894472842274,
            -0.5462300119684904,
            0.2771341326447805,
            -0.15800108175030966,
            -0.14791396883175736,
            1.039654654310292,
            -0.3394411775281008,
            2.437718175147871,
            -0.02783152492674737,
            -1.627627906855392,
            0.1868186502970314,
            0.1349111053254863,
            -0.7870030106479631,
            1.1091487196605463,
            -0.30233034431915184,
            -0.6783808811522557,
            0.20922690241956113,
            -1.8193850927521207,
            0.06483161406175153,
            -0.011983821812437364,
            0.14392177069365966,
            0.4044579443178775,
            -0.0995296054084749,
            -0.4485021021923284,
            -1.0832389632238555,
            1.107290825314033,
            0.6231972456881255,
            -0.18706037621187252,
            -0.009509171510412643,
            0.9573480563062152,
            0.6446261788408313,
            -1.082675522227874,
            1.3376969094293816,
            -0.30240873624947706,
            -0.8008650254914573,
            0.4982608344692288,
            1.436832416732852,
            0.3393035732649836,
            0.4881627800039157,
            -1.0020275353182277,
            -0.006187380307450522,
            -1.3782481721588666,
            -1.9470115162105592,
            0.5298786874999574,
            -0.8336947907118235,
            -0.493259553339273,
            -1.0700200065251892,
            -0.329961354109406,
            -0.013521709009115002,
            -0.8686325155472391,
            2.1762335104327253,
            1.0649815240464444,
            -0.41981974531552196,
            0.2505406628586718,
            0.7855714193223003,
            0.24819241608335632,
            -0.2720658875839765,
            -0.5168803292732549,
            1.1481466874399875,
            0.2070146114572993,
            -0.7348811211806718,
            0.03887722375541345,
            1.4072451883292882,
            -0.11504777114311618,
            0.3784245772035978,
            0.21267208408010113,
            -0.7589785519481731,
            0.06871276417685744,
            -0.33138839368970363,
            0.9285246201106193,
            -0.4739740170093736,
            0.10665326747690834,
            1.3398263565980126,
            1.5547991668971504,
            1.197238968202411,
            -0.8542635705709258,
            0.6029155593070012,
            -0.3181810261824919,
            0.047445694304921765,
            -0.247892351545278,
            -0.148916168405854,
            -0.7068251577143845,
            -0.23617531696731875,
            -1.2538834589837689,
            1.397492756209,
            -0.31315552232373317,
            -1.4998334846687582,
            0.29229231961965835,
            -0.8608998222330011,
            -0.2725612649051072,
            -0.29992528841510224,
            0.14323038736615765,
            0.12627686760032383,
            -1.0649882043137102,
            0.3257781319390892,
            -1.4229365790021442,
            0.7529736991232858,
            0.181080059183136,
            0.12245481990975968,
            -1.4931595336530723,
            -0.5044883003458367,
            0.8984233173910114,
            0.6675944386696606,
            0.26147722739407403,
            0.469878373747748,
            -0.5618571515318393,
            -0.54691660824356,
            0.8222919427683713,
            0.6143318592924734,
            -0.5111808159536053,
            0.31737572996829616,
            -1.2951352350875842,
            -1.0404769219067804,
            -0.18126612515813326,
            -0.0866075252701248,
            0.7039485316582087,
            -0.4486785526717848,
            -0.9857804491556557,
            -1.4788199606204255,
            0.14017589930833577,
            -1.2668521229803529,
            -1.513889927822123,
            -0.8919590460654813,
            -0.21888969185704718,
            0.34614914121486207,
            0.31018834683557006,
            -0.7486000400024914,
            0.36391131204408955,
            -2.078072691276819,
            1.1883024414744332,
            2.2463603942865,
            -0.8376055356419203,
            -0.08536146904338511,
            -1.0488161217335836,
            -1.2515859036419337,
            0.48136789525467305,
            1.2526812539947167,
            0.7881292449495947,
            1.7824088606986104,
            -0.026328845628794815,
            -0.30216792580766594,
            -2.3277851013138506,
            -0.722269837364623,
            -0.7358811967728182,
            -1.102160640588343,
            -2.274819978280059,
            -0.28076186064486164,
            -1.9639286704987389,
            -2.917085407153513,
            -2.701806039015256,
            0.10075189563358458,
            -0.9249662880415593,
            -1.8416142370334583,
            -0.14427826619055703,
            -0.7078861510880168,
            -0.6601652580497499,
            -1.6813984747746462,
            0.9522022908351242,
            -1.8530427512657532,
            0.5057428683542866,
            1.4706676130757395,
            -0.5217563837216425,
            -1.2452509052470617,
            -0.37291989151684557,
            -1.189383577590208,
            0.5481143905636663,
            0.8909138345835953,
            0.3939981808767759,
            -0.4412854948370884,
            0.3219227632235234,
            -1.7900135189586448,
            0.162416555844163,
            -1.9314458270062698,
            -2.238067571783449,
            -0.8837777296050617,
            -0.8244104418515835,
            0.2499417569630266,
            0.6687793282652439,
            -0.5321732995997847,
            0.48410106628598715,
            1.0832014867738757,
            2.1937678094647497,
            -0.9503553274065496,
            -1.4239323666451564,
            -0.8411565334464194,
            -1.0633653668035645,
            0.13801465439812033,
            0.2953181674085705,
            0.39836059243763916,
            0.8904744419086131,
            -0.05773609436541126,
            0.3473812364131001,
            0.5574624908724175,
            0.8720972275713251,
            0.3735604267389652,
            0.8108747412519627,
            0.5727684323327884,
            0.0866770225517322,
            3.0529438704435945,
            -0.012123457854953211,
            0.45716302506715917,
            0.7602079473773864,
            3.803769501982504,
            1.2657522512790964,
            0.4064750383121512,
            2.2608598538195706,
            -0.17692223506574212,
            2.3155441030527935,
            1.16602951565514,
            1.5463108716045402,
            1.2627711361837066,
            -0.1923722668264257,
            0.7901137403430302,
            -0.0063515824826736525,
            -0.4094869033827184,
            -1.1091434657262382,
            0.8843487558218645,
            -0.7918909916914916,
            1.1379257418478192,
            0.7250816235377261,
            -0.023577690389936762,
            -1.3272166260462328,
            -1.5755020567504867,
            0.2873869496814952,
            0.6576112611191286,
            0.547746852800891,
            0.6459905463234987,
            -0.14665311832779435,
            1.5713770615234695,
            1.966136139724327,
            1.3454841795122994,
            0.9566474634710048,
            2.374585504291728,
            1.5107643902452466,
            -1.3981165326048057,
            -0.1641804716953845,
            1.105296310175637,
            -0.2999215051054097,
            0.36039621190224075,
            0.47805796712605,
            -1.1231304407382827,
            -0.1260896167264892,
            -0.8046184568310308,
            -0.009799261317726638,
            1.3803076148614224,
            0.0884358321780573,
            -1.9756456500963284,
            -0.476256003453278,
            1.2480890074414253,
            -1.5427922696336087,
            1.3369608003069784,
            0.6772574115864545,
            -0.3241680039271399,
            1.1767058021225032,
            -0.03651803939350869,
            0.45744730479253676,
            -0.5979545769307597,
            0.2701301737982658,
            0.010224800202081311,
            2.22151566680779,
            1.6621969030775983,
            -0.13766188687401537,
            2.5857980852789066,
            -0.06419797350220215,
            -0.4196166446233339,
            0.5749557914900515,
            0.021739838580189005,
            1.2852881104858227,
            -0.09193602104555261,
            1.3387360436316695,
            0.5878248147894931,
            -0.3765757378731145,
            -0.06314493046118949,
            1.0784047405975292,
            0.03385001452404284,
            0.11058995394718588,
            -0.5916557695582882,
            0.7892080057666186,
            1.1550185290981543,
            -0.24757634575775767,
            -0.12533490864259328,
            0.9391372254550132,
            1.6705776351550123,
            0.02830123177944253,
            0.1475202061308799,
            -0.2172079916020964,
            -0.37133882202589563,
            0.2567227548250223,
            -0.16707615059676165,
            1.3064790985353232,
            1.6883046120694583,
            -0.4415291199010614,
            0.15515024405431058,
            -1.0633515389759582,
            0.03550315663401692,
            -1.2784521363167611,
            0.524131819888695,
            -2.0207671613336373,
            0.043382485228431814,
            -0.4815303006433138,
            -1.36039848570451,
            -0.5394895059630191,
            0.04262213382557697,
            0.43506742949542754,
            0.7996995948331882,
            0.2851549051393297,
            2.144245540269994,
            -2.0042148846832144,
            1.8413064856497239,
            0.39113863190616127,
            -2.556455191961507,
            -0.3393056046816857,
            -2.069579875694605,
            -0.8225686686908146,
            -0.7527301233894799,
            -1.7003911023304028,
            -0.5549974228238943,
            -0.17489425959802674,
            -0.9925351675286825,
            1.2818071371459057,
            -1.4235508879687842,
            -1.7161574660951842,
            -0.8197149532186215,
            -0.5883133247826905,
            -0.5693916650435278,
            1.765478584753319,
            -0.7975097275688684,
            1.1580358671070006,
            -0.01449337828255561,
            -0.32211453832975157,
            0.5227083450858934,
            -0.993884416740097,
            0.19495662012329978,
            -0.6050846156406859,
            0.47765674590725854,
            -0.08363648803806678,
            1.1430987980137912,
            -1.3252343047306516,
            -1.4580615984178191,
            -0.653398361679541,
            -1.4600323947784541,
            -1.0922430975046813,
            -0.8415119129418507,
            -0.9255165724432532,
            -2.0172515806808278,
            -0.9735013831893014,
            -1.1871172649341568,
            0.18354134993426052,
            0.2577754655827119,
            0.8708868344034426,
            -0.3901403200762671,
            0.7213099906389937,
            -0.2995026264959288,
            -1.2436588619214757,
            0.846737468505979,
            1.6834166356707478,
            0.5888084470977715,
            0.5414771890188828,
            -2.3998029223174275,
            0.8789320588034221,
            0.7057276812230391,
            -0.3345513455179723,
            -0.9769605571671653,
            -0.6499980953585297,
            -0.8470749764708746,
            -0.9360941134653901,
            0.15257439749101154,
            -1.0156584155843864,
            -1.6463926948400076,
            -0.4652485992232115,
            -0.08464402287749928,
            0.5987590943304127,
            0.8980165025542598,
            1.4179416454758866,
            -1.8668424941747246,
            -0.4813361473494286,
            -0.4944372193048243,
            0.8605299351456618,
            -0.2132611156786207,
            1.767382365729095,
            -0.557069532827878,
            -0.34940871278854024,
            -0.212082697294978,
            0.8618748378958744,
            -0.4128737493824174,
            0.8929120169899935,
            -0.08874070410197334,
            0.07713974559388122,
            -0.5477657726734634,
            -0.44104703635177744,
            0.4153090533520654,
            -0.5133146207449903,
            -0.5735690626780187,
            -1.3435544879624568,
            0.10228685671557815,
            1.1787305278292226,
            -1.7294876079288088,
            -0.7765725823471058,
            -1.5094188186576867,
            -0.6175057497999318,
            -0.896168645725994,
            2.382688337532481,
            0.28203343684002335,
            -0.23683258664705178,
            -0.9917058413947332,
            -0.2301068599908673,
            -0.2887107316605003,
            1.0352824020214915,
            -0.8944482092437203,
            -0.2031347672204482,
            0.5705011619684315,
            0.45174828504579984,
            1.6345319879911173,
            -0.9605022755322661,
            -0.7171048766331993,
            -0.48965302567985314,
            0.2070498223993937,
            -1.0663931466849705,
            -1.69575292200472,
            -0.8891404945850563,
            -1.8818213533633303,
            -1.557017975575992,
            -1.8692916559793111,
            2.8811995074472163,
            0.570147382163798,
            -0.9711540821130541,
            0.9421414168312267,
            -1.837915846248672,
            0.06553268875642868,
            -1.7388054238634167,
            1.4384306203295265,
            0.8862276072759514,
            -0.24736541617693866,
            -0.34059863410284236,
            -0.07187134719164757,
            0.4405684933625467,
            -0.05454411725335333,
            -0.45319626555592424,
            0.7105658315989593,
            -0.9410541234652771,
            0.7921978987112392,
            1.1069379258799883,
            -0.24733445155822437,
            0.25368175386777897,
            0.5705327361375143,
            -0.7702171725647328,
            -0.5568526212332936,
            0.04041395310374189,
            0.04016399112714909,
            -1.1591383277973568,
            1.503970083564746,
            -1.1521765316051822,
            -0.8014766536755993,
            -0.8660363821316855,
            -1.0274240233745466,
            -0.37990906692047666,
            0.9821129606647249,
            -1.459840943805656,
            -0.1396522038140084,
            -0.9074201336118176,
            0.2899019011280381,
            0.4444492383051062,
            1.2206569996398025,
            0.24138973136273165,
            0.1100443298018495,
            -0.17902874106438568,
            -0.4564627059340332,
            1.2581062927695024,
            -0.7148778328620062,
            0.20629443172688416,
            -0.7367743870523457,
            -0.8491835786530854,
            -1.0086185872129982,
            -0.3074719703982006,
            0.11233337170159467,
            -0.12551904672240996,
            -0.11071246809822168,
            0.52789137122718,
            -1.5077258310962702,
            1.0012834175172496,
            0.9794319068113371,
            -0.43157585688681727,
            0.5637912799387814,
            -0.12859675004541365,
            -0.4924968201416956,
            -0.6752905837820788,
            -0.042994330267502406,
            1.8749399405006537,
            1.0435129250507664,
            -0.39981839280092524,
            -0.5978809660296353,
            0.39666739519899524,
            -0.664667884218886,
            0.15179259510159546,
            -1.4907689561974469,
            -1.0895271376704556,
            0.8719418776627594,
            -0.4131893559432667,
            -0.4353212315110232,
            -2.4878870969063427,
            -0.5801093341940505,
            1.6462351866549463,
            0.8546413087529793,
            -0.38841862098343816,
            0.22923581909228985,
            0.09258279400251429,
            -0.5203207342232337,
            -1.0496253556523907,
            -0.928460516109953,
            -0.10178850749396699,
            -0.29882011269388387,
            -0.8362889630143885,
            0.7542207715850529,
            -0.3951011149250683,
            -0.40261878546237934,
            0.9386613094326021,
            1.676112497671452,
            -1.7519416451881142,
            0.9191452603573945,
            1.0422207944007666,
            -1.3068787460205604,
            -0.8928150418165408,
            3.206903147042794,
            -0.30709673143304095,
            -0.7103934320483091,
            -0.9247063392682477,
            0.4130834014773482,
            -0.03903906890288296,
            -1.0889979468405264,
            1.747657613438333,
            -0.42298585843084163,
            -0.720609349545529,
            -0.28615147333186125,
            -0.5856023230998886,
            1.4217058237330455,
            0.5157222761171059,
            0.16385382973018006,
            0.7425148156492103,
            0.5853292062882052,
            -0.6459358826407505,
            -1.5536292639044258,
            -0.5354015452468531,
            -0.692582089326186,
            1.367872298322733,
            1.4873060123555493,
            -0.3068711745130363,
            -0.7510060134305151,
            0.7203078700379354,
            -0.16898606079606052,
            -0.7081920802542222,
            0.585965810598235,
            -0.5816227114661993,
            -0.9498413368385461,
            -0.3505997211047737,
            1.6630579791053353,
            -0.17674139787655044,
            0.8657842662702645,
            -2.6603377130153723,
            1.306572180699117,
            -0.8456611844117089,
            -0.14206766926440068,
            0.4946633310828123,
            -1.2416027022509704,
            -1.007703910687055,
            -0.13048982976484408,
            0.25319986794182076,
            1.35214952410131,
            1.3664154855939596,
            -1.752674973948902,
            -0.30299597154484187,
            0.2976189061964457,
            -0.06242476833159588,
            1.1914795857131537,
            -2.385707495160585,
            -1.0540530220133435,
            -0.6106140323430241,
            0.09026671454006562,
            -0.30479345210999303,
            -1.656402716689382,
            -0.2104405877354909,
            -0.15190773097102495,
            1.479017449569428,
            -1.1323514552993277,
            0.07010843246751405,
            -1.7264174502157197,
            0.8817750143412003,
            0.5253304145352264,
            0.31926741282630594,
            -1.1334958170999796,
            0.12176075871851692,
            0.2887624961917345,
            -0.05006068419998515,
            -0.17257216784471488,
            -1.0914908978004538,
            -0.9234221435494055,
            -0.2988637586997371,
            1.2351066804321444,
            -0.9163412138487164,
            0.00042876359169806026,
            0.31963749059860597,
            -1.1484545029457716,
            0.015253991386767977,
            -0.1490303301111953,
            -1.6827135613806237,
            -1.8625121046583764,
            1.426495378570177,
            -1.4807550314960545,
            0.24950088555341063,
            -1.3836356938422403,
            1.3833897622901288,
            0.5426399710675878,
            -0.4096503577033921,
            0.3566235424634828,
            0.1816273278870628,
            0.42756825148032424,
            0.754865894956234,
            0.3153432717262783,
            0.7835373386604454,
            1.6326973954020254,
            0.5614715387391399,
            -0.023887821429811936,
            -0.4259032819691327,
            -0.09406915245632161,
            1.4255549050754706,
            -0.14635338176743493,
            1.0967265126335777,
            -1.457738544293717,
            0.14620278093418543,
            0.11496797337297271,
            -0.4193728191415059,
            0.8568975800516216,
            -0.1373159478028623,
            -0.6619415356263165,
            -0.9717568249517273,
            0.9131323029651554,
            -2.2108953787055414,
            -0.36799293691591317,
            -1.7142466505706326,
            0.43434675356539837,
            0.648555882785747,
            -0.2556112846837122,
            -0.4892518909460165,
            -1.0034067586104378,
            -1.3403404474391185,
            -0.5930245367910683,
            0.09885530374817436,
            -0.025465075876320062,
            0.3322532911597409,
            0.7087981473109984,
            2.521658524995558,
            0.8324174472538786,
            0.0940926156543914,
            1.4908469685700432,
            -0.09671967933202352,
            -1.0270920709374314,
            -1.3353776135525,
            -1.1042607622156293,
            1.5032216892732762,
            -0.7844194726939585,
            0.0855493284809549,
            0.2118560578798255,
            -0.6025517203654318,
            0.606298556310438,
            0.6344825646379392,
            1.372195527570133,
            0.7528919892461232,
            0.13568760497400142,
            -2.2246520104241982,
            1.0914871421473331,
            -1.4194570627107919,
            1.4007390031881575,
            0.5386277602764555,
            -0.01642300520665675,
            0.9305166274714212,
            1.0627577545879252,
            -1.9373595787590385,
            -0.6012002997689783,
            1.218112326874603,
            0.03966679547516204,
            -0.14893162501098725,
            -0.14588850199255396,
            0.4645352892890262,
            1.6729232549296118,
            -0.20252359812603266,
            -0.5194939278286481,
            -0.1190323626068973,
            0.11057814907003549,
            0.5444964673502176,
            0.3636993709898176,
            0.11611851787435885,
            -1.7821377495941486,
            -0.4473455908318022,
            0.46050416362567786,
            -0.7487134987314802,
            -1.8852075017410537,
            -0.6857852163031445,
            0.8877349466332456,
            -0.159450957406783,
            0.8361623669260888,
            1.0041869593962225,
            0.3414220458096269,
            0.010217422480460944,
            -0.6171572419628769,
            -0.03579214826024435,
            0.4631373602257126,
            0.7945720113958011,
            -1.5039012991345169,
            -1.0567410388181846,
            -1.2438615861516458,
            0.47751486454209835,
            -0.13251285860897816,
            -1.5372381391407202,
            1.4656582234447177,
            -0.6126428824040977,
            -0.09615157551544742,
            1.2472734087246722,
            0.237460011060244,
            0.5751325405983513,
            -0.6347065836991188,
            -1.657534099143081,
            0.4223448770165675,
            -0.5876436361777736,
            -0.028208286914596904,
            -0.1947227664416861,
            0.17674294197016946,
            0.4601836834892041,
            0.06585224717805753,
            0.6547665689424418,
            0.5292973683009035,
            -0.8560648614963837,
            0.09098425436638866,
            -0.530269615388394,
            -0.5241982520357313,
            -1.0819461349461836,
            -0.01776944120315978,
            0.041579290409066036,
            0.07562480072617385,
            -0.7426409448218798,
            0.5974938729782542,
            -0.6035873537015436,
            -0.2682730975152712,
            0.01841348489611126,
            -0.5974267727219581,
            0.488604802320034,
            1.652842028635165,
            -0.6209092652308541,
            -0.3629385644052108,
            -0.1919684445777268,
            1.7929966464903582,
            0.49093516941968796,
            -0.8713701079992596,
            -0.42506606558200194,
            0.4004078059412934,
            -1.2240269950139766,
            0.1827768037686643,
            0.7386928444955497,
            -0.28044743022260676,
            -1.9560063804005805,
            2.000898339839312,
            0.5799994523284637,
            0.5751142055786038,
            0.43788314735677913,
            0.11547615875451736,
            1.124715899681162,
            0.9816114565909208,
            -0.33430312274462026,
            0.31407220168280114,
            1.3215169146366688,
            2.183468851707206,
            0.02355700746106999,
            -0.8611702399867324,
            0.03937324319267936,
            -0.42827839901066245,
            -1.34235837133019,
            0.05935606969325161,
            -1.5970025764624844,
            -0.5026363046674929,
            1.2961860170801838,
            -0.06794843424539936,
            -0.18038430353407833,
            -1.040845265225874,
            -0.5648182859321287,
            -1.191042822071684,
            0.3061358266456502,
            -0.3269209005133974,
            -0.47160341657458693,
            -0.4993670121719903,
            0.5618390400599829,
            -0.787848203551821,
            -0.531879452653871,
            -0.10087576568956291,
            -1.109318322495052,
            -0.6943804219770112,
            0.6462810160205651,
            -1.0629676809607618,
            -0.6887898650547889,
            -0.8413612901606956,
            0.6396320577624536,
            0.891411976355346,
            -0.19355093022805714,
            0.5129417258996176,
            1.7958720073470953,
            0.1756043752363242,
            0.4293199846500802,
            0.7266755777780716,
            0.6342647953757907,
            -0.6506627934625021,
            -0.4717472776395836,
            -0.46178626044785615,
            0.953413145464991,
            1.0467968075276688,
            -0.04351964142303181,
            0.25845324992601276,
            -0.38561769989504163,
            0.6005020727405065,
            -0.6486733146418311,
            0.20688753414559194,
            2.0108752572984203,
            -1.1971963690954104,
            0.19782018637023183,
            -1.6354951168942136,
            -1.1408235314316835,
            -0.6690078295750915,
            0.8063676397764978,
            -0.749102096966167,
            -0.3648415088908198,
            -1.3135057468761488,
            0.26036835903344513,
            0.6864638014376312,
            -1.3532113633519027,
            -1.2479468636280178,
            0.8125751136550868,
            -0.07485606685501374,
            -0.4470576348853649,
            -1.1321519859769265,
            0.2091170032828739,
            0.40576029056453317,
            0.4664417620570091,
            0.5907900727450683,
            -0.04183545329723759,
            -1.3378770999708869,
            0.15238932045077594,
            -0.6158723874654488,
            -2.316565635909356,
            -2.1736133767782286,
            0.5505281585567378,
            -0.4365531613622781,
            0.446617007036392,
            0.4941182405132521,
            -1.9570287030879692,
            -0.2338641602553344,
            -2.132045372068573,
            -0.6518805546371343,
            0.47193703051057234,
            -1.0902597092874564,
            -0.8560070687668876,
            0.4540880612414965,
            0.8108138750627912,
            -0.23312064042790437,
            -2.035232808784759,
            1.41478186720116,
            0.051925048555246295,
            0.564038146448772,
            -0.24452142752205325,
            1.300302904909718,
            -0.7105062350992102,
            1.0636351156625439,
            -1.754717401684145,
            0.2634222247108434,
            0.37462729612176154,
            -1.118453176529642,
            1.3658942098306162,
            0.42598226620148527,
            -1.7097446776549403,
            0.10026898218181864,
            -0.9900157422791381,
            -0.8671412085186461,
            -1.3962602018042816,
            -3.2087244733050113,
            -0.062434017794581076,
            -1.3824152753846835,
            0.417475202780082,
            0.5519715683667642,
            -0.37170674523832387,
            -0.6889871303692525,
            0.6013936450296677,
            -0.1798155041501788,
            0.8233121300004638,
            -0.15072773533920686,
            1.3716281518485445,
            -0.35198104857120255,
            -1.8261184185712687,
            0.06455089839348886,
            -1.664177812560466,
            0.22961815150660736,
            -0.02930531053728971,
            -0.353742989309666,
            -0.4707400170873112,
            -1.7571686552916175,
            -1.1391516131868098,
            -2.3773544427017526,
            0.04236579912246503,
            -2.668934045004912,
            0.8581107582062188,
            -2.0863806594023817,
            -0.6274679709895783,
            -0.6631612119260074,
            1.5984687768357075,
            1.0899851822260587,
            2.0854241794236374,
            -0.11198545494579422,
            -0.26456678199312905,
            0.9142427999755848,
            0.046334254364175466,
            -0.795450524990961,
            0.540344162975344,
            0.7693170589052893,
            -0.8296134424233943,
            0.5110666092042594,
            -0.41133140044598787,
            1.4572116500156371,
            -0.46785527658208603,
            -2.647664409988324,
            -1.6171700362504624,
            -1.6537669191889148,
            -0.07581365613042906,
            0.018502447804225476,
            1.0865050263433902,
            0.25353090619544283,
            -1.9352626298767395,
            -0.4967975479671689,
            0.5415114293281398,
            -1.3717769429535804,
            -0.35941116550752283,
            -0.058824935856011104,
            -0.013530547381512097,
            0.866777276163183,
            1.9869657375330838,
            -1.1756088238129914,
            -1.8732440168112974,
            -0.9658681068390769,
            -0.3751671991641958,
            0.325904667036315,
            -0.6062593900655041,
            0.05156847405818615,
            1.0007650239153347,
            -2.7964157441851842,
            -1.7498512059675724,
            1.379548166873531,
            -0.7239743679460556,
            -0.18817011771194028,
            -0.052937519512603705,
            -0.23184733768573815,
            1.0294481810046239,
            0.4407323446727487,
            -0.587227888071357,
            -0.6611558461494289,
            0.22482483126985878,
            -0.3439844960580026,
            0.21195358534048483,
            1.850255656035775,
            0.46554840720946644,
            0.6966613128955932,
            1.6277050672668587,
            0.5385240098454064,
            0.3563963137927804,
            2.0754300810305715,
            -2.367978431194597,
            -1.2154256523880618,
            0.4416693467660023,
            -0.19091303996969358,
            0.048838240429070034,
            0.22149018152180436,
            0.011105634364324775,
            -1.1795738017905804,
            -0.328862681709883,
            0.2121668171374423,
            0.007840846881259677,
            -1.983850704430577,
            -0.14868366873388844,
            -1.2800649120887146,
            -0.5616889110127421,
            1.2762365089801844,
            0.05358494706863937,
            1.8405644069530416,
            0.2664430630422573,
            2.3741032500770958,
            1.8837809650504922,
            1.2481631913921736,
            2.2832033072296927,
            1.7592462908169286,
            1.9995257221644198,
            1.4335617515932493,
            1.137059826570175,
            -0.4016359582383797,
            -0.05461191683279448,
            0.713196488052717,
            -1.0551445173461937,
            -0.1180975742610864,
            0.4217503723178452,
            0.5970456182639241,
            0.32959622971809505,
            0.46482642830579146,
            1.4435526856755878,
            -1.1891020104551406,
            -1.2746032706530062,
            -0.18993393995949714,
            -0.5730791770947731,
            -0.14329062384192714,
            0.9772987354308718,
            0.8038123719499295,
            0.7621302385726747,
            1.363447762673065,
            0.10092056245755784,
            -0.5974572032047369,
            2.07985196667805,
            -0.9612165704651958,
            -0.5073732631690723,
            0.4876591745154834,
            1.4022636267700155,
            0.048866431313095204,
            0.06475351484622613,
            1.6040167688646654,
            -0.8968975669195437,
            -0.5872930276164743,
            -0.6318066506838019,
            0.1900201825393731,
            0.45631958189345534,
            0.5070999444505474,
            0.2694171969115093,
            -0.8822268763972496,
            -0.12494859970483796,
            0.8693343058921091,
            -0.7608767649112911,
            -0.6107681563367927,
            0.5408716103830814,
            1.1411983735614952,
            1.446482460504314,
            -0.05811007477435464,
            1.7124781615934301,
            0.3549114673565169,
            0.03050510725220657,
            -1.0620154942127682,
            -0.1181608731532201,
            1.1501539295329224,
            1.3155805894130561,
            -0.1753646721553093,
            -0.789079162647392,
            1.2832457928857184,
            -0.1444103251170347,
            1.0082526403869878,
            0.43080348778651995,
            0.32464345044374127,
            -0.2819577741004595,
            -0.5226361216581553,
            0.2540963359434921,
            -0.7814614584247234,
            1.627695390970891,
            -0.4648225799548005,
            -2.282327893343277,
            -1.7378308933188338,
            2.2710113106200382,
            -0.39459199588078525,
            0.6124729396374432,
            1.8715504180083697,
            -0.5938757984131727,
            0.16378137598585427,
            1.1257363277834525,
            -0.5105625372058531,
            -0.3617807398991754,
            -0.5435947733532153,
            -3.8755556930415134,
            -1.2972802177491503,
            -1.5646154384126025,
            -0.2070367647904321,
            -1.4694967069723885,
            0.5757853234081192,
            -0.6816156694125601,
            0.8299254859244902,
            -0.7939626962291835,
            -0.31192725397442533,
            0.3371272358059785,
            -0.6242400070686174,
            0.7394937511949907,
            1.2150544255961688,
            0.589787024511293,
            0.6503466868235898,
            -0.8891017500644093,
            0.3490417605365385,
            -0.465259293928832,
            1.312838563464786,
            -0.7034698494774765,
            1.9368573219011753,
            1.0278476178141356,
            -0.355254440692777,
            -0.5713753142072795,
            -0.4047769576288141,
            0.2467925141810683,
            -0.6109051941882276,
            -3.0569483869098257,
            -0.4565457781710297,
            -0.9189924003084965,
            0.06911420348082438,
            -2.184974287574557,
            -1.35706143018824,
            0.2728875689152741,
            0.501284390606395,
            0.16182442895746912,
            -0.3651586051393661,
            -0.6377329267605215,
            -1.197327060384569,
            0.0021155346144283347,
            0.4359402460456374,
            0.4204400330638607,
            -1.2974205287514353,
            0.320676597355347,
            0.5289481231218907,
            -0.10542928419803889,
            0.3397865713545682,
            0.5254063264050995,
            0.5462338870658274,
            0.4026057525486707,
            -2.152164243767972,
            -1.4987402444768727,
            0.5038331666357613,
            -0.6079682917822934,
            -0.09057176200430503,
            -0.07160752029580801,
            -1.7968561063348525,
            -0.636971727641669,
            0.7555449791299927,
            -0.29539796644263255,
            -1.2982020303991477,
            0.3929712770405263,
            -1.2339026231716597,
            0.8593782095548271,
            -0.8654306611090926,
            -0.451490993868311,
            0.15764352684538258,
            0.43566238680207214,
            0.2746171507086811,
            -0.5033517597464574,
            -0.1430919454997737,
            1.4298854460351602,
            -0.34831135136773106,
            -1.3490031797122481,
            1.148253520560689,
            -0.2874851999649436,
            -0.4594633038723752,
            0.4492050303528495,
            -0.692437497754259,
            -0.4331923961549805,
            -1.0635960462811105,
            -1.49699462094336,
            1.1200971818828878,
            -0.8287532955255231,
            -0.07474923294688285,
            0.056762722242779916,
            -0.9401706376289617,
            -1.51706573209542,
            -0.36205156697693774,
            1.4327177677967875,
            0.396538575598728,
            -0.218091704509548,
            -0.9920006448814915,
            -1.2838342025662048,
            -0.5229628467071742,
            -0.42765822860721636,
            -0.5876798805784773,
            0.5149843478948573,
            -1.615796649501525,
            1.2949590523072865,
            -0.19366267180355812,
            0.8342692613800328,
            -2.500419830025115,
            0.9801133566554495,
            -1.1819549684177435,
            -0.17148948283383247,
            -0.038377281618526965,
            0.07492868728250475,
            -0.022707083811200717,
            -0.1628570319858625,
            -0.6973111532417827,
            -0.7662055703992035,
            -1.4496509785651146,
            0.7445787743281194,
            -0.24247634134408433,
            -0.6079325914668672,
            -2.0128085293747007,
            -0.8495648394074146,
            -0.08271785192392607,
            1.119024605340806,
            -0.24113610270687513,
            1.2748401015444886,
            -1.2575411265305898,
            -1.2277641714468277,
            1.3709163031586535,
            -0.0781785237511544,
            0.2925914738901392,
            -0.5237531220730414,
            -0.8322004571155575,
            0.03316851070836543,
            0.6904782869187358,
            -0.9878415000719317,
            -0.6771973112177919,
            -0.4763243579209647,
            0.7432584936548611,
            -0.7324952983110051,
            -0.4073507259178071,
            0.7591684522829021,
            0.35057116083410295,
            0.18944087059208084,
            -0.15127433739263393,
            -1.5191725102441118,
            0.057330764377138965,
            -2.9724977155729873,
            -0.8572498956168795,
            -1.3183161416550324,
            -0.5290093193033362,
            0.3615050928641301,
            1.1754003119742804,
            1.8375024724486235,
            -1.138592681056858,
            1.2250286573394538,
            -0.770723729448752,
            -0.8276173148778625,
            0.15103707567225877,
            -0.056412048980735076,
            0.7795291495235567,
            0.6698796874159713,
            0.2548538533212643,
            -0.1350369177700183,
            -0.7178911618119272,
            0.4141049564478771,
            -0.6739417444247016,
            0.5055196309688506,
            -0.26166737557087416,
            -0.9165823012046561,
            -1.0155517815313289,
            1.7892711627804965,
            -1.3144519819670315,
            -0.14017599026325653,
            -0.22099376600946266,
            -0.7184118959187326,
            0.0661741891806092,
            1.6100199288511483,
            -0.4256879101282412,
            -0.5167801530594301,
            -0.1584236001737102,
            -1.4372621351448074,
            -0.3020628830667229,
            0.7647071146676304,
            -0.34128257331379575,
            -0.007933117967264685,
            -1.4956409591212727,
            -1.906008008578551,
            2.3269082175643003,
            0.9355160102451036,
            -0.1767922549173595,
            0.27991889045037316,
            -0.7215050838096037,
            -0.15465831541136862,
            -0.49365358135837367,
            -0.7431442753156408,
            1.2245881320672987,
            -0.2314820630629119,
            -0.803600406919824,
            -0.44622903614579984,
            0.8745088375229773,
            -1.1462103363583886,
            -2.7416992988121325,
            -0.3928872106090895,
            1.580462902143106,
            0.839632071954034,
            -0.19935239370028757,
            0.3880744746977201,
            -0.4242791611317212,
            -0.5657163706506876,
            0.24529111512588395,
            -0.42804221721049474,
            0.5309352923118471,
            0.0066064883492274115,
            -1.075726324951108,
            0.9459223641310217,
            0.8429762913158659,
            0.5367078843928939,
            -0.7955747917485563,
            0.2700224217008713,
            1.0093776893593491,
            0.1468142085988151,
            -0.3091221837090529,
            -1.1116604781620754,
            0.5148554783140101,
            0.13412168849299977,
            1.8742631759306148,
            -0.6712149712118702,
            -0.2979163134745223,
            0.8236927925108394,
            0.9053498629089871,
            -1.0178899880182029,
            -1.3221386712424554,
            0.30223905480120644,
            -0.6098909487461723,
            -0.13103844795361258,
            1.8159928399874496,
            0.033799283172255196,
            2.2010080174277378,
            0.10770655447151803,
            -0.29131976009468885,
            0.5057178861417614,
            -0.9354300216522013,
            -2.865004507554523,
            -0.28324231418929846,
            -0.40548172189463316,
            0.02022155544511318,
            -1.2736873601715573,
            -0.3520961105401518,
            -0.6807796785682718,
            -2.276185579404925,
            -0.675582238042522,
            0.06773594266551788,
            0.20467407016971628,
            0.4604056423105984,
            -1.3866111947820308,
            -2.1258252141827616,
            -1.0269334858378676,
            0.23062110462445415,
            -0.7128318233223689,
            0.08256099578368467,
            1.3246694756108666,
            -0.5543008134115731,
            0.06250765638848696,
            -1.1279334277763744,
            0.6513090255249262,
            1.3020819152804006,
            0.4374722491393001,
            -1.9752531250330605,
            0.025199292173165588,
            -0.6961116754760037,
            -0.4506412377444606,
            0.7377786401142107,
            -0.5743920619407276,
            -0.2897918446966783,
            0.9525895684047345,
            -1.2211990563104098,
            -1.263479981417285,
            0.03242643057230614,
            -1.6273990949114214,
            1.2431895847909187,
            -0.7140911408757444,
            -0.6530497234977435,
            1.2445734961578527,
            -1.0643570060067464,
            -0.9788314227404078,
            0.3042158947569569,
            1.6830024110483808,
            0.1387663301790485,
            -1.0709619591779083,
            0.801352422364449,
            1.6854584722170565,
            -0.6286616223949449,
            -0.6905766482763984,
            -0.4265538556647148,
            0.24790230601942204,
            -1.1813836669333913,
            1.3904134497515714,
            0.37313501117535264,
            0.25529925506821677,
            1.469677027034784,
            0.46855787392520604,
            -0.11717834084388751,
            0.6852874882659178,
            -0.027196681257206687,
            0.9336937958288195,
            -0.7234674112824622,
            -0.07080487268415663,
            -1.2242345266611034,
            0.04688922016068579,
            0.7368201966367788,
            0.2668196955734437,
            0.5655897096633961,
            -0.6923644505999307,
            -0.9131700942671461,
            1.1411331286671778,
            -0.5368961069112839,
            -0.06805903513254997,
            -0.825581948242299,
            2.092012169124854,
            1.0524558064064562,
            -0.19093322974636293,
            -1.027673504557574,
            -0.47900624308721845,
            0.9851290477396875,
            0.8647153679988198,
            -0.5869604842798876,
            0.9810637519323989,
            1.0586748963016064,
            -0.0297008943087819,
            -0.33323348395615715,
            1.1683217362746103,
            1.3387561681105906,
            -1.2669181971349321,
            -1.933633019225622,
            -1.7088238013778285,
            1.5217271403987978,
            -1.7384908650901554,
            -0.46410916982852385,
            -0.8023116719341561,
            -1.5137561785333717,
            0.6615651639762662,
            0.0523569313199188,
            -0.21471344088314054,
            -0.7464775275526659,
            0.42684711774026707,
            0.983608891130483,
            -0.12927381853347011,
            0.414058899195497,
            -2.1747416322193436,
            0.6576051777497331,
            -0.606000645458598,
            -0.15709855385654864,
            1.6822222863242249,
            -0.766800714578062,
            -1.5389444359061657,
            0.1592900605754716,
            3.1102019273374557,
            -0.9281295079424606,
            -1.318157626810472,
            0.2166316836995429,
            1.3999677084693205,
            -1.7086597589817998,
            -3.0237524516642247,
            0.8395855340991624,
            -1.466980097292696,
            -1.462911442486864,
            0.5887014810637943,
            -0.5497141423824,
            -0.011580094325744129,
            -2.491611301281777,
            0.6118448243381391,
            -0.5302649068156401,
            0.06331910532102818,
            1.0111418953697262,
            -0.7440302387706247,
            1.2322813849929921,
            -1.3233313837945149,
            0.6199755641749868,
            -0.9475888279716059,
            -0.7474053257041268,
            0.3885462214787027,
            -0.9829663204513872,
            0.7231410185339572,
            0.8974475862452158,
            0.8686715940479954,
            -0.6906934715154747,
            -0.4284700940010771,
            -0.44633333378350604,
            -0.8024384602717882,
            1.9222358055094544,
            -2.0374337597947827,
            0.32963699522400625,
            -0.38564481008204604,
            -0.7027602180381699,
            -0.5545433999192192,
            -2.0906074872684095,
            -1.1603909876123857,
            0.9763316119482641,
            -0.8800656265749959,
            0.08371694176831745,
            1.4170039003653345,
            0.296567082284192,
            0.735266284350645,
            0.0014009724942510835,
            0.2115286407607526,
            0.5809138117290574,
            -0.3885633200398287,
            1.0642381580727163,
            -1.6675224827220303,
            -0.11998410453193159,
            1.7430885159107439,
            0.7836485200963252,
            -0.626575687050999,
            -1.3834144427181219,
            -0.6971133203539523,
            -0.37883273235136977,
            -1.4881668665954844,
            -1.7823059345475651,
            3.2922325317429797,
            0.14951781619006232,
            1.4945290567485499,
            -1.682153073381432,
            -0.25277660122133033,
            0.3904219427812646,
            0.638378697523533,
            0.08347516937509776,
            0.2404049298952425,
            -0.39502068416474323,
            1.871801814262025,
            -0.7628640576256724,
            -1.2020456827644397,
            -0.8469716686562667,
            -1.0027618264222062,
            1.3579385363158496,
            -0.8570515846920065,
            0.049217627912010876,
            0.8930431131348471,
            0.016214435608819747,
            0.3533879875580551,
            -1.1535322940605541,
            1.2355824240102926,
            -0.12864425016836561,
            0.9463391043988301,
            -0.40535362560663996,
            1.1211540062067777,
            0.310162311360294,
            -0.6036358420968316,
            -0.5237992671756321,
            -0.2413500807158897,
            0.46561723609704436,
            1.8799589762377564,
            0.5490210706152057,
            -0.6813702223296197,
            0.4399329550905738,
            1.2444726223085762,
            0.6306507847861903,
            0.18305841210563767,
            1.28507085334531,
            -0.3338309620536571,
            0.9820570762490393,
            -0.28361115007349513,
            0.08453014042608688,
            0.6701370067823967,
            0.42097443698185966,
            -1.3902287757276035,
            -0.7317467892207541,
            0.266842011336987,
            -1.7225731122355985,
            0.706546739984307,
            -0.2889360649717418,
            -1.3634850183904323,
            -0.6149041862460377,
            -2.3319668885248004,
            1.5167812780409178,
            -0.23828192877512266,
            -0.609250696664447,
            1.03922377262101,
            0.31769969058772607,
            0.5926684597810752,
            -0.1001829223373213,
            0.6635292240300751,
            0.20814018884072405,
            -0.9517135185868167,
            2.247396420190792,
            0.6575240731974142,
            0.7469891337825478,
            -1.241400650340013,
            -1.0702755930561503,
            -1.3262671737844103,
            -0.7845440079468577,
            0.6278500104449742,
            0.9218129678134447,
            2.462281089688336,
            0.10465014931303661,
            0.13894361495708324,
            2.515018638167921,
            -0.0890662133109112,
            -0.08692664084472784,
            -0.24885355598443584,
            -0.06273306082157518,
            0.7934400155924838,
            1.0642596089823113,
            0.9734884248543413,
            0.6021456637883797,
            1.6177328809866198,
            -0.6744100570156448,
            1.6619265879028808,
            -0.5580405261386946,
            0.05590656001498323,
            -0.756861876230644,
            0.055961009672294566,
            -0.4661231263728515,
            0.5538983735607427,
            -0.9538863806816397,
            1.0833806035571285,
            0.8551881525118101,
            -0.14190952644465568,
            -0.8698008479510685,
            1.2937047216099056,
            0.5595093585489392,
            -2.0602647976370987,
            0.6929066312260758,
            0.6479712151682844,
            -0.12227179676713985,
            0.9797876621578028,
            2.305779060748562,
            2.614937213356756,
            1.4843650197961034,
            1.2771700986700192,
            0.6995861875885013,
            1.1114300543281708,
            0.7062858860184416,
            -0.2891142220998146,
            0.9157241559396996,
            -0.38813254477952125,
            -0.6211551833609694,
            -1.162505372554019,
            -0.46973376188984195,
            0.784314413116654,
            0.13107035649939816,
            0.39174691774703896,
            -0.22042195632442146,
            -0.5095713557692995,
            0.7318110308430312,
            -1.1691613197581867,
            0.13249146781288693,
            -0.07344208376839441,
            -0.003890305157898417,
            1.0945369201535127,
            -0.19323014470927993,
            0.04590720758627393,
            0.8518112994266251,
            -0.16472478871355953,
            -0.5995486479382858,
            0.053110173487631376,
            0.7246332716454653,
            -1.0291699947856365,
            0.13797596791100109,
            1.3248466187621004,
            -0.38769835446408113,
            -0.05234615566789588,
            -2.194286231987139,
            1.2400506376554552,
            0.01268959400799602,
            -1.204402972185299,
            -1.88032198412226,
            -0.06695118470885018,
            -1.1201460564380803,
            1.2475819757538948,
            0.4636602035292555,
            -1.6445885398363687,
            0.55957498849103,
            0.20573971358884552,
            0.6105675466819274,
            0.29942167978545325,
            -0.6829186513145924,
            0.2928147239763346,
            -0.10468647307747307,
            -0.9029876941906934,
            1.411330049515275,
            0.1326528771562163,
            -1.5528677828373836,
            1.5481829919263204,
            -0.6956526845455127,
            -0.7204738865038192,
            -1.8916676774571886,
            -1.3751763847697651,
            0.15809990545903188,
            -0.9905178509512255,
            -2.0684926702749804,
            -0.9232222839032372,
            -1.389123122124041,
            -1.941538373499339,
            -2.2155064673170797,
            1.4190986133696222,
            -0.4385812560400614,
            0.32891800704166474,
            -0.45617742669490763,
            2.0785900585733716,
            -0.6467761187069214,
            -1.4729730444236184,
            1.3875310695565817,
            0.15784138854688387,
            -0.6258813042137298,
            1.1510770990751502,
            -0.5598076971746575,
            -1.8474760130072039,
            -1.4424889293617438,
            -0.3045535296462454,
            -1.3488095425327284,
            -0.6377247441157627,
            -0.7988749373339898,
            -0.1681535107885252,
            0.6507580600260889,
            -2.8779006059965577,
            -1.7003472830978834,
            -0.531436299342814,
            -0.9166133546825757,
            -0.6469736136748611,
            -2.359624702791373,
            -1.0185058752995229,
            0.8542585388423326,
            -1.3291435104002658,
            -0.5270002118360437,
            -1.0786740316815249,
            -1.3164979043494591,
            -0.8109834373021829,
            -0.07459060077150093,
            0.650435378959089,
            -0.7018410616174692,
            -0.680916504870747,
            -0.4640526494713753,
            0.832858939013884,
            1.607802486057365,
            0.3132404048730867,
            -1.1525305146020597,
            -0.7300934490194517,
            0.4188383485637405,
            1.1225610671263098,
            -0.11417666565969228,
            -0.30428763373577916,
            -0.4800723099902563,
            -1.2678824059529783,
            -1.1258394329034458,
            -1.9967744915871029,
            -2.4144008808401973,
            -3.6385845844074938,
            -1.2203771925644722,
            -3.636983784450864,
            -0.3681978934501073,
            -2.720822816147579,
            -0.6349781952550526,
            -1.3522547188737597,
            0.10347670153723593,
            0.6401981781862679,
            0.48624818069766473,
            -0.4821634736832209,
            0.26740593667645113,
            0.5802061477788235,
            -1.523550557159681,
            -0.10727235906636334,
            0.14118139685194078,
            -0.6512233460004291,
            -0.5986483322319816,
            -0.15035402196335942,
            1.6017522310163288,
            0.6862806439934639,
            -0.6696746421760206,
            -0.7304008142055972,
            1.154039547553271,
            0.302440816151621,
            -0.1805018884683757,
            -1.3962846192508773,
            -1.8197391399202827,
            -2.374644619021804,
            -0.4705286373198855,
            -1.4709361088682418,
            -3.032593807394406,
            -1.4748773080026145,
            1.1927772840300048,
            -0.3260552790941427,
            1.4492060495350783,
            0.5595709022859313,
            -0.5448699079521002,
            -0.65798211179801,
            -1.5464303628548093,
            -0.9479419016564629,
            1.4224785094803756,
            -0.032090255990243344,
            -0.968507372601247,
            -1.04718831481601,
            -1.2514945535993192,
            -0.1904768169659893,
            -0.7533948892320794,
            0.6697795827175399,
            2.3099687236128457,
            1.529582937182801,
            1.4004182714788318,
            -0.09184429724145492,
            -1.5072193625426784,
            0.6840034414275766,
            0.785306210849083,
            -1.5289866257670441,
            -1.5987533715092934,
            -0.7521639552390633,
            -0.18421574301010044,
            -2.113288740357233,
            1.0578475685768374,
            -0.5884934142144626,
            -0.4997272601948496,
            -1.5018560394025775,
            -0.171497943476076,
            0.3759871232245255,
            -1.0679689341643082,
            0.09626835578728767,
            2.0472320862380844,
            -0.20533776353217556,
            0.1928299461231818,
            2.4794480820303577,
            0.6639952677499602,
            0.8282570543518271,
            0.6931074946339304,
            0.8361295192940797,
            -0.3709043951781524,
            -0.04590657962389033,
            2.9099962460017945,
            1.5267397098818065,
            0.17364639522062011,
            0.12023372589156327,
            -0.19239496295699662,
            1.513168669190475,
            1.5553491374318664,
            2.1425967604584395,
            0.055766262401977934,
            -0.27370122949306536,
            -0.3539168704864144,
            0.3205621442805549,
            2.3100755752767697,
            -1.8245676414204999,
            -0.7628438713647498,
            -1.6751186446313202,
            0.8986909581242069,
            0.7781876571872306,
            -0.21409543117036944,
            0.370058890456576,
            0.03810914818013976,
            0.631969853020684,
            0.7129833352542201,
            0.38557251498132816,
            -0.4156460574450442,
            0.03748863125938606,
            -0.2801597786349877,
            1.2851390619881513,
            0.5002342951425793,
            2.764453120204367,
            1.4230671731839641,
            1.6940056447258574,
            2.0929171277695513,
            -0.0356834117557826,
            0.3723732346896771,
            -0.32475714111603765,
            0.956964781206791,
            1.21210989899467,
            0.3839528691958771,
            -0.2509114189731594,
            0.581939525382351,
            0.2431037260950745,
            -1.3306635210529063,
            0.1770917295358654,
            -0.3564611666314567,
            0.5979613433845502,
            0.44105924886829184,
            -0.8294326493605751,
            0.4814603709724524,
            -0.8959589849132844,
            1.137512209440962,
            -0.36621573228651966,
            -1.1298337189375016,
            -0.8175430498755164,
            -1.2567033374882497,
            -1.5692901970987156,
            -0.9626626167795022,
            1.0035448730354142,
            0.9441319606398835,
            0.5832535460893157,
            0.6922157384344895,
            -0.5909367091991086,
            0.20624952549857872,
            -1.2295567396940907,
            0.754958533605332,
            0.9973009018613764,
            -0.20048946417196542,
            -0.07085664200907885,
            0.23213743807532686,
            -0.9948334313123872,
            -0.5252929219231255,
            3.0102648563676926,
            2.020101810991203,
            -0.9897377235671749,
            -0.9926003670254943,
            2.2944797208591496,
            -0.15373933242183888,
            -0.8345444667257671,
            -0.24872503577384136,
            -0.7048863449929421,
            -1.6654418345186135,
            -1.5740245077955082,
            0.16053576902660047,
            -1.3449938125153182,
            1.4886622733698578,
            -1.3782666074598657,
            -1.4881007948254725,
            -0.04376072759918867,
            -1.8099494074486475,
            -0.5083758059009417,
            0.12353221517465421,
            0.15526088298656984,
            -3.5313039050484574,
            1.883174335089837,
            2.53821034400119,
            0.13708118109669637,
            -1.012621420914642,
            -1.6118182628718392,
            -0.303525588754696,
            -1.0918548588087549,
            0.44238742745494863,
            0.2237379438680516,
            -0.3706416317294378,
            -0.5602184234752069,
            -0.9744306489781737,
            -2.0591636071943853,
            1.0372941646556975,
            1.2216280097113028,
            0.08704384441925068,
            1.0654048782639218,
            -2.8754396710293557,
            0.923528769641316,
            0.016070552037233225,
            0.056209817938739845,
            0.20530587679678614,
            -0.053456097134878255,
            -2.171040870221342,
            0.30977243740898025,
            -0.5615127942145685,
            0.9016481109293554,
            1.5988974875078203,
            0.2711950782714328,
            0.5891623413231252,
            1.726684792125627,
            0.12281863010717167,
            1.4599737779551831,
            -0.2022035574736569,
            -2.0282483586592095,
            -0.9397163929821063,
            -0.018633082494908134,
            -1.4883372507226849,
            -1.4917510395495028,
            -0.17905244201632614,
            0.41507997487437853,
            -0.7923408173432067,
            -2.266340676074129,
            -1.1020059026245688,
            -0.0482635286869926,
            -0.5836329012408026,
            0.1323049240795626,
            -1.092189174338523,
            -0.7130080014959552,
            0.4067658423434399,
            -0.910387284881722,
            1.0211798650121193,
            0.5865776044181039,
            0.5288014870947219,
            1.6866234603212353,
            0.76652949019967,
            1.1946261377579688,
            -1.8727282861471632,
            0.713666851844633,
            0.21458395905047087,
            -0.7039507905516931,
            0.9383592867920938,
            -0.7085918938427263,
            0.3844330209258547,
            1.522442617499244,
            0.20234895867748653,
            1.344076066004457,
            0.40267284284697313,
            -0.7664826530420122,
            -2.045321292428524,
            -0.6699686805993958,
            -1.140492241369089,
            0.12707893263547734,
            -0.8520077715144507,
            0.11132472851082074,
            -0.06896526818214621,
            0.9132830009469318,
            -0.2155846776200305,
            1.7648964438074821,
            -1.8882846941125835,
            0.5627493687203864,
            0.6940337782133559,
            0.566753419916839,
            0.5446835946222116,
            0.16786940836252798,
            0.20197169000466514,
            1.2185352919375383,
            1.1034310880594056,
            0.9965087235259034,
            0.4724307272166218,
            -0.2782883786846,
            -0.43600135716725547,
            -0.8741895374953843,
            -2.223384930093484,
            1.7152692050354854,
            -1.3404595920937135,
            -0.6504167215708739,
            1.286491498493422,
            -1.4274690719350687,
            -1.3057330457771759,
            1.153995854387447,
            -0.6503361050357237,
            -0.5404091427941425,
            0.27791998250301414,
            -1.2021283110101306,
            0.7054779742613261,
            -1.356635884428311,
            0.35369361389855336,
            -0.07577698896633019,
            0.5965903023682919,
            -1.5463040072546332,
            1.2497972527084957,
            -0.39779432615590743,
            1.3310216148398768,
            -0.9918714341003447,
            0.8624261405256485,
            1.9328697238800931,
            0.1575997755493561,
            1.1096998928634578,
            -0.643425412131226,
            0.5858115576444587,
            -0.08564613658366144,
            -1.6073927640039427,
            -0.11671053157899518,
            1.1351616536528188,
            0.11154174712515263,
            -0.9460013880203024,
            -0.869159982036517,
            1.6662278512851723,
            0.3566314582069433,
            0.25169801635416567,
            0.21096182724277734,
            1.2172495072444094,
            -2.3782486271673777,
            1.507315881278969,
            1.451675059004122,
            1.522559796904444,
            -0.2693049766720998,
            -0.017036599506149913,
            1.0040401832873704,
            -0.6140607251527496,
            1.4170514793201114,
            -0.26152235556956815,
            1.4230610520012563,
            -0.43059545211149236,
            -0.6743000193565843,
            0.10683908821596105,
            -0.6975953636541218,
            -0.169476935325215,
            0.7440942561354107,
            -0.36417528374139874,
            -2.7144564743090704,
            -0.9853410006411806,
            -0.45666770950463353,
            -1.6202009304810916,
            -1.1140706331163068,
            -0.7295237336421593,
            0.5350260407659698,
            1.4736107111471295,
            0.13544755506253048,
            0.9318878437577002,
            1.5042572201917945,
            0.41020977623212695,
            2.048767607305961,
            -0.4148212983075873,
            2.5887750950255293,
            -0.004631859848033663,
            2.8539415916928133,
            0.6702688877772282,
            0.23071462795493544,
            0.44903605867480395,
            0.771305568750897,
            -0.4021617643598701,
            -0.9496554868325184,
            -0.7342909371978883,
            2.6264174860385143,
            0.4314225029762849,
            0.9493478130490672,
            -0.40691913919217265,
            -0.13042597190820177,
            -0.3892956303095525,
            -0.846450746312811,
            1.8471510522900503,
            0.27799442137814107,
            0.8328095286298397,
            0.8550772933487933,
            2.500161090806595,
            0.6416524342544265,
            0.8500468441785392,
            -0.587897021062002,
            -1.4890149489123006,
            -0.11648443393088959,
            0.47619727768143444,
            -0.6006947027278106,
            0.42626797523071064,
            -0.7393484616634524,
            -0.1531976137189632,
            -0.21139489897273273,
            1.1115941141429344,
            -1.7257973262128432,
            0.1499791563874925,
            -0.1523801373922806,
            0.7865986935588386,
            -3.6511314416875806,
            0.33740999539834804,
            0.33860641954058585,
            -2.0110299638438045,
            -0.4994006424663375,
            0.538208026149676,
            0.9301615960838421,
            -1.7242250943185156,
            -0.37693948994817617,
            -0.18114308485416342,
            -0.16054306042540326,
            -0.876046967685845,
            1.0386269518085463,
            1.0552161487900995,
            0.14730584844163302,
            0.9996972140777614,
            -0.6961832067720066,
            0.013689902334861849,
            0.70097854173614,
            -0.9804570836250409,
            0.6554976229268613,
            -0.20255396148496452,
            -0.25703883032757585,
            1.5002297149318067,
            1.379598208266821,
            1.0712645569596522,
            -0.31778078156914147,
            1.1943961962461165,
            1.5799024340735586,
            1.0152278852000123,
            1.1131787345607442,
            -0.6911935506898601,
            -2.008058084531258,
            -0.4354111517894945,
            -0.023432722988836082,
            0.1327781373206496,
            0.20508426885759748,
            -0.8188517761222942,
            -1.011860560902334,
            -0.09044970980807258,
            -1.625706741705016,
            -1.1521266733977906,
            -0.31663619524377823,
            -1.4605208414903246,
            -1.1018966839850914,
            -2.212799509982317,
            -2.3008929283307205,
            -1.9903697628855967,
            0.1870758138071172,
            -0.5247309502406705,
            0.5274772843416694,
            -1.9086645319295166,
            -0.42091657975060576,
            1.028703151736294,
            1.814364816270869,
            1.1680334825035097,
            -0.46178526336226366,
            -0.40919062593386957,
            2.609247431734202,
            -0.06165724695455798,
            -1.0055391137715364,
            0.6096197234972673,
            0.6105017975022144,
            0.3014308298028868,
            -0.15625138746754916,
            -0.13663213153400475,
            -1.0419754249251802,
            -1.2982679685634433,
            -2.987088130307157,
            -0.32967434195116135,
            -0.44774922915132653,
            -0.8698798487235947,
            -0.987278701370682,
            -0.07223622836637549,
            -0.32998449377039585,
            -0.6118424799609692,
            -0.42463010937703827,
            -0.8368545770823892,
            -0.669357375023233,
            0.3092342865958668,
            -0.18030620515364215,
            0.4259726840993475,
            -1.7487545511501514,
            -0.5559055730683338,
            -0.13814465744988583,
            0.15598959266787246,
            1.2559531914696156,
            0.23730425119550877,
            -1.435723975735943,
            -0.03045203776241278,
            0.3407412359085706,
            -0.26594856280619794,
            -1.9268166063122363,
            0.573066766320795,
            -0.9159666467482463,
            -1.7783270520022618,
            0.46516648325749194,
            0.5836174088564609,
            -0.03450146731779865,
            0.06948102660204752,
            -0.7762826677491795,
            1.0116176507245387,
            0.033399330637853025,
            -0.7500917477285616,
            1.360369827732762,
            1.1461294173179886,
            0.6355265542241045,
            0.9457309599584425,
            0.7348847269666968,
            0.5472119827209458,
            -2.102589817884681,
            -0.6603047202973883,
            1.2513288316387057,
            0.5397294598133244,
            1.1229715404695169,
            -0.8591719970592837,
            -0.6143208183020985,
            -0.8308343581717916,
            -0.22035237066918137,
            -0.6759135489462025,
