{
    "layer0": {
        "weights": [
            0.03390034135748738,
            1.2718299440057481,
            1.151543324308154,
            0.7448740870358741,
            -0.18100672585013441,
            0.1082149354862992,
            -0.5411425421337578,
            -0.12715811776402877,
            0.8595673868130784,
            0.6282392368455236,
            1.3527011483896831,
            0.09697153586982822,
            -0.5365582132077436,
            0.34952009538772,
            -1.6395704260189792,
            1.6481590906764632,
            -1.420366774299603,
            -0.6445649856710582,
            -0.588100611156128,
            -1.7813266530764338,
            -2.154500628294087,
            0.36381535592071934,
            1.4906229742855936,
            0.24828804433958265,
            -0.49640242035824966,
            -1.027221548553691,
            0.7231100203815032,
            0.06945525097458144,
            -0.2816312748773323,
            0.7361793590349863,
            1.112976710648753,
            0.0724352932510862,
            1.133838875337967,
            -0.9762718693801079,
            -0.14146008722539036,
            -0.8196545710130978,
            -0.23452629101985997,
            0.08469296991296857,
            -1.0305104396834674,
            -0.5129332127072104,
            -0.5623832022766,
            0.3855620766736976,
            -2.0279076114669428,
            1.0402268357835933,
            -1.358741458913113,
            0.5452213943631133,
            1.4500141254957546,
            -0.6087275991778868,
            0.5305064317836936,
            1.2166345414363344,
            0.8099775790616973,
            0.45875620290814295,
            0.35548611588081197,
            1.8776136914505352,
            -0.32997404514061657,
            -1.9756230400859582,
            0.8614879356928675,
            1.3719029203610262,
            0.7216328106330606,
            -1.2857077239745147,
            -0.40433889633614745,
            0.69299085311949,
            0.0624464449166972,
            2.1106154592522937,
            -0.4707949846827089,
            -0.9326416772043322,
            -1.284709416520374,
            2.0380205918652385,
            -0.8707618031280651,
            0.3661062498550406,
            0.015081808421768643,
            -1.9011919026388424,
            0.43043290354195235,
            0.3464268249980633,
            1.2076937723772907,
            -1.0465229316669684,
            -1.1875543942175164,
            0.09542097519811335,
            -2.2424799635700285,
            -1.1902285935428059,
            0.6378192999247266,
            0.29698514248318025,
            -1.802578154304724,
            -0.6753194232956077,
            0.403869203395414,
            -0.5033628482066764,
            -0.2393106713678014,
            -1.5426836248998423,
            -0.23837161238849586,
            0.8090859686392664,
            0.14760796046826793,
            -1.0835156090315663,
            -0.8321063405002135,
            -0.6647703079759415,
            -0.4000106706042307,
            -2.4328225285271348,
            0.06245955272542257,
            -1.6498649850975917,
            -1.0384930637636876,
            -0.29185118416578715,
            -2.358078122084658,
            -0.8176506895563181,
            -0.19961739540829326,
            -0.6083256921553482,
            1.4244777884085473,
            0.6147848656512628,
            1.1209840405851068,
            -2.6459056587776257,
            1.1843817688982385,
            -1.0557236564283228,
            -0.053291743340441025,
            -0.5828440094171076,
            0.8475829471612978,
            0.9534938687229695,
            -0.37212803556736773,
            1.0170003528833946,
            1.5751303217756532,
            -0.14564339733248088,
            1.5100533463197887,
            -0.31026419821902923,
            -1.8492404096696964,
            -0.7956896789829389,
            0.33043145166794374,
            -0.3269251185954242,
            -0.7846814532066589,
            -1.9686066426269662,
            -0.18090499293380843,
            -1.7575433527078885,
            0.4151928013717382,
            -1.1181799656104854,
            -0.1564040383714934,
            -0.3401007569451571,
            0.18757712686725023,
            -0.5360592858851347,
            -0.5666294462843747,
            0.2301949929741446,
            -0.9277777296240772,
            0.29358612174309023,
            -0.4839541680467045,
            0.9140472798572226,
            0.9383528182888881,
            0.4013548578988831,
            -1.1701158480175797,
            -1.4165386993513536,
            -0.603904040792989,
            1.8472823277266968,
            0.9790253258344909,
            2.6243110518644754,
            -0.07454399207156194,
            -1.6879264496068311,
            -1.0983407888540768,
            -0.31700113673922037,
            1.90692920971338,
            -0.4958840364329236,
            0.009291268053900417,
            0.632561816000226,
            0.43037890635704235,
            -1.0050189909315332,
            0.16557204879876614,
            0.5671686495308234,
            -1.5346912748106463,
            1.2555410016321924,
            -1.1940519383454729,
            -0.06385123673018278,
            -0.18499902300632384,
            1.208884202165297,
            -0.8145358270052575,
            -0.4217155260044351,
            1.2782154006086504,
            2.044034020372197,
            -1.5571027334435974,
            -0.7367351504773345,
            0.8078582851522847,
            -0.9210642425024048,
            -0.24855115126499028,
            0.4684577004700836,
            -0.13958127187395689,
            0.6187131194884157,
            -0.8278863763101023,
            -0.18278656149134487,
            -0.06264871247597735,
            -0.6637495733712273,
            -0.05865042532133255,
            -1.3832364883053623,
            -1.252181933137876,
            -1.0110145465117455,
            -0.7421050492457805,
            -0.12161978570733124,
            0.46014458902758326,
            -0.512477222380947,
            1.0512932745686001,
            1.367533360927091,
            0.9348437886686515,
            1.815763858932194,
            0.02681606774741662,
            -0.18986450311803374,
            0.29423288589057134,
            1.2599084395742843,
            -0.6398280551275133,
            -1.1139056988890514,
            1.4301551137055741,
            -0.5634688794352947,
            0.13346416220971144,
            -0.058834069765468476,
            0.3738675870002045,
            -0.3851536950615302,
            -0.405330633871541,
            0.3560509685014874,
            1.6045483914779664,
            0.0028825690956680223,
            0.7054684213808936,
            0.2352635920528928,
            -1.153851590373382,
            -1.0670412698205136,
            0.6818931243842299,
            1.3070003134516472,
            -0.4143492579938107,
            0.4439164746919588,
            0.6316900353639099,
            -0.06027445344879728,
            0.6020368518044834,
            -0.04937230404587306,
            1.2829913011305032,
            0.13524838002022857,
            0.45106082964106126,
            -1.8208693477357523,
            1.2271195093951244,
            -1.259482929379663,
            1.798204396979423,
            -0.9839072041118807,
            -0.8318952632378809,
            1.5500663295488286,
            0.018789059764890495,
            1.1050819642464793,
            0.4550111259199035,
            0.35650304428864377,
            0.21323399367720627,
            0.12833637494494032,
            -1.2156181416841507,
            -0.4375943711487198,
            -2.499456954483895,
            -0.5393030395056315,
            -0.08682325317677765,
            1.7134429379356808,
            -0.2986975371538449,
            1.8432391041606058,
            -0.3853035515059359,
            2.1166574083389316,
            0.3080193431049458,
            0.580593307541195,
            -0.6586759639869336,
            0.24752599044673476,
            1.3803832331061008,
            -0.8333240751747804,
            1.2802297396641156,
            -0.13257857866213368,
            0.7862471663786464,
            -0.058748614883811515,
            0.3145647589267188,
            -0.3529663717020933,
            -1.7623871746924538,
            2.345793221947113,
            1.0637528053730032,
            0.055432387789784536,
            0.978726997691657,
            1.523124850073394,
            1.3784351699603485,
            0.8968496012485685,
            -0.30644265623879563,
            1.7695403467012798,
            2.0370672669826533,
            1.7991096099722552,
            2.0394981928438543,
            0.5973575997814667,
            -0.5810951101265062,
            0.6399426186716188,
            1.153842389183181,
            1.0032641743987791,
            0.6289856022289853,
            -0.6146133282407013,
            1.1188090003606883,
            -0.6741506852257413,
            -0.6427717937530406,
            0.49390750209513923,
            -0.8939726256358875,
            1.1100932240594876,
            1.008147545611834,
            1.377212567183094,
            -0.10082907117444258,
            -0.7042318608437581,
            0.7413015311996702,
            -0.3932823638559913,
            0.6232241526055495,
            -0.7271229155243855,
            -0.3056052265480555,
            -0.5679022105510241,
            -1.2089192245682903,
            0.42759161784726846,
            3.4580318597310766,
            -0.09964056930124307,
            0.862271159838225,
            -0.6663871862488628,
            1.1671002356843594,
            0.41699683393919557,
            0.9383956712669507,
            -0.2781851294506329,
            2.1438292509077232,
            1.1529648184934043,
            -0.12719296313917242,
            0.29502288201828003,
            -0.4867800272448249,
            -0.6268899390401663,
            0.4715247116602972,
            0.2744760045318374,
            -0.9353946149321878,
            0.5387511534417272,
            -0.12916751356045658,
            -0.2909392312637823,
            -0.22299702392617796,
            1.3698615571707562,
            0.4053591683536666,
            2.2279935577371957,
            0.3563452195056625,
            -1.9547882919755153,
            -3.2916134465964504,
            -0.16374252848098605,
            1.066595709035424,
            -0.379976470191645,
            1.5955465898432861,
            -0.5004314059131681,
            0.6891669286305021,
            0.9628484427704462,
            0.9203625072000481,
            -0.14865822763250758,
            0.06426708036127243,
            0.5331195424160701,
            0.322968815996093,
            0.23361585928466863,
            0.5040064071572259,
            1.040273244571749,
            -0.6873027565924179,
            -0.5625619393022541,
            -0.1889122223761402,
            -0.6669740912313927,
            0.5819028594836921,
            -0.038158007263481744,
            0.975840140165889,
            0.38671432326884614,
            0.18579954233933466,
            1.5014736278722283,
            -0.7142908891072792,
            -1.5334922769247379,
            -3.026650325211197,
            -0.11885666866423755,
            2.4548768244926147,
            0.711340674935259,
            -0.920371843143869,
            0.6817220545361756,
            0.25736606370347187,
            0.23557382687740042,
            0.5646298081977476,
            -0.19881549340931037,
            1.9198460990025417,
            -0.6839169882381831,
            0.16449029969538798,
            -0.5928884451044059,
            0.5685356685957546,
            0.40414726919236615,
            -0.7676792454367297,
            0.9138527910853771,
            0.33490466000959696,
            0.723806056945775,
            1.1388703372520281,
            0.896242751131546,
            0.3471879099230816,
            0.4878123192222822,
            1.1053818056932363,
            0.8707716412631793,
            0.18044019312352358,
            -2.5747755302195383,
            -2.06968560537297,
            0.019103067875535614,
            -0.15701302372869783,
            1.0493305350507667,
            -0.6201903192231859,
            0.6490537146718888,
            0.635499569770074,
            0.5004983593394822,
            -0.1005010899615919,
            -0.4964891223855855,
            1.1354181560520287,
            1.0325501234120673,
            0.2153630499184958,
            -1.113330640585653,
            1.322796286237153,
            0.22134546967577895,
            0.7529613128050119,
            0.031282768817336645,
            1.4089439324951705,
            0.7635335179536076,
            -0.11020031040792731,
            -0.16708721553615988,
            0.31370666470135805,
            0.6555830366755077,
            0.7482887224785592,
            -0.03345441682885276,
            0.7635008415508703,
            -2.187560487139336,
            -2.3515034070925913,
            -0.17827254012699498,
            0.20946430671811164,
            0.08645485553455036,
            -0.11521986686798467,
            0.4479189944728765,
            0.6101758256179332,
            0.1667489288431769,
            0.6515331242641085,
            -0.9590214134419277,
            -0.8195205640160238,
            0.681284184927681,
            -2.0411584396793057,
            1.2924621948475226,
            0.7973379534689686,
            0.14171232021764185,
            0.7555283495151779,
            0.6923107020526973,
            -0.06769345399806798,
            -1.1321596545567545,
            1.453579265001868,
            0.4627545585698025,
            -0.2214661832530927,
            -0.02827811938458487,
            0.6621882298847299,
            -0.10684452968795492,
            -0.970496878254482,
            -0.9171095606767147,
            -2.4729641035319956,
            -1.0363723437404877,
            -0.3049979412850958,
            -0.264813063223799,
            -0.06824497309696392,
            0.9321562131240543,
            -0.45235243135656095,
            0.42230450441707756,
            1.7493466940579683,
            1.0139077789831825,
            -0.00985976963160143,
            -0.929450893700999,
            -0.5244634513166262,
            0.35254686861656676,
            -0.7780471974245797,
            -0.2124395680195593,
            1.9784440098599827,
            -0.491530735256218,
            -1.6131909439606307,
            -0.3199989639772661,
            -0.21352855321283276,
            -0.271795813347062,
            -0.86132302163391,
            -0.6210577232878859,
            2.130548315692254,
            -0.19948202293821068,
            -0.38720298535723735,
            -0.925937903572489,
            1.2370126812982911,
            -2.257738848159986,
            1.3891892208619947,
            -0.6466735606765326,
            1.374049643369704,
            -1.4014825473795296,
            0.5830577816932053,
            -0.002537895661972842,
            0.7981426473180587,
            -0.24414324622321273,
            -0.36485752276406563,
            1.0806881301358855,
            -0.16184733164980877,
            -0.8281957428348092,
            0.9997769973823343,
            0.6103093791711172,
            1.6688178587136124,
            1.6373719491989986,
            1.0425279399927816,
            -0.7960750111756703,
            -0.001554178683176469,
            0.412835129650732,
            0.6424797189702138,
            0.361045903316904,
            0.6264117818788291,
            -0.8639383688299578,
            0.32402346684080086,
            -0.46765199783214695,
            -2.344586486827231,
            0.23693601364086975,
            0.17824768992027715,
            0.2606030169464652,
            1.3417822082582127,
            -0.06856069391314554,
            -0.6341252822725404,
            -0.9516813506593024,
            0.447608862097243,
            -1.4455022395172994,
            0.9094829713741961,
            0.22608179888041632,
            -0.05305480692851423,
            -0.3069597210294991,
            2.726259472439246,
            -0.6124437034479767,
            -0.22324282530628356,
            -0.038211308605475114,
            -0.019395323694223383,
            -1.2090971285994958,
            -0.9912940319073322,
            -0.8396321819493467,
            1.160905143530467,
            -0.6864166915211636,
            -0.07421219107359432,
            -0.7000512608055363,
            -1.529974107994061,
            -0.5817383872797315,
            -0.2054971359904477,
            -0.06348780407688606,
            -0.6079454263835239,
            -1.1482457406550663,
            -0.959040793930669,
            0.33273869666801575,
            0.8997160622973551,
            1.2316983284333576,
            -0.6113164622536389,
            0.9213258458294928,
            -2.465740986407141,
            -0.971102038538303,
            -1.678368094478722,
            -1.44633957927307,
            0.19499942604488585,
            -0.8225296997831748,
            -1.1515691504424364,
            -1.005061410906293,
            0.07305237114203497,
            -0.3237808399648132,
            -0.7736522257358854,
            -0.31172422354824136,
            0.05362169989660066,
            -0.6433878491788704,
            0.24395982210359582,
            -1.1274203396363331,
            -0.33416351456488774,
            0.498570430604941,
            -0.8290686467036675,
            -3.043973175774037,
            0.10445005425395588,
            -1.0490758187437956,
            -0.07124722296839679,
            -0.08178399399985935,
            -1.7097225358438246,
            -0.34064823723270315,
            -0.9252925419899318,
            0.7190979922253301,
            2.3711249796592404,
            0.6716785480690308,
            -1.3481076883568053,
            0.24501479168635218,
            2.154182183746968,
            0.9076160458489694,
            0.5467560042895088,
            -0.472195019802105,
            -0.907626517010515,
            -1.905039565786988,
            -0.3528243039043569,
            -0.30602822995331064,
            1.0349471756114885,
            -0.6136418472941352,
            1.517623189967874,
            -0.14001586787422657,
            -0.7614311556687015,
            -0.1010298454605984,
            -0.4717187010716711,
            0.08534036961148617,
            -1.047891273995351,
            -0.7683116484478741,
            0.39231386678559255,
            -0.9602626217638366,
            -0.43617667901498,
            -1.190412598087233,
            -1.6928155774347728,
            0.9926327945597461,
            -0.5847169612298609,
            0.4158539328534566,
            -1.5964922152603427,
            1.5366652295488075,
            -1.8154304296145394,
            0.8560147154263434,
            0.32369417900206227,
            -0.012067627623115062,
            -0.9803821714176606,
            0.15071968557634927,
            -0.1989302828667758,
            -0.12200781984891507,
            2.2733522543971634,
            -0.3993349139362186,
            1.2781835225037759,
            -2.105828295893193,
            0.6601824350211359,
            0.9402473969026194,
            -0.26430700379030775,
            -1.357349436157014,
            0.7600146517476091,
            -0.8549313418702253,
            0.9076922449854742,
            -0.8588394299851484,
            1.269422731743906,
            0.1046178054548812,
            0.02929104025173896,
            0.056002761066353796,
            0.8105475055939828,
            1.7305741705449713,
            -0.39481964177540463,
            -0.061177086381435805,
            0.724403947144922,
            0.12793632987212447,
            -1.6853627364877102,
            -1.0672285237148198,
            -1.1181967549730638,
            0.32562640282966293,
            -0.019824832967019257,
            1.4659430223838021,
            -1.0463849016657398,
            0.11387022938400526,
            0.6796680083924442,
            0.3714319017066823,
            0.5741198649771397,
            -0.8571763640566781,
            0.2931029827332225,
            -1.3383842119048837,
            -0.07601092495340184,
            -1.4552097504004304,
            -0.7196827938706002,
            -0.1382448131117815,
            -0.07192100779867046,
            0.2005373277704068,
            -0.3797695099404786,
            0.8288696559930263,
            0.4508593460375521,
            0.6153443060696855,
            0.8602147888378164,
            0.2859876809016606,
            0.30410080366887965,
            0.225736725025174,
            1.060941355914144,
            -0.23144005146509017,
            1.4119495738393006,
            -0.9839361631844183,
            1.2319293080268319,
            1.4290861549304565,
            0.6584137725116084,
            1.6952355833849566,
            0.3043571179235009,
            0.3313697468292037,
            -0.6813493710173254,
            0.5626867079199438,
            -0.48299814057122703,
            -0.9030323760542861,
            0.6386827870811822,
            -0.8747642820270044,
            -1.0139601674346954,
            -0.571610115572221,
            -0.752281073699325,
            -0.4728507589192153,
            -0.8840231198396588,
            -0.6987098535235122,
            0.4841687313849136,
            0.49152541273458605,
            -1.252879020103638,
            0.22564584203189256,
            0.7711150552704015,
            -0.5184127327440654,
            -0.7324356965135709,
            -1.4469264300660298,
            -0.7093365754868873,
            0.11612149508312873,
            -0.3143267583522687,
            -0.4588429161688603,
            -0.8434954607772265,
            0.5385759536268969,
            0.6781037717192916,
            -0.928915430635906,
            -0.731644609288733,
            0.2667471748268105,
            0.21318075775183637,
            -0.8486682531204557,
            -0.964372803818181,
            -1.8360828192033032,
            -0.4794105159504132,
            0.7570888608980012,
            -0.7583333886984099,
            0.9129719578264383,
            0.5567828755366944,
            -0.3040374315772716,
            -1.409809015570375,
            -0.3825216016958815,
            -0.7192148847459541,
            1.3940797407751504,
            0.6692680868629286,
            0.45468468192365574,
            -0.7137378423268308,
            0.6984939574752091,
            -1.2515164830317618,
            0.007259231467114871,
            -1.5772862511609829,
            0.881524623964076,
            -1.7591781066957457,
            -1.2438205398555566,
            -2.568764997079676,
            -1.0001748223668354,
            -2.3541623530202616,
            -0.48348471889144257,
            -1.0790053687121963,
            -0.20243256565698095,
            -0.9468544237220355,
            0.5371140991236335,
            -0.407664327422566,
            0.2159219534626733,
            -0.15007187869583907,
            -0.6253937078396258,
            -0.020644527923814205,
            0.6124731046410584,
            0.31751086091615843,
            -0.7137462128628465,
            -0.03923758127719338,
            -0.2906361815166906,
            0.023354443942894716,
            0.2930023751893846,
            0.013565230077908073,
            -0.18423276694741586,
            -1.9092104478463956,
            0.14559743680580975,
            -0.7121310059812918,
            -2.959116916848642,
            -0.34837986863608983,
            -0.5657586986502877,
            -0.8855709904866202,
            -0.6751833741798435,
            -0.7629277627808067,
            0.1402839878718973,
            0.2199991491661904,
            -1.6709191893193107,
            -0.7668622719612548,
            0.43090328258446625,
            -0.5898287241936252,
            -1.510547969379118,
            -1.0627201128852002,
            0.1425746267473546,
            1.057471262027628,
            -0.2197329333308167,
            -0.11975726593920631,
            -0.4808471742653677,
            0.24002728352212213,
            0.9785435518877285,
            0.46042739691133183,
            2.11926767311421,
            -0.6084968283253855,
            0.9704498108685881,
            1.5229079771836878,
            0.08388550322709055,
            -0.7607497282438913,
            -0.4191126772315866,
            -1.2587625319782678,
            1.0890960829166658,
            -0.3441047895711713,
            -0.8712650204703827,
            0.18696649739866508,
            -0.3925325317970333,
            -2.03243277103858,
            -1.4563870724630412,
            -0.9061091093860492,
            0.15681250273439581,
            0.22953515864454518,
            0.09522550262868784,
            -0.018514836911942816,
            0.5290855514102587,
            0.3711249181855093,
            1.3094945289440092,
            -0.18405585836248695,
            2.6644036871900747,
            0.7055334834528402,
            0.09527764489975829,
            -0.36947438756452006,
            0.342320953192891,
            -2.295662571193058,
            0.8603205895916269,
            -0.06545639374193463,
            0.40239975699173847,
            -0.40052227546700125,
            1.0701269543384817,
            1.972366058970912,
            0.9238118399271557,
            -0.7042917575071059,
            0.24780553272831932,
            -1.0088009297301062,
            0.07964299343807432,
            -1.4365439391210477,
            1.4989482105146907,
            -0.7326841156815249,
            -1.1072951132596813,
            -0.9751008419638024,
            0.7902146191635702,
            1.00319782420292,
            -0.4093155300855175,
            -0.9664957361537135,
            -0.07500876921799954,
            -1.2833865731193401,
            0.30407081287545984,
            -0.6019024281359479,
            -0.20615258066243303,
            0.7416450427582841,
            1.0794430692896209,
            0.6069782217519557,
            -0.5146416906879959,
            1.4085444662558384,
            -1.2194391242084446,
            -0.33414784217620735,
            -0.6326730357020416,
            1.2115078336998348,
            -1.1389478259849946,
            -0.8547115024924831,
            -0.3317499525865646,
            -0.399542265623371,
            2.8609042711624784,
            1.1742135869811472,
            1.3128529609129096,
            1.2975788067627982,
            1.050666192853193,
            2.058898791197524,
            -0.6202593671281527,
            1.2061522337440267,
            -1.4870787264847891,
            0.7121033119042428,
            0.5579717048945388,
            -0.7874943668389881,
            -0.6047792508210615,
            -0.07411282014442833,
            -0.46055210171586697,
            0.2862081004318412,
            -1.7270600040208064,
            -0.6470361700448888,
            -2.8865438403642756,
            -2.4464670585051853,
            -1.7182327071350307,
            -0.09956443752000027,
            -0.3612296408733523,
            0.24048068857548482,
            0.10845770348027643,
            0.0391877766457408,
            1.612164658067734,
            -0.749506757860489,
            1.7214195012452522,
            0.7222697044545439,
            1.096349533028533,
            0.0994183768374249,
            0.43772004955519606,
            0.5669265268487902,
            -1.5984300525915192,
            -0.9545098583497119,
            3.024692762798249,
            -0.005036120673702377,
            0.34766688644737725,
            1.284795747220606,
            0.018284217475296703,
            -1.3058678566160822,
            -1.372558504465007,
            -0.499058115992836,
            -1.2283135610982037,
            -0.2225708924284532,
            0.6836533381162857,
            0.7148818415353898,
            0.24961577942256247,
            -2.0518563826001586,
            0.490550611491166,
            -0.7231041165842531,
            -1.8334305088308347,
            1.2461491643663705,
            -0.3227814830997845,
            -0.5665051251003308,
            0.8239007552118519,
            -0.10241755738739867,
            -0.8602687991346337,
            0.5507456414906737,
            -0.2990161454973026,
            1.5182829894837764,
            -0.3536392570651263,
            -0.2925679471298357,
            0.6919638598669854,
            0.04578048895054289,
            -0.19211820997489745,
            -0.8058795452379112,
            -0.6889280225539233,
            -0.6219847235817203,
            0.6133293814861396,
            0.5263449427205632,
            -0.7321520932080431,
            -0.49514406726995125,
            -0.5977279250588925,
            -0.6182645432477357,
            -0.9686949360427255,
            0.8581880380605306,
            0.9236153456631343,
            -0.7911833705493085,
            0.45409294299708114,
            0.10326909615586354,
            -1.3241729110585525,
            -0.24330383793470362,
            -0.4099632023433687,
            -0.149564311496872,
            0.7900667745299711,
            -0.14972654844988448,
            -0.5031358765301842,
            2.1894567003386958,
            1.136924839755541,
            0.9342243477287074,
            0.4173018975035702,
            0.2955882327900501,
            -0.04604572523920845,
            -0.7266121268947086,
            0.6305877352883585,
            -0.831967193373848,
            -0.9026187545374488,
            -0.5302693228602877,
            -1.9993435563047897,
            0.25665161146856497,
            0.21247461215103483,
            -0.17797034187032426,
            -0.5305925079717438,
            -1.3745439658043472,
            -0.6406396508387749,
            0.9251506782005439,
            0.7464260326080935,
            -1.7287219647891077,
            -1.0968044070497802,
            -0.9448946862826799,
            -0.7411859891431917,
            -0.34953629743698095,
            -0.3398466979318688,
            -0.45003236352758247,
            0.8351607362754728,
            -0.9095879076783462,
            -1.2124364900378133,
            1.2078438618590537,
            -0.0670507847365569,
            -0.8205298938119577,
            -1.4378420926531883,
            0.28211332496416847,
            -0.47827866726653406,
            0.7055424458082802,
            -0.4731719036367526,
            -1.47655795124253,
            0.3655077484529823,
            0.798127303967703,
            -0.2916974497446945,
            -1.126891644137026,
            0.5268154220838301,
            -0.12876305439983807,
            0.6479564037775971,
            -2.159333279427906,
            -0.9470698036202356,
            -1.3090528686469463,
            -1.3758469391461061,
            -0.6151318572956801,
            -1.188517782383653,
            -0.4913185789281041,
            0.5784599181368603,
            -0.7622935443005734,
            -0.31007268283697975,
            -0.4803565245600714,
            -0.23733512795521736,
            -1.8523387735114938,
            -1.1632503549376596,
            -0.7130797309959137,
            1.5133149626533058,
            -1.6714679042212706,
            -0.24588321385135098,
            -0.3554287523876798,
            -2.063573330726414,
            -1.9737878582082893,
            -1.0399207565751025,
            -0.41586945483594,
            0.25507407942643845,
            0.8231610189565648,
            0.8562142497356633,
            1.324964267292662,
            0.08157231943610552,
            0.17039290470178842,
            -0.8988697418248346,
            -1.0980334998431416,
            -0.2608261205970407,
            -0.17543163978013196,
            -1.4901178299471547,
            0.6791164954319077,
            -1.258543749931062,
            -0.15823461605871791,
            -0.4048974867483851,
            -1.9075892171555995,
            0.8482276167115639,
            -1.8619844644692138,
            -1.7866848380859326,
            -1.2337151927443786,
            -0.2420917587252249,
            0.5400685174129213,
            0.011224206882957015,
            0.4092013480181337,
            0.028545364428807205,
            -0.4520453529571548,
            -0.6460933120096719,
            0.9298076272795744,
            -0.17623425723384578,
            0.08826157585122694,
            1.533384660647435,
            -0.4040392803175248,
            0.4622874469502415,
            -0.21745022626201718,
            1.3536522210096895,
            -0.05868386576745094,
            0.13971489976975315,
            -0.7729074344062292,
            -0.804337782416959,
            -0.7994919842761748,
            0.9839346071393973,
            -0.46954906175162137,
            -1.2730451528571805,
            -1.0482607589301878,
            -2.532151208469031,
            -1.0706691215577517,
            -0.7492940282928967,
            -0.9397981248609817,
            -1.4355614481263848,
            -3.0690683266030896,
            0.6281962625147594,
            1.1266422292152345,
            -2.5202098196198524,
            -1.0226281381113995,
            0.06419057643984172,
            -1.5620191640664896,
            0.9617641788228539,
            0.5960355184169793,
            0.37306574744365256,
            -0.1877883591796129,
            0.5151722705219489,
            0.14262475636745653,
            -0.5644307164206824,
            -0.8003332408452076,
            -0.804773200832645,
            0.7182437421140134,
            -0.5647909140748613,
            1.3966338596000694,
            -0.6280061786425741,
            1.149181551339391,
            -1.08875704212007,
            -1.4467182903457116,
            -0.23485488696589127,
            -2.2501050038802743,
            -2.7890993774751625,
            -0.1719679161885091,
            -0.771709818020571,
            0.5357884175163025,
            1.2125938943450045,
            -0.19247105240564316,
            -0.0806071054478109,
            -0.2343698414629126,
            -0.38381866372335477,
            -0.665564922660546,
            1.2058518097895425,
            -0.4025437255291653,
            -2.2628072821202365,
            -0.6027543254808204,
            0.11135522433595722,
            -1.2172644171185714,
            -0.8538918650493201,
            0.5374659035335607,
            -0.24302290068615817,
            0.7907068282415214,
            0.9069322890084995,
            0.18948759583477637,
            -1.0724404855841594,
            -0.468899582427847,
            -0.4063154234282494,
            -1.0453927836044028,
            -0.3609679104315779,
            -0.6633041182681563,
            -0.701365936350123,
            0.7692603785063518,
            -2.829019679643676,
            1.9925826965087525,
            0.2553806904842664,
            0.06977820580240007,
            -1.5237500597292126,
            -0.4765753867974267,
            1.5537533947730855,
            -0.09619825890624147,
            0.9681364621111185,
            2.1038454990381523,
            -0.9835925101093542,
            -0.1266273030120353,
            0.6749353073884239,
            2.013612172049238,
            -0.7216717086738029,
            -0.328818591337468,
            -1.376877409723509,
            0.46395318113118383,
            -0.323304863983777,
            -1.9669688538134191,
            0.5256072642167887,
            0.7974434790822348,
            1.4394037020917345,
            -0.21101018588213988,
            -0.9191008934741614,
            0.5149438444252907,
            0.5824558431104775,
            0.10617481437639176,
            -3.2233669294460077,
            -2.069689636056401,
            -0.4697241686916597,
            -1.5869470783525768,
            -1.8730007890844613,
            -1.3208865749386476,
            0.9461647742596332,
            2.206371426918558,
            0.13608678489173057,
            0.6918060639653115,
            1.0973440002912256,
            1.0881063345284214,
            -0.6200990342154091,
            0.7423769780420549,
            -0.4876271059554801,
            1.7528659113484564,
            0.13513452465402065,
            -0.7970897895982938,
            -1.0269077038259622,
            0.5106700771524595,
            -0.9927477245517369,
            0.676276014616621,
            1.5629259078406268,
            -1.3951953491166633,
            0.8939520738097371,
            0.6898275127448584,
            3.089269351185814,
            0.7959847264504408,
            0.7624942064278687,
            0.09320313545880438,
            -1.3683128407527256,
            -0.45469596114030203,
            1.2719955985932334,
            -0.17054991792564114,
            -0.39034150282370406,
            0.8171077657489082,
            1.4588732657871262,
            -0.5213035771152618,
            2.186353743096672,
            -0.9777982961615252,
            -0.49274176929033514,
            -0.9514581919454723,
            -0.037965943453266274,
            0.16694817203018925,
            -1.377670866109427,
            -1.130530246406431,
            -0.6391250425434111,
            0.1905642222354961,
            0.009684138815233822,
            0.7722733703517586,
            0.6821317326455137,
            0.3411395031837643,
            0.7632247747235618,
            0.8923802329458205,
            -0.6283027653590606,
            1.266200744283887,
            1.6251555424118713,
            -1.9981383127008614,
            0.38766598520085443,
            1.9185666091456537,
            -0.34034545248072445,
            1.333366752489257,
            0.22673349869476705,
            -0.3149079532908289,
            -0.057652537750613055,
            -0.006579499651037342,
            2.915113641355548,
            -1.0250612324731547,
            -0.5169330594702221,
            0.4466756320789171,
            0.2083955858102871,
            1.0382967634284193,
            -0.3658094847165054,
            1.4735228783133816,
            -0.6401293264578258,
            -0.0655105231893277,
            -2.0842781372909704,
            0.32189574524189735,
            1.905119518607051,
            1.3023873740818088,
            1.415078825682072,
            1.2419197870853187,
            -0.7442468842442054,
            -0.7652843291522734,
            0.40981618012963245,
            -0.8063778262086849,
            0.34641474385100335,
            0.24940830620069318,
            -0.7196890384509554,
            1.601158600741019,
            0.19721343414011153,
            0.11029739722304316,
            -2.005188322732955,
            -2.208526068685426,
            -0.8668786536143378,
            0.515742637634618,
            1.2746988806026884,
            2.152339390570283,
            0.18020510673236184,
            0.7514087116549337,
            0.10343839687297983,
            -0.13524977058375354,
            -1.2905396042957786,
            -0.07848132507519591,
            1.364391256206494,
            1.911719630957741,
            1.4797925686464946,
            -0.7376622711939493,
            -0.8784654973410967,
            1.7904611602652725,
            0.676599485937431,
            -0.007211844323983576,
            1.4562984460061796,
            1.5915570346183021,
            -1.8667126525218947,
            0.5406211473688235,
            0.16863636412992208,
            1.7784327727096814,
            -0.3097763360322163,
            -0.14204693952518427,
            -1.2660808983199636,
            0.15474498057035296,
            1.238636297493331,
            0.3852262732963543,
            0.8135188762467118,
            -0.18086279643538059,
            0.974295772827764,
            1.6569029386496898,
            1.9122658961940115,
            0.17064684678255596,
            -0.3574264896760564,
            0.4480728729911773,
            0.4385963317116437,
            -0.6340225810364218,
            0.3333879602529283,
            -0.13778307983224952,
            -0.3656315248713212,
            -0.3820921076144677,
            -0.620628935048703,
            -2.0748233417262796,
            -0.9798256938481441,
            -0.45285751358383386,
            -1.1621794137748094,
            -1.673990952554669,
            -1.526468344058956,
            -0.7821619564309317,
            0.2037164177753328,
            -0.9331700902203609,
            1.613154513946987,
            -1.98775631353155,
            -0.20284472519544938,
            1.136213686972946,
            0.6632539992905803,
            0.5758159406727793,
            1.5168397524630512,
            0.3342163949147759,
            -0.48539132117799016,
            -0.9022276459418536,
            -0.4104582416563698,
            -0.8872002431305573,
            -0.43635582758243396,
            2.9938548606226534,
            0.6343981192542828,
            1.369627002174159,
            -1.6596762348588405,
            0.8107006480499573,
            0.4793375054658993,
            1.7500697211011838,
            0.7761916799371036,
            0.38301354823430744,
            -1.495167576248645,
            -0.890899934215839,
            -1.162652553412181,
            -1.4075210102964026,
            1.549556234088007,
            2.034921664926984,
            -0.2057580971539045,
            -1.4077407343335524,
            -1.8758764464140267,
            -1.2167393300481335,
            0.8938830435224187,
            -1.0600196169546305,
            1.4107313414634506,
            0.24821558864999815,
            1.172592721267345,
            0.26449209083634295,
            -1.0712314604845385,
            -0.4467784883507186,
            1.3034995475055173,
            -0.6753082544985902,
            -0.05987126223200339,
            -1.199507716529668,
            1.4165867451230427,
            0.3744520923827143,
            -1.9447495303723041,
            -0.8401784660297523,
            -1.4087847173925545,
            -0.6795016740623963,
            -0.08174477682047579,
            1.8451876408003414,
            0.1068338256739251,
            0.5198545158335655,
            -0.20641818058774514,
            -0.3671507376899503,
            -0.8929059854286823,
            0.7342645052647355,
            -0.41377525319966235,
            0.652828984581581,
            0.11776228312483514,
            -0.6894878236014783,
            -0.3093251211958155,
            -0.824779648589883,
            0.2746165224159763,
            -0.8464543821578637,
            0.03545488923042155,
            1.040396918575173,
            0.5399974884315433,
            -0.09469808000728759,
            0.2027998776438926,
            0.02678829515379407,
            -0.079314947035097,
            -0.9663757635033937,
            -1.3744398374113302,
            -0.8634442483502925,
            0.7926291377788235,
            2.1122768091682946,
            2.378901859306276,
            -0.8287846939024919,
            0.6032534517851467,
            0.894097549315953,
            -0.10429840152851758,
            1.1599529927858825,
            -0.1182023530375473,
            -0.38518303690460154,
            -0.6787905630972341,
            -0.5849187212195917,
            -2.6318974828378696,
            -0.37380012360258463,
            -0.1111559584547085,
            0.09350875436134018,
            -0.18702395301566369,
            0.3578744979076239,
            1.1732231573273035,
            0.35316531657796146,
            0.4110819120989083,
            0.4922009562294923,
            0.16566095918248536,
            -0.7992122483532315,
            0.21971864770043936,
            0.6500961684909309,
            -1.493892342462906,
            -0.09366075551137679,
            1.5874578796654322,
            -0.9575533176470556,
            0.04096310214002938,
            1.044003147567903,
            -1.0165989832524347,
            0.8643647933752385,
            1.0457859739009403,
            -1.558173133135117,
            -1.4042908571522699,
            1.3095188262936686,
            -1.8005615594492064,
            -1.0181117437779887,
            0.23221100909710346,
            -0.7952722208244888,
            -1.1411751870038687,
            1.3944317807228004,
            0.5478999792187512,
            1.1322416133278899,
            2.840845246030457,
            0.38305614197500076,
            0.668008305418926,
            0.02458652799609407,
            1.3352108836244634,
            0.7051208526654895,
            -0.9865797628629822,
            -0.522251313815987,
            -1.4659886985375692,
            0.3668367732763276,
            -1.0871295905857798,
            0.3260399339186153,
            -0.3701418309252577,
            0.21816300995603372,
            0.11963074789911386,
            -0.09539975942647473,
            -0.13123193906397293,
            0.5096130521910102,
            0.706499683928774,
            -0.5336059327345916,
            -1.3065348562318841,
            -0.7952523772196174,
            -0.39531428606603836,
            -0.5081373233707542,
            -1.0379008236661909,
            -0.16236171211740374,
            -1.0478095630589286,
            -0.785553742922394,
            0.52842628180591,
            0.4541533388069895,
            -0.6821677149503659,
            0.22727946156234316,
            -0.19047506848349105,
            -0.21392629949955302,
            -0.6777153082857732,
            -0.2690232681974454,
            -1.3392466904772298,
            -0.827066477088598,
            -0.4287519172307414,
            0.5224562746140052,
            0.7410765589258312,
            0.5850185388046667,
            1.0730338759868638,
            -2.3928473366013923,
            0.8604224251030145,
            -0.8661518562246806,
            0.045173290007445036,
            -0.05291231214684021,
            2.3421456167082537,
            -0.7841761858184962,
            -0.9971822049661214,
            -0.5075464473682062,
            -0.49378864718905263,
            -2.068580050363452,
            -0.19810781883771314,
            0.24715246529591567,
            -1.4544453310738887,
            0.10774971575106013,
            -1.289390020154899,
            -1.3295024083737075,
            -0.15934325179308292,
            -1.3415962673873525,
            0.7367818675340303,
            -0.30707354244837026,
            -0.1705215309677281,
            -0.02463604082332479,
            0.6563176673713307,
            1.30574340290848,
            0.358709079483031,
            1.5049150841896304,
            0.5184148569191915,
            -0.47333027479332723,
            0.4697141163307267,
            -0.177764004712611,
            0.33587657263247034,
            -0.68937443770543,
            -1.3201614271701791,
            1.459864289707568,
            -0.5314807165695662,
            -0.3216421007411012,
            -1.0014113780018656,
            -0.2719677362736646,
            -2.2646754845100556,
            0.793561400304779,
            2.6040833621492268,
            -0.4975368818163746,
            1.6037187637938237,
            0.690031164050662,
            -1.6695355430171204,
            -0.9553164599352036,
            -0.7773526286004793,
            -0.0692903656848481,
            1.4017132279371203,
            0.7502523766475943,
            0.8705306658078508,
            -1.0405887797488942,
            1.1814472789079384,
            -0.25300291181165024,
            -0.47842800632544225,
            -0.3555539123261027,
            -0.9723476355391495,
            -1.3492254142392557,
            0.131032143256982,
            -2.166007993791392,
            -0.48977500267287744,
            0.22989156318748152,
            -0.26336675651674063,
            -0.12620258759340683,
            0.8466242609889345,
            -0.5224825065321338,
            -0.4957297910753046,
            1.7719232380672356,
            0.6242294618217292,
            0.5709751667963151,
            0.6703536647020555,
            0.7290116757359327,
            -1.827781729995283,
            -0.2641045708174117,
            0.005884899864070627,
            0.11065956206687583,
            -1.2634088052069747,
            -0.13337816653727758,
            0.015028108533293576,
            0.8677681615407867,
            -0.33310363822579403,
            0.44956494831230986,
            -1.434162657530646,
            0.35471007825335366,
            0.7938501922219745,
            -1.3890061793519888,
            0.7882802068448485,
            -0.9423175955934593,
            -1.50543693190644,
            0.3744358040298567,
            0.12889243843320333,
            0.26640235012232855,
            -0.3007517114101565,
            1.5194304465280029,
            -0.7375870883194932,
            -0.3251160462065489,
            1.2877816882389983,
            0.8755949606912771,
            0.6895879625386415,
            0.5126854963791265,
            0.15363000960197756,
            1.3374465022897006,
            0.17141459481932944,
            -0.714905476266194,
            0.5414479051969814,
            0.29637883488960237,
            0.1997554938252423,
            0.4888572368021543,
            -1.6688878313585744,
            0.22065392760509883,
            -1.4347872171771008,
            0.12343311613457321,
            0.7365720350427185,
            -0.7620164878730737,
            -0.13073822638900637,
            -0.19065238011079208,
            -0.6100832605007321,
            0.315583489583457,
            -0.3465673934800452,
            -0.7823124642663831,
            0.5343484032437292,
            -0.8114128821671486,
            0.91040988814144,
            -1.652630438171141,
            -0.7247473850815744,
            2.6243570260619298,
            1.017861975603438,
            1.36604916006303,
            1.3374016574581393,
            0.6339804992560241,
            -0.7473717576154365,
            -0.09997330499157447,
            -1.2165446545109888,
            -0.5503059930147046,
            1.3405037991537028,
            1.2138013361939413,
            -0.010562248292766791,
            -0.47983289158678577,
            -1.9899727642198486,
            1.7891470668299663,
            1.0646218876864177,
            0.2606438443536772,
            -0.08190486022161313,
            0.23076341591582725,
            2.0147176707567422,
            0.017326994638172805,
            0.33252225573479094,
            -0.8723566158509015,
            -0.7897166689128027,
            1.0407894061958751,
            0.9156537066384773,
            0.7857630290351317,
            -0.21150767891472738,
            0.6699034936866207,
            0.8700158538776287,
            -2.5526763884877446,
            0.2834858169517724,
            -1.2360717326957724,
            -0.7419426294888756,
            1.0933746524639292,
            0.9878148802442726,
            -1.0789891897790678,
            -1.7400961637626098,
            1.514290414721592,
            0.33676973123164317,
            -1.0900044208428257,
            0.0738698289254698,
            -0.546099692245469,
            -0.7209704988134699,
            0.4139529719808196,
            -0.5063702480996084,
            -1.901284641421113,
            0.8593873715687695,
            0.4754143187445512,
            0.7535504780683091,
            0.6527753462609925,
            0.17292735520116534,
            -0.9876721585480895,
            -0.9591674571880501,
            -1.57246700872613,
            0.0690931093675105,
            0.5064205303756205,
            0.7849448376828128,
            -0.9127870089038186,
            0.9461184889420872,
            0.64017502539147,
            -0.00037525530836549846,
            0.20647407102549484,
            0.7354062728694494,
            0.7032695752080653,
            -0.5695883774849727,
            0.39696287319771384,
            0.03340101989380591,
            0.16208841113285524,
            -1.083302501077695,
            0.5984540990432936,
            -0.8212143740356006,
            -1.4319031438667629,
            -0.4917477893071341,
            -1.8909826776922267,
            1.5428434353384282,
            0.396057556489159,
            -1.3857476114020895,
            0.34295333384371024,
            0.4336419862007971,
            -0.41538440995416837,
            -0.8715962926614566,
            0.9847676161625182,
            -1.8023896417454437,
            0.5250859698150747,
            -0.24146344019869337,
            -0.2772551333089895,
            -0.1552238060143808,
            -0.43716158461853377,
            0.7824972900616253,
            1.1737056588030297,
            0.5594867567391353,
            0.19983013168167685,
            0.18399046090326535,
            0.5343478141531033,
            0.987549714366391,
            1.140780140259929,
            -1.021768127972781,
            0.006915196684516795,
            -0.20032202802673219,
            0.6147393392295764,
            1.7379642439385965,
            0.7651563926743805,
            1.3579332712354393,
            0.5847309654200216,
            -0.13168588582544666,
            2.4826259834806215,
            -0.5393557429130297,
            -1.172672176027562,
            0.037870892428307594,
            0.2374275505872733,
            1.3454316047792771,
            -0.25108003008883123,
            -0.2857359239830456,
            0.592509827022682,
            0.0005150654336230361,
            -0.5229734906607147,
            -0.03221881463304329,
            -0.4767717712316911,
            -0.07563803246997607,
            1.3664534815295841,
            1.345246321507758,
            0.4187404904763469,
            -0.5290002649436957,
            0.7661533053215527,
            -0.15133846604016876,
            2.0956204379715118,
            0.8774767081827736,
            0.10617217541172722,
            0.22606919233779157,
            0.4363240081073386,
            0.39898624205300987,
            0.5036833699203505,
            -0.18008285252994663,
            -0.6161203020387463,
            0.2407604302569195,
            -0.9972046033367946,
            0.1188568814130117,
            -1.238797332046048,
            0.34458495174681614,
            -0.23945523657301185,
            -1.7953122597759679,
            -0.023922275234017302,
            -0.412868532530978,
            -1.6214784762576298,
            -0.0716231816746789,
            2.39743737134781,
            0.3115128784682942,
            -0.9295094156121039,
            0.8015950733312304,
            2.004258443180484,
            0.13904665147270928,
            -0.7301141071554288,
            -0.07341796669694786,
            1.3208288008659517,
            -0.846696399751173,
            0.5227732603129763,
            -0.2610103189072975,
            0.7023292749722562,
            -0.32444344184912943,
            -2.2462861382659876,
            0.6083183347642892,
            -0.5133824674911526,
            -0.5149924702960271,
            -0.42829417053551516,
            -0.42269956492008265,
            -1.917108403114627,
            0.5151927001170582,
            0.2571881738412006,
            -1.6369543895225316,
            -2.157426064146831,
            0.2896622335558942,
            1.2532330671496847,
            0.6715829436635511,
            -0.6386465685504522,
            -0.19308576341321504,
            1.3064566248772198,
            -0.030425654757346186,
            -0.7654106434813379,
            -0.24602436194265168,
            1.2953032649482705,
            0.5212616165374072,
            -0.6274192898385119,
            0.11148811260746944,
            0.17492113076937488,
            0.15745025090411272,
            -0.9849549161664362,
            -1.1476999647624262,
            0.7178627444742623,
            -1.4527471861628916,
            0.8282336108230036,
            -1.1098344646086729,
            -0.6206370586592929,
            0.39151504879159166,
            -1.1995104384739412,
            1.1864638161411996,
            -0.5404117502869173,
            -0.6411782735878494,
            0.9473697210593057,
            -0.851799103501359,
            -0.2954474742362379,
            0.3013639543780128,
            -1.772528735881532,
            -0.07878952388948714,
            1.237129523977145,
            -1.6399015057944941,
            -0.2245727272450194,
            1.6725588592222977,
            -0.555000702737472,
            -0.7648386485192651,
            0.8121902387605657,
            0.46384705099349544,
            -1.3546364756339877,
            -0.22611793270020336,
            -0.15756541535549556,
            0.265046814945187,
            -0.36327228487777535,
            0.7217503864272108,
            0.41584648142892416,
            -0.9476625435002249,
            -0.2066513271526662,
            -1.0442186493904155,
            -0.439867471586001,
            0.10354039172767676,
            -0.9901949798045289,
            -1.4254612032491605,
            0.1736754086881588,
            -1.0864448156130038,
            -0.4223963259222383,
            -0.25680000129690594,
            -0.03885052458430416,
            0.0834076520136951,
            0.482253986449544,
            1.3114070742967294,
            0.9099776583651941,
            0.8357880008455945,
            -0.6091401558075755,
            0.5959894038821666,
            1.083329297914835,
            0.07322364289907807,
            -1.5012325965876538,
            1.238286521918197,
            -1.060184388205574,
            -1.0254373477023933,
            0.2528873552254904,
            -0.039815457473602024,
            -0.6893715906092645,
            -0.8989980185452945,
            -1.3043809692507584,
            -0.7063349585901264,
            -0.04542767474377401,
            0.13619079104468243,
            -1.4750281843552893,
            -0.8616821901071785,
            -0.6208651028699144,
            -1.1813999381420324,
            0.33375998144938246,
            -0.6616696272065076,
            -1.175641940414105,
            0.4414114766982155,
            0.5173374670036677,
            0.10536610718858079,
            0.8496429012992402,
            0.45622619198499503,
            0.34100515516911106,
            -0.844496707034559,
            -0.15142488741467292,
            -0.4654253039876504,
            -0.05743698541095629,
            -1.1226699558504905,
            0.603115840480582,
            0.10815265908391232,
            0.6505852773382046,
            0.4401228010255493,
            -0.15384871906932757,
            0.35854243785014944,
            0.8264991992705678,
            -1.4867696270540156,
            -0.29520557741345743,
            0.22652337417675192,
            -0.37116307893671907,
            -2.0252222031180542,
            -2.113969109859531,
            -0.41260276639841725,
            -0.37949078959421934,
            0.7097987295716441,
            0.00844752810133015,
            -0.5166307484046307,
            -1.1077328013037095,
            0.4947564699108057,
            0.3401995792542536,
            0.10264611938120183,
            -1.583092542039808,
            -0.8356194925203181,
            2.090478741942052,
            0.9430933645752537,
            -0.12509898807090766,
            1.5672349470505562,
            0.9064860961480793,
            0.28055699822899566,
            0.3899909750472162,
            0.8976103314961957,
            0.9087677486216411,
            -0.47248354321158403,
            1.403719946355207,
            1.2697494976898194,
            -0.20167049467535045,
            -0.243557818520175,
            1.3051693133110702,
            -0.6056820399654107,
            -1.3199107005522719,
            -0.39348158207531236,
            -0.5568321818895139,
            0.5197944687492917,
            0.3392095723019602,
            3.280190669260612,
            1.9094785951959603,
            1.0880057018470912,
            -0.10407594458176958,
            0.2639658787036265,
            -0.4458315000822059,
            -1.340035963080165,
            -0.35054150650147126,
            0.3381527209809969,
            -0.7590578186989019,
            0.1933717860821436,
            -0.29505881200597417,
            0.13955882980777012,
            0.15319539563082554,
            -1.2981300783701801,
            1.0093752888249123,
            1.0636247419049984,
            -0.2737493841360655,
            0.48351836326497855,
            1.6812653331931633,
            0.9207166945180251,
            0.9938011022123633,
            1.9395815424680802,
            1.3536036198771606,
            -0.5938957975503703,
            2.138994601819408,
            0.12118755576594765,
            -0.5249198356040368,
            0.8674998249711888,
            0.2023618801488176,
            0.5931058412629651,
            -0.5220424592883485,
            -0.6897984877217046,
            -0.16679414076380883,
            -0.23143651688658576,
            -0.8366986660776077,
            -0.013347261497278318,
            -0.4791157581239479,
            -0.18290377417223921,
            0.2875382920167193,
            1.563393568024861,
            1.8367239250492107,
            -0.050429744871148444,
            0.16134041597562562,
            -1.1037505188996994,
            0.9370523428798595,
            -0.255473915642452,
            0.474432521126912,
            -0.28029529422797045,
            2.256957003245776,
            0.3240070565161711,
            -1.4881464262154211,
            0.08314082317732761,
            -1.0200266611747486,
            0.9492591345602022,
            1.4631036264143737,
            0.08071470045446759,
            1.7133262045043443,
            0.7547217025652865,
            0.32907919669461544,
            0.2678442996728487,
            0.013671982962521805,
            0.3982441510166854,
            1.9236199013864377,
            -1.0715109110585752,
            -1.1457840774128256,
            0.6236220701816712,
            0.1966349731191026,
            0.006089366249586088,
            1.5875204454250407,
            0.5611507364189581,
            0.3764468873432885,
            0.6835215278993885,
            0.5786383370707376,
            -0.4358264734587616,
            0.5964294731480277,
            0.8149595532502636,
            1.3935650288083565,
            0.4169751889349322,
            -0.20401308614179264,
            -0.6709623589934863,
            -0.3074275620659658,
            0.11308787992982887,
            0.29603836912421977,
            2.2342395351706967,
            0.4129126778521193,
            0.10760261010850801,
            0.6135683931700634,
            0.6128155429873491,
            0.6062729818065452,
            1.6121097632752237,
            -0.9787699492226637,
            -0.6608443311058115,
            -0.3674159434160343,
            -2.087848421950797,
            -0.13525461767857958,
            -0.995022847291004,
            0.18405956206692284,
            -1.5361876355890767,
            1.0680869475097543,
            0.9411714846896658,
            0.5876412968416809,
            -1.3315465627088678,
            -1.0914921132420086,
            0.7853090130827448,
            2.059480811919219,
            1.3098892547686367,
            0.30225438886733275,
            -1.059396390076147,
            -1.7821021026249146,
            0.011826232632941774,
            -1.6165628359540696,
            0.03340542255326983,
            0.884449641960022,
            0.3611562023615849,
            -0.007298978695025444,
            0.7451399368659141,
            0.9662066449019215,
            0.5784705713791368,
            1.3516970593279485,
            0.8868573531971022,
            0.17318571290697882,
            -0.7117123260084549,
            -1.1087735089864046,
            1.2371352185692222,
            -0.9349094928004221,
            -0.7595827508554884,
            -0.5908457964122882,
            -0.6528426601598636,
            0.10983051341195624,
            -0.19587129316882526,
            1.6453292045216725,
            1.0137808213088357,
            1.7380070870453612,
            2.026845365524033,
            -0.4146718880043927,
            -0.456152315169236,
            1.8650310387406912,
            -0.2111750941720204,
            -0.9134512178663132,
            0.13665981459795035,
            -1.3194014775741485,
            -0.6681181741568903,
            -0.934135792602834,
            -0.17325508841820547,
            1.517174140974114,
            -0.19393284856372103,
            -1.1905058865176268,
            0.03565384967003648,
            -0.5272927830754087,
            0.4778149997901558,
            -1.4794737052031905,
            -1.930908807049235,
            0.28193339894451397,
            -1.6549978131571186,
            0.5349661176277883,
            0.39402380795057823,
            1.7552794057473944,
            0.7462052116869632,
            1.0258731871065092,
            1.344569573838175,
            2.446300598140336,
            -1.563907061877972,
            -1.2995963566904898,
            -1.6715260002810153,
            -2.7244232955390832,
            0.07500612475230567,
            -0.9476522400405256,
            0.9857621553017922,
            -0.8177624257740593,
            -0.36525945684187083,
            0.21120965556394408,
            -1.4452955003846935,
            0.13330440860655154,
            -0.8485964762585196,
            -1.8470069307428882,
            -1.3761529978924862,
            -1.3823998340381216,
            -0.1432827588674144,
            -1.444396186935994,
            -2.429260592344141,
            -0.18577595379285253,
            -0.6475187320162117,
            -0.03998254292122616,
            -0.02348897250102885,
            0.6965722407051467,
            0.8809361057551172,
            0.7595732216967485,
            0.8209049016136294,
            1.264193367201048,
            -0.3703397419693343,
            -1.3173417085266168,
            0.08950066283689458,
            1.1473240253656731,
            -0.824231442247653,
            -1.4484816012811237,
            0.9928778488842908,
            -0.49939553204452175,
            -1.2066472196590143,
            0.6046808754081859,
            -0.45181897801143617,
            0.9685951491417634,
            -0.0066912474401570506,
            0.9393467203975472,
            0.5305866565819809,
            -0.6342283763373611,
            0.22209118266687883,
            -0.5173107995394941,
            -0.9449055341841991,
            -1.9259426080594886,
            -0.843735421898508,
            -0.38021544126895207,
            2.0339568178695635,
            1.7386108092896655,
            2.3776863846966694,
            1.3237624790063072,
            0.725669748018038,
            -0.37238459193441176,
            -1.4002684409573325,
            -0.22567373470228277,
            0.05548643344595865,
            -0.44439088705625585,
            0.029864755498435484,
            0.7883712398049418,
            -1.3604985858005765,
            -0.9816753717866007,
            0.28157522418890074,
            0.946138627813991,
            -0.32998848341082476,
            0.12112686476770244,
            0.46806162476905183,
            -0.5928604933931078,
            -0.2863191274781848,
            -0.6979488312724367,
            -0.5044828404853927,
            -0.8018782506493037,
            -1.2708486579815694,
            1.4972385197339266,
            -0.5559068091300144,
            0.6864431460630532,
            0.5089160144776157,
            -0.07443736684607984,
            1.531612068739561,
            0.18454260800678518,
            -0.5947491483063618,
            -0.5916311956442094,
            -2.3392486699136135,
            -1.0671770165597179,
            -1.9818677686347284,
            -0.9161448470016349,
            0.35524964376243356,
            0.1073693666909837,
            -2.330949933984432,
            2.051084204143617,
            -2.111769591428013,
            0.27646536567382485,
            1.458232087324837,
            0.5083635293932711,
            2.0266551034460867,
            -0.7182102970203627,
            -0.07857733772707429,
            0.2748557091106137,
            -2.1707721797198425,
            -0.4733287865402328,
            -1.0922226561499224,
            -1.5110553708985432,
            -0.1220610815754702,
            -1.741230991166019,
            1.0663721569334785,
            0.2660635039976805,
            0.04762139412004967,
            0.28832645314550553,
            0.12692295299423859,
            -0.2411639565772544,
            0.03456831888628099,
            1.2838990992819332,
            -0.6882272046427923,
            -0.8615110763048008,
            0.6888873151442133,
            -2.209968356075743,
            -1.878297152446743,
            -0.9081268837252932,
            1.7687620738794108,
            1.0635709418740615,
            -0.4411938414146139,
            -1.9506443544298921,
            -0.7339561444649244,
            -0.6962606761601215,
            0.48571540080364045,
            -1.4628434172659206,
            -1.1235065211107642,
            -1.6393538132499865,
            -1.1704408612802815,
            -1.783061828596918,
            1.1005515190609945,
            1.2804655597861947,
            0.3965210237909191,
            -0.07002071473122379,
            1.5253541719849106,
            1.9720002841100321,
            -0.35019508743249794,
            -0.4023469398613865,
            -1.9351732639762789,
            0.7617170074816418,
            -0.5035155150760009,
            -0.012801153504332169,
            -1.081459367256521,
            -0.2311859076614212,
            -0.1287587824203281,
            0.8025929325385929,
            -0.3319429199476989,
            1.0699925115330293,
            -0.7177503303434842,
            -0.24838473235377606,
            0.6092287323393522,
            -0.11001564158303377,
            0.09269504497343758,
            -0.7241829527714698,
            -0.36460963848720496,
            0.2850896294895495,
            0.9616712183491325,
            -1.5393315484334127,
            0.4029294101705766,
            -0.35896786788430557,
            0.3563666342088375,
            0.33593443963324177,
            0.2621752237909343,
            -2.0644086551861967,
            -0.6687247572311178,
            1.7086734017177558,
            -0.31001472072923775,
            0.3136421737142859,
            -1.0483492102070875,
            -0.33675651661491773,
            -1.2522201547700083,
            0.6956924113414257,
            0.5304842513717724,
            -1.7856194957576925,
            -0.6602211859575273,
            0.5397808085983032,
            1.423459963966023,
            -0.021898554734704787,
            -0.33950495092802063,
            -0.48286451840453853,
            0.8562191258076574,
            -0.7036545277009475,
            0.06476789778479738,
            0.5540855098391531,
            -0.6299349657059614,
            -1.0927450220248938,
            -0.8588484487190224,
            -0.5384963483666697,
            0.4436538679039144,
            -0.3621183322254952,
            0.10630428298309037,
            0.624321548272763,
            -0.5261060083292995,
            0.7705837756315651,
            -0.7856457212948673,
            0.15489607211863088,
            1.178589669798457,
            0.532489259466876,
            1.2579616657143449,
            0.11034609802158818,
            0.7453936071959602,
            0.06674979332003521,
            -0.7628304534956266,
            0.018822886599192446,
            1.3297607136456773,
            0.33276416937997916,
            0.48384116636971986,
            1.1130961837567468,
            0.043711301904420095,
            -1.6585114679770416,
            -0.671502525248051,
            -1.480199139342968,
            -0.006992439917806904,
            -0.5352951265788786,
            0.888797814551475,
            0.26909260862307094,
            -1.6638474934537126,
            1.5088661252591014,
            -0.6164091850813029,
            -0.45851772128488066,
            -1.4423978591138091,
            0.41342802871689527,
            1.4516225748652727,
            -1.022559831583862,
            -0.1728104688887179,
            0.15491468348519166,
            -0.5907334400659604,
            1.1534427130473182,
            -1.3228856605920758,
            -0.10246551827637938,
            -0.015516473165333682,
            0.6751281928777773,
            -0.6108215751864228,
            -1.505520524142885,
            0.26649033433786656,
            -0.9729514208413442,
            -0.1394687795956665,
            -0.5700644691232807,
            1.6198778940421945,
            -0.4468896300526813,
            0.11252649764459756,
            -0.6450162474412754,
            1.040564183773646,
            -0.35518630181229666,
            0.6577575184271041,
            -0.2858551339790566,
            -1.2992421812993973,
            -1.8072221428540198,
            -0.8154540273563973,
            -1.8128909389227132,
            0.7465038331473429,
            -0.06621473184650108,
            0.9077126275023467,
            0.13942995266611363,
            0.0998323749942097,
            -0.4984934319760461,
            0.5656019903165194,
            -0.10543367856591405,
            0.5573460156802146,
            1.465965816486491,
            0.10230421964764243,
            -0.6207360093588988,
            0.9358753432451692,
            -1.3890597292519935,
            0.8445375987064602,
            -0.823325727295354,
            -1.3658298375071376,
            -1.3629047937834646,
            0.5926554746624102,
            0.24704876997730732,
            -0.7791505415425666,
            -0.5578896538389249,
            0.8985641220050911,
            0.4244013980606285,
            1.1997984493994238,
            -1.710401295479442,
            -0.9102403316039622,
            1.2287006624426258,
            0.21477503681597873,
            1.03638882869557,
            -1.0297524503418682,
            -0.6217121697264334,
            0.5087093559979895,
            -0.9215334510563947,
            -1.1814046716187374,
            0.33632791762943026,
            0.2586709980089298,
            -0.7722337352165893,
            -2.0661517441858623,
            -2.2523892746056924,
            0.2926365997725784,
            -1.7581248916763421,
            0.6101257945231356,
            1.0566177796505745,
            -0.5176637132421344,
            0.3465730045217243,
            0.714371851158957,
            0.7902757645767987,
            0.8804274206454071,
            -0.29100595473281937,
            -0.5647197858661913,
            0.37659281840533765,
            -0.07468743779454812,
            1.6143884544785523,
            0.6037191596190647,
            0.344399384412789,
            -2.1235960445660327,
            -1.1784599834460567,
            0.05656692730455376,
            0.18697414649507305,
            -2.2658722037630605,
            0.418552907372533,
            0.9183157572432237,
            0.8156583046421801,
            0.5862798099091717,
            -0.021660143363352823,
            1.1192563535670104,
            0.6530526106648763,
            0.3652382401438144,
            -0.40376704975746347,
            0.8398236600866837,
            -0.04687689763711157,
            0.8576574164641794,
            -0.5708019091383216,
            0.601269473853054,
            -0.17167376203314988,
            -0.7072913582857204,
            -1.0106471433563913,
            -0.2444422596089362,
            0.7764892412551274,
            -1.0387896571684003,
            -0.3786685970852219,
            -0.6382143097926233,
            -0.7906074597701056,
            -0.11887169851799262,
            -0.34224568722636006,
            0.8421005450708763,
            -1.0426909339799217,
            -0.16313024261751405,
            0.821918907079309,
            1.4216308373393742,
            -0.7809142737601543,
            0.4909297624608279,
            -0.09653446399764089,
            0.5971329914312623,
            2.540328985516205,
            0.1307253653433967,
            -0.03558524321559139,
            -1.634862458629618,
            1.2276624949578754,
            -0.27052639757515734,
            -1.3430370412568051,
            -1.4465791154920327,
            -0.4847984500053158,
            1.5792449304355904,
            0.916034351939535,
            -0.35016926166577067,
            0.8823135361172014,
            0.4134030346273625,
            0.6825588644280675,
            1.020178425265299,
            -0.16959410103016953,
            -0.0415076118792542,
            -2.1060845605453817,
            0.9289336465734537,
            -1.0734243622235229,
            0.6272385421619971,
            0.2339626428515238,
            -0.010197324889574344,
            -0.5163051338800372,
            1.58275950400371,
            -0.529495106098701,
            -1.1857436838301014,
            0.024179973447129407,
            0.317760406286106,
            -0.21590606602577672,
            1.6441178575000968,
            0.030504793105689373,
            1.191360658402674,
            -0.4038964356438006,
            -0.3210006724218426,
            1.9107277886774963,
            0.8269086949113544,
            1.4391874423142401,
            0.49697931828462816,
            0.23128996130152696,
            1.5377300347459377,
            -0.20964339968942694,
            1.633171465164713,
            -0.9836380706009227,
            -1.4509953333525507,
            -0.5687284161065421,
            -0.04262262414867169,
            -0.27528577746295707,
            -0.7950885545641339,
            -0.10174732766014993,
            -0.2181451662672847,
            0.37176723846998244,
            -0.35976372701311454,
            1.39874429919976,
            0.4866697371457436,
            0.4799628319058665,
            1.692653122897175,
            -0.4196381040793428,
            0.8124275815834678,
            -0.1761308258315017,
            0.3097202653180896,
            1.1113133932110386,
            0.9034603319240907,
            0.5365097788578757,
            -0.7500970759448522,
            -0.9237310643186902,
            0.9657292698584392,
            0.5803801687296067,
            0.8165409839190084,
            0.15074551022933871,
            -1.7586639589183355,
            -0.11374814804408229,
            -0.23849090957166424,
            3.0501277347502227,
            -2.1322469856790622,
            0.9021136492053248,
            0.6313713238524632,
            -1.480358467634347,
            1.7666126004565004,
            -0.10317634201168555,
            0.5453923552464512,
            -0.8943377579099672,
            0.5315264179297576,
            -0.43140312761578364,
            -0.8038906489676354,
            -0.8647162375711891,
            1.2364401999571606,
            0.520104288202468,
            1.4025740723750784,
            0.10324045583694769,
            -0.33221996973405565,
            1.4249015162468548,
            -1.5550170607115126,
            0.1467445345088059,
            1.1700708382527973,
            1.4499909523845986,
            -1.2905967504368676,
            0.6019627814006228,
            -0.32932149598516197,
            -1.2206794742683396,
            -0.5186649831410134,
            -0.44622246277637473,
            -0.8407313048902766,
            -1.154421743791886,
            -0.31332331528114915,
            -2.3043077057592822,
            1.132940088747074,
            0.7219015370130843,
            -0.26694469671018495,
            -0.15993983010740376,
            -0.9788119635853489,
            -0.7742872022054864,
            0.43011610982763204,
            -0.5041227641302215,
            1.1672083216738793,
            0.12106269824540224,
            1.300936882169659,
            0.08975397524440139,
            1.6050094451498966,
            -1.417393543661131,
            -0.737785169749252,
            0.2563271079386876,
            -1.4989582383541615,
            -0.842858595853358,
            0.6494139039949772,
            -0.7315629733257784,
            0.9652669707591454,
            0.27019689697771576,
            -0.27923153820279595,
            -0.518962201407043,
            0.729576955818475,
            -1.0680560345045242,
            1.8300924163126489,
            0.7856625692482864,
            -0.04651007201638549,
            0.30748428893839164,
            -2.391259826838351,
            -0.6097776554274167,
            0.962492527653954,
            -0.9746614785495884,
            -0.6058483753042705,
            0.1377037125397297,
            0.14952379149267261,
            -1.5850744272533894,
            1.034516303191141,
            1.050730757490541,
            -2.5876464340689873,
            0.16306367947009445,
            -0.38712049443498175,
            -2.135579696567378,
            -1.1499575322691613,
            -0.6622230588315854,
            -0.09955222572051926,
            -0.8326923188122126,
            2.1271275549291904,
            0.9120805127462972,
            0.807730935120816,
            -0.45405835989349086,
            1.4529861875640968,
            -0.48113451795092826,
            -0.42422527526990067,
            -0.7088131693797507,
            -1.5679993237706649,
            0.4670571305850306,
            1.255728971031546,
            -0.11947887193260344,
            -0.21045074491034668,
            1.2734687401003901,
            0.3893737505285875,
            0.6863590212277908,
            0.5635550195785187,
            -1.8827863933927698,
            0.4212728931765034,
            -1.6778961532590702,
            -0.47482913522633063,
            -0.07734691191229287,
            -0.6715062585321147,
            -0.0021890383272701484,
            -0.62157720004953,
            0.5386946982041968,
            -0.44504721407165393,
            0.11429853435891943,
            2.1041415522059443,
            -0.135295873895345,
            0.8920755778849826,
            -0.08010175760320502,
            -0.9988940223724785,
            -0.9539553356047769,
            -0.33481492249513023,
            -0.6964577291857489,
            -0.3310130967111726,
            -0.7221751774736569,
            -1.1275866471425222,
            1.5870388756818232,
            -0.14469547190111398,
            -1.2118508142460318,
            0.7577771438758057,
            0.6055639515816694,
            -1.5911822269694813,
            1.1526757542163306,
            -0.09957196810071865,
            -0.2538395279898232,
            -2.8315123596732277,
            -0.04920626289664304,
            0.2298766382948333,
            -1.3897520231960916,
            -3.3226072482714675,
            -0.9832063196731712,
            0.8120720340015954,
            1.2636885910737246,
            -0.37476872481590373,
            2.5048491684950442,
            0.6315214411161393,
            0.18794434097363585,
            -0.29774292112062317,
            0.1086977318623957,
            0.36217220075248074,
            -0.7250126834965762,
            -0.34495223779295436,
            0.05634744573247034,
            2.0365332992234495,
            0.7961165194080936,
            0.5847940924125975,
            -0.6232227984915493,
            -0.9447136777083383,
            -0.9423220565131228,
            -0.5344239423627685,
            -1.6770351037445863,
            0.27717390768561745,
            -0.2165670109202142,
            -1.4960472921471313,
            -1.0005103606607053,
            1.9107891139561146,
            0.016667328286387034,
            -0.3923582814865307,
            -1.0382882288297777,
            -1.225019915395853,
            -0.5585096296053512,
            0.3312575574228521,
            1.2655754289222443,
            0.12585872038670745,
            -1.2285093741222963,
            0.13784665212118388,
            -0.7855366805089676,
            -0.2508575073095813,
            -1.888932044463238,
            1.4374776275601675,
            -0.5690959190508021,
            -1.1567333454004884,
            0.8696526536158996,
            0.5723998552106625,
            0.020539672081542833,
            1.0802801374079045,
            -0.2727620470349779,
            0.779681189697169,
            0.21968111506821722,
            -0.8496987527722704,
            -1.5160283450395653,
            0.6178104514721661,
            -1.1673055546113804,
            -0.5722742896095524,
            -1.1842625869196721,
            -0.189285522074247,
            1.958277153507651,
            -0.7651075645678677,
            0.05210567228916793,
            -0.22847811779342383,
            0.6140740229762406,
            -0.6498461196234386,
            0.367472764726545,
            -1.124842466802357,
            1.0132065596005548,
            0.9513666822995764,
            0.40960114381695123,
            -1.0204819247184296,
            0.015313376193673983,
            0.8085106438314542,
            0.5326508397511108,
            -0.23128245689591986,
            0.7967251541760983,
            -0.8645423808156609,
            0.39575571999196496,
            -1.1723487136901083,
            -1.246681255417639,
            1.4746958960971515,
            -1.0793225811340639,
            0.09863615646363094,
            0.19923013191940503,
            0.21395672551945918,
            0.5690993837689899,
            0.581850390033704,
            -1.104767966400083,
            3.110680427220927,
            1.2272068680864123,
            -0.6179165680861581,
            0.6177674887361001,
            1.1961629955013413,
            0.22424095828430196,
            0.11544961036361653,
            -0.8352734879154389,
            -0.023681440802018013,
            -0.784176771798314,
            1.1333219079036574,
            -1.2310660775556816,
            0.13309627616506584,
            -1.2033097472080683,
            -0.07948549745886653,
            1.0741261893929355,
            -0.9485124090619442,
            0.12305079140513887,
            -0.3772062369606875,
            0.7618540337265592,
            0.5460753356302109,
            0.6270625569675722,
            0.22068989147170892,
            -0.3850517769769209,
            -0.3845684588710788,
            -0.8153730316726114,
            -0.7009983716455982,
            1.8735307209135228,
            0.19513361799511905,
            0.550077573128923,
            -0.28855151186644556,
            -0.13307777391349387,
            -1.7186739568457996,
            0.06747987315437645,
            0.07232290142848553,
            -0.3514466052218671,
            -1.688442887056691,
            -0.10785665583842079,
            0.43039192557880096,
            0.457581681712,
            -1.0784437105803604,
            0.42131540567563197,
            -0.5862786195532125,
            0.27953292179651285,
            0.6514911726073713,
            0.25844892081728726,
            1.1244172373043688,
            0.0457904130985004,
            -0.03741041693209411,
            1.4828806671345587,
            0.18591904758756736,
            0.4822320358406439,
            0.6955417597469968,
            2.0801293872296207,
            0.9257115043808457,
            1.3754885937207022,
            1.2152355259541896,
            -0.6570177515534661,
            -0.15377301610951857,
            -0.3541807690464495,
            -0.17785074128691455,
            -0.7012733229234076,
            0.11596131248889938,
            0.7793048655374969,
            0.48491941937715244,
            -0.5306766193990868,
            -1.432952202995046,
            -0.8175353767784694,
            0.8324121793104895,
            -1.594081088684893,
            -0.6087418724025195,
            -0.7358208973977984,
            0.03440771800626552,
            0.604247414223657,
            -0.09351130503881318,
            0.07113813567669948,
            0.4351861590115332,
            0.24718673695295718,
            -0.08420518634036706,
            0.4910337338363812,
            1.7611300862702541,
            0.9449436156139357,
            0.6539941287855747,
            -0.5890816231780439,
            0.901215177697263,
            1.6382344619888036,
            -2.591145912278346,
            0.14453131239337486,
            0.7278069468929868,
            0.1586401159514842,
            -0.7135718032633578,
            -0.09954909217043294,
            -1.2513812346069475,
            0.2967913142068696,
            -1.3122120761974472,
            0.06282690224479089,
            0.013733891189355068,
            0.03488979810811933,
            -0.4395293381190662,
            1.1778128663418401,
            -1.8936643089854581,
            -0.3842905165489886,
            0.4355465688635245,
            1.3485967494396403,
            -0.8628513517831659,
            1.7595623131986404,
            -0.28864971278961127,
            1.5226533713641226,
            0.6496106119073773,
            2.530993911907076,
            0.6379897479915873,
            -1.577101008553353,
            -0.5387249159519792,
            -1.0292594703827922,
            -1.4631340270390931,
            -0.7651251376246994,
            -0.4596839439304588,
            1.6117450919349077,
            0.028377873184058426,
            1.266555539067338,
            0.7491651222743696,
            0.6594212222363006,
            0.3151999644684481,
            1.2119944218362193,
            0.7908398907666581,
            1.7831926476168443,
            -1.2484469721064557,
            0.1012819092443095,
            0.6543932607438643,
            0.6977855191865115,
            0.6030076639774284,
            0.5415751096417663,
            0.734126968958067,
            1.304844060461326,
            0.5819757657334504,
            0.2762983223080386,
            0.7537441870182221,
            0.9205420214223035,
            0.48091863479921976,
            0.38235935126333537,
            -0.03754755723701387,
            -0.7029492346588302,
            -0.5330799550076567,
            0.4846528973118542,
            0.08446614513996206,
            -0.07796075727426507,
            -0.30818836030738445,
            1.866465031896632,
            0.5624439469707805,
            -0.18431700335123405,
            0.0020687198062726707,
            -0.23842569405428596,
            -0.4072583935611844,
            0.04936968858685845,
            -0.9786332507438187,
            0.9862892221993589,
            0.5137033613721014,
            1.597006106651364,
            -0.7861267377190585,
            0.8383736894570663,
            -0.0436619182617639,
            -1.6432465290921263,
            -0.007183785629739304,
            1.337622603842612,
            -1.1750394007571676,
            0.4455496069058129,
            1.3096581094579982,
            -0.6047039517012633,
            0.837763831169686,
            -1.0427438183362758,
            0.08182889147249643,
            0.5149900939005707,
            0.9176235459741687,
            0.06713468895807956,
            0.019730570524107472,
            0.5061458978301709,
            0.5829763709708976,
            -0.8656220756766235,
            1.141704026596883,
            -0.14820993804457824,
            0.3016051750535641,
            0.33508495707469665,
            -0.534323122028431,
            -0.1677849818360039,
            -1.2414132190172744,
            -1.0321092293644651,
            -1.1382483676441335,
            -0.34922910893090436,
            -1.1399615281548194,
            0.29014610596712365,
            0.9537640154302661,
            0.7331792591441976,
            -0.37784761663317756,
            -0.15735126313258113,
            1.4348371301291734,
            -0.12639309261239534,
            -0.2721331593140555,
            -0.2952847795893375,
            -0.15096131376314736,
            1.7406868638214372,
            0.17644272601756766,
            1.8297584281949213,
            0.13945247138362332,
            0.572721705982647,
            -0.49045301876645525,
            1.4926772121607,
            2.2624649976916844,
            0.3582705948775023,
            1.3089383142800712,
            2.157577338958385,
            -0.6890715138020125,
            0.05522063429041769,
            1.033897676348572,
            0.4010634774799405,
            1.1975050851869657,
            1.0303528470027723,
            -0.047352308165487814,
            -1.1113774651077046,
            -1.2491472757773805,
            0.6252900471106347,
            -1.0189171392492677,
            -0.5692730822372598,
            -0.34652108341764537,
            -0.7354457765034558,
            0.5683967392938292,
            -0.9345841990027807,
            0.17155401200765436,
            0.8574227707050363,
            0.61481841081754,
            0.9835163914815479,
            0.5090026567189304,
            2.997074363099984,
            -0.32563916114075697,
            -0.5451950215308661,
            -1.2517045733942873,
            0.8486562929058201,
            1.5864707480073779,
            -0.36946182220734924,
            -1.2312767207084923,
            -0.03521484474189324,
            0.8019464229524336,
            -0.5158623806791097,
            -0.6733947037483665,
            -0.30546133330604136,
            0.500253264674595,
            -0.7045696044718525,
            -0.5848191660572143,
            -2.127112833099911,
            -1.437627630234237,
            0.015841953135229937,
            -0.3410141062670776,
            0.7804455313693855,
            0.4573648399228747,
            1.7098196670381687,
            0.9313961859417601,
            -0.4333596224178265,
            0.3841770116199149,
            0.6960613376808306,
            -0.6005195720535568,
            0.902781766118152,
            1.041295234863267,
            0.018274375832509546,
            -1.4735672369121988,
            0.12201597746891461,
            0.8292077146784277,
            -0.6161904315067007,
            0.38712814821492864,
            0.6139311329769123,
            -0.382202469891281,
            -0.34917902236603604,
            -0.04673860687980268,
            -0.170149782209401,
            0.4800514704854492,
            0.4522465712372113,
            -0.029174678016551832,
            0.03129305216411274,
            0.4495182414191122,
            -2.773675489463568,
            -0.30147159143068636,
            -1.1191590308914545,
            -0.9307138049034164,
            -0.48403553217739675,
            0.19094909111636207,
            -0.765725959324231,
            0.35709955281112105,
            -1.010966144508681,
            -0.546876535377251,
            -1.8022333102948125,
            -1.0296782279768708,
            0.26170042116844827,
            -0.6841806125418283,
            1.1099993618200643,
            1.4144225292169867,
            0.8745206199754773,
            0.49789127055369786,
            1.1853761718930704,
            -0.4493978860239595,
            1.2363731261919064,
            2.201229371176067,
            -0.7363135917689735,
            0.13939372623701632,
            -1.6804383740260227,
            -0.4169859737726627,
            -3.6050855943173223,
            0.5608287550888346,
            0.7059379990263573,
            -1.498358127362787,
            -0.9647679661555493,
            -1.168910112259099,
            -0.34096698360169947,
            -1.6740267944168252,
            -1.4469215403999656,
            -0.2909918494057388,
            -1.7879531210926534,
            -0.8166349853234264,
            -1.882599871422762,
            -0.11959445443398821,
            -1.2663266484169533,
            -0.7262159206854479,
            -0.48640091189653645,
            0.30190574998603026,
            -1.0571440021803784,
            -0.5167105253130656,
            0.7872424709549254,
            -1.183645129438804,
            0.4252791926579893,
            0.7506332480802468,
            -0.6181792412333968,
            0.9127043612989728,
            -0.09108647982328194,
            -0.4385007312299161,
            1.6599834345011986,
            -0.03704116847556655,
            -2.4751164958845977,
            0.6902188205957581,
            -0.3880738192555852,
            0.6084919552924113,
            -2.047288231930402,
            -1.2166252265492752,
            -0.7218146238242791,
            -1.2199551105154824,
            -1.044623274067924,
            -2.1082798301365497,
            -1.9019942736457423,
            0.25218344672913057,
            -1.1579337382345016,
            0.5068481503652993,
            -1.817997034279486,
            -0.549237412938455,
            -0.7907037890457045,
            0.47222797959902485,
            -0.42421305528747366,
            0.9540378846061013,
            0.40446894832350494,
            -0.15108080729222664,
            -2.5455751993863234,
            -1.1732650479455247,
            0.9199730228413019,
            1.2775642832060004,
            -0.31851736263088604,
            1.251485199172187,
            0.35781434387209676,
            0.32966568214452097,
            -0.23921029673959043,
            -1.1268087900709234,
            -0.15988894144954927,
            -0.06834758516326632,
            -0.5404528876145795,
            -0.07558623152073386,
            0.21801132920056795,
            -1.7168709971387572,
            2.5116794556896624,
            0.9464346115838611,
            0.8836031588472295,
            -0.125874459567017,
            -0.6486482101451833,
            -0.07222027992719829,
            -1.4552048933213637,
            0.714249907475105,
            -0.15839956654178808,
            -0.6382492626726651,
            1.3991415198904738,
            -0.5727650725673602,
            -0.007553173788502415,
            0.7525275358331692,
            -1.4535268195978328,
            0.6732588050031141,
            -1.201168491847692,
            0.4282314814339701,
