{
    "layer0": {
        "weights": [
            0.0339245100769397,
            1.2718299440057481,
            1.151543324308154,
            0.7448740870358741,
            -0.18100672585013441,
            0.1082149354862992,
            -0.5411425421337578,
            -0.12715811776402877,
            0.8595673868130784,
            0.6282392368455236,
            1.3527011483896831,
            0.09697153586982822,
            -0.5365582132077436,
            0.34952009097654274,
            -1.6395704968774394,
            1.648159022573125,
            -1.4203667771372417,
            -0.6445649856710582,
            -0.588100611156128,
            -1.7813266530764338,
            -2.154500628294087,
            0.36381535592071934,
            1.4906229742855936,
            0.24828804433958265,
            -0.49640242035824966,
            -1.027221548553691,
            0.7231100203815032,
            0.06945525097458144,
            -0.2816312748773323,
            0.7361793590349863,
            1.112976710648753,
            0.0724352932510862,
            1.133838875337967,
            -0.9762718693801079,
            -0.14147260516610166,
            -0.819907406074843,
            -0.23484581376060903,
            0.0810389204288101,
            -1.0333085943053757,
            -0.5223977207833891,
            -0.5707498794907491,
            0.38206658576617125,
            -2.0279141792478748,
            1.0464210844951753,
            -1.3755630746891845,
            0.46687616955073663,
            1.4064488044209034,
            -0.608864984922069,
            0.5304152582263024,
            1.2166319502152914,
            0.8099691805273935,
            0.45874802859416314,
            0.3554853373257493,
            1.8776136914505352,
            -0.32997404514061657,
            -1.9756230400859582,
            0.8614879356928675,
            1.3719029203610262,
            0.7216328106330606,
            -1.285707723974442,
            -0.4045614480249433,
            0.6929907939647174,
            0.062397980794801654,
            2.109774624844392,
            -0.4720822138695911,
            -0.9366353705226549,
            -1.4180515707413381,
            2.0071078165048406,
            -0.9915784357432363,
            0.054783344371378905,
            -0.14005979576552885,
            -1.9324643817871088,
            0.3732367034603983,
            0.20500543034228494,
            1.1910476579122622,
            -1.0799530441018133,
            -1.1958617804567717,
            0.0927078465310897,
            -2.2431328714031196,
            -1.190262645141011,
            0.6378085420106222,
            0.2969875189513755,
            -1.802576639060105,
            -0.6753194232956077,
            0.403869203395414,
            -0.5033628482066764,
            -0.2393106713678014,
            -1.5426836248996814,
            -0.23953676507364066,
            0.815621039114182,
            0.1815394230990525,
            -1.0657713940121887,
            -0.7724851719915234,
            -0.832844863303908,
            -0.6472281630791893,
            -2.329124539631255,
            0.17481444827378478,
            -1.7979107426196985,
            -0.9749344943201969,
            -0.2386266385218056,
            -2.542924738969585,
            -0.7481821825056493,
            0.03769565597399379,
            -0.5755853455031598,
            1.6290340953939013,
            0.9573626443560004,
            1.370957952508391,
            -2.475140569243361,
            1.2198259229715651,
            -1.062158594145216,
            -0.05147088424325236,
            -0.5826950246566699,
            0.8475829471612978,
            0.9534938687229695,
            -0.3721280355659132,
            1.0170003552962124,
            1.5748135121310098,
            -0.1412706794717302,
            1.5438881655533525,
            -0.25784824963851843,
            -1.8738949061600978,
            -0.9633441703550747,
            0.30928842044094546,
            -0.44143704164559916,
            -0.6254019336217765,
            -2.0573625485327125,
            -0.058463578517365264,
            -1.7240872751903438,
            0.6920910345418652,
            -1.2179925762211525,
            -0.1682640189791591,
            -0.5451281134051971,
            0.07589201264360963,
            -0.4884313131206683,
            -0.26733803466488043,
            0.6129446661863526,
            -0.6883994980820601,
            0.3074476340764973,
            -0.5058749896953452,
            0.9023601948105221,
            0.9383526946644662,
            0.4013548578988831,
            -1.1701158480175797,
            -1.417744636788699,
            -0.6012534167908573,
            1.8420821858113916,
            0.9974653908704575,
            2.7449770818907036,
            -0.1824758567666784,
            -1.81244722451285,
            -1.123952345994792,
            -0.5485193509652694,
            2.0397211578956838,
            -0.3679434069416665,
            -0.045086869500175965,
            0.3296740854743618,
            0.6144462333611539,
            -1.0124139407230148,
            -0.0926679667571194,
            0.892530781826149,
            -1.3694259282981325,
            1.1727570468514696,
            -1.104499323457663,
            0.1246939571962224,
            -0.16642831202950034,
            1.1702855068877862,
            -0.7727482619483255,
            -0.4295603903979368,
            1.2781968126160161,
            2.044034020372197,
            -1.557102735338231,
            -0.7252487776785963,
            0.8323303244709419,
            -0.9603967103825344,
            -0.25433743831711064,
            0.5407126471957896,
            -0.2979976224065411,
            0.5500860407355694,
            -0.9116134189076606,
            -0.4596585792206451,
            0.07878749301856176,
            -0.5940020177262216,
            -0.08754753550608324,
            -1.4328772873637634,
            -1.1129113830129473,
            -0.8111206065780098,
            -0.6620763753303714,
            -0.2108452149995636,
            0.5244880717079163,
            -0.4009168130317304,
            1.1826229148619802,
            1.3879964944393557,
            1.058339621034455,
            1.666284344119359,
            0.0029536897103773245,
            -0.1981787639418698,
            0.30369484147585046,
            1.2599087742839719,
            -0.6398300565042442,
            -1.1011264725206547,
            1.462972084536334,
            -0.679296371646673,
            0.07502374549524349,
            -0.07667644943613221,
            0.38468418220953493,
            -0.24543935587952473,
            -0.2921558116398648,
            0.10296647289673333,
            1.637583050820321,
            -0.024218593719292983,
            0.7213767597881847,
            0.23158306404128165,
            -1.0820210613092545,
            -1.3415977263766412,
            0.5852433523123538,
            1.1849201513985212,
            -0.4452980377260651,
            0.3741662078240632,
            0.162955141093159,
            -0.24711741348680574,
            0.7921324600575753,
            -0.06665142056289386,
            1.2533683583570712,
            0.15152738606496097,
            0.4607922018323748,
            -1.8205677961827733,
            1.2253252483812964,
            -1.2521009014160813,
            1.8235820017793767,
            -1.138132165341338,
            -0.893253377878402,
            1.3971843381855023,
            0.21106558155325233,
            1.3159043766263416,
            0.45541190757850236,
            0.2923233221750095,
            -0.054746985713409434,
            0.34613073821357815,
            -1.3201623165023157,
            -0.3080065685662488,
            -2.3184515363233196,
            -0.5798341762422167,
            -0.09106309987259366,
            1.541042888908595,
            -0.3570590926732598,
            1.825348509034779,
            -0.5846346635147573,
            1.9195012701083662,
            0.3841913946971169,
            0.7276686238207504,
            -0.6177570008811369,
            0.36834728583460646,
            1.3817550968020655,
            -0.8333237923956717,
            1.2796692601924171,
            -0.1263262524147755,
            0.7846750533697697,
            -0.18137892209049536,
            0.4298995507800457,
            -0.47655163894532054,
            -1.652533033933562,
            2.370297326743805,
            1.1928075336513122,
            0.04918751372405616,
            0.630849127582707,
            1.6944806037849427,
            1.670457473317268,
            1.1184153107517183,
            -0.5265215211545256,
            1.7403658361423688,
            1.8785893053655485,
            1.6962508882084923,
            2.1623801770891746,
            0.6771859246423375,
            -0.5464402034990599,
            0.5642377160625036,
            1.2217611539792972,
            1.2577456021562456,
            0.7478017486401778,
            -0.5445672416717717,
            1.1164602437530358,
            -0.6741506083700176,
            -0.6414729411308931,
            0.4880028554471537,
            -0.9752831142141082,
            1.296809395859858,
            1.022406420687749,
            1.2480000227956465,
            -0.11242800548197471,
            -0.7528318567887173,
            0.8187266978672355,
            -0.6646774932884008,
            0.4213340594876789,
            -0.8062366083038637,
            -0.4699382480806976,
            -0.6907439747790199,
            -1.3987629677251312,
            0.739865589570052,
            3.6385112267422848,
            -0.08633850744758967,
            1.1108124155738328,
            -0.8628669701284251,
            1.1898070169879411,
            0.5744294406053881,
            1.0312373265634884,
            -0.17129359818725337,
            2.1853548606772684,
            1.1601219250174155,
            -0.12671101765029358,
            0.29502351393039256,
            -0.48750033374876467,
            -0.6035501191807044,
            0.48010845954831394,
            0.5198341368244497,
            -0.9725093143880487,
            0.4335341717451021,
            -0.14009682321936737,
            -0.46688826540557465,
            -0.11339608202280609,
            1.4247061933690586,
            0.5079179207469426,
            1.8875468388014778,
            0.31764002812899,
            -1.895682818639882,
            -3.5715272697531963,
            0.014826816551191072,
            0.9209999446546654,
            -0.5927121333499915,
            1.4652554643868048,
            -0.3074282312838634,
            0.684149723036344,
            1.2216500402807409,
            1.1370857179525615,
            -0.2352274802993118,
            0.06681465817091958,
            0.5460901323076275,
            0.3231112398157668,
            0.2336159207628174,
            0.5039178565585661,
            1.0421500733407556,
            -0.7329359561852425,
            -0.47731150932103067,
            -0.22290922009849326,
            -0.6111866537097824,
            0.43283536461793937,
            -0.05638944203461379,
            1.0460442456527004,
            0.35901981311477776,
            0.1236307214508207,
            1.837902228823443,
            -0.4735727972769252,
            -1.442752756030602,
            -3.149072809589434,
            0.16121006073448552,
            2.5105147539782946,
            0.758402929230717,
            -1.0884288004124414,
            0.8609685256427742,
            0.29314661012997306,
            0.5862419404803396,
            0.5871894816676582,
            -0.30292079888192175,
            1.9610828026462623,
            -0.6546729487233874,
            0.16351001779302446,
            -0.5928884451044059,
            0.5687124359728404,
            0.4070814334743498,
            -0.833209223231637,
            0.9858851606917557,
            0.31105739432035556,
            0.7807434252814562,
            1.0382120571729012,
            0.8034640882379755,
            0.49748393072462194,
            0.6082227927649244,
            0.964077085347938,
            0.8134769503835961,
            0.3154968521375972,
            -2.7118338255118424,
            -2.205857288988262,
            -0.13889904202488976,
            -0.06979886600616647,
            1.23029240809226,
            -0.7123658302431215,
            0.627488183030074,
            0.522052052311478,
            0.6802130676446552,
            -0.15193911260841758,
            -0.6426133250205496,
            1.1103016808886192,
            1.0474974035392037,
            0.21595355174425687,
            -1.1133208786900304,
            1.3228351069843851,
            0.22215051114494047,
            0.72663442627428,
            0.13799345958779818,
            1.3473104599713954,
            0.632046586480054,
            -0.08577875207878174,
            -0.17362002465577436,
            0.5060582823197487,
            0.40535509117102275,
            0.5503106237510024,
            -0.11350416674476933,
            0.9387933731831485,
            -2.239954429547405,
            -2.3861193289201985,
            -0.36988907250605507,
            0.4774795944352138,
            -0.007924141168279681,
            -0.03609392808463608,
            0.3502820956945474,
            0.389079157685458,
            -0.10683075448247445,
            0.5551987444905816,
            -1.0865459174181906,
            -0.8919530981904245,
            0.6539685288823518,
            -2.0413210916273403,
            1.29246539143041,
            0.7973379950533012,
            0.15070280623718527,
            0.7810033264194426,
            0.7654727425362113,
            -0.03052759131944596,
            -1.1777072917532354,
            1.4028604115060435,
            0.46218874159303464,
            -0.07089296731898434,
            0.2682754825662641,
            0.42588098195778373,
            0.13020436709074495,
            -0.8392225711986735,
            -1.123120626464918,
            -2.709033617051909,
            -1.0698466721867046,
            -0.3504666083891861,
            -0.36690970658742683,
            -0.23904119729455786,
            0.7933860827366442,
            -0.6554035123656919,
            0.25955307832659774,
            1.8626655401584256,
            0.9722608213210302,
            -0.1129796834012741,
            -0.9489911383036648,
            -0.5240658575709334,
            0.35254686981647837,
            -0.7780460818730076,
            -0.21509909578160077,
            1.985110238449382,
            -0.40383978788784153,
            -1.529560431338465,
            -0.26941143397128114,
            -0.19758760019757218,
            -0.3428817189597933,
            -1.1808871320528196,
            -0.45718857524472245,
            2.0110253510774765,
            0.3255890604533147,
            -0.30881126577463003,
            -1.2005892705609207,
            1.3878906640963278,
            -2.2409095065192632,
            1.3630812293481855,
            -0.5673396585522223,
            1.5474410817673385,
            -1.0897980304764647,
            0.5835206965046619,
            0.11340645582919448,
            0.8832614022939089,
            -0.06739802849151275,
            -0.47306565442254245,
            1.0470499945579474,
            -0.15818767979898554,
            -0.8281957428348092,
            0.9997739756532883,
            0.6140192751348916,
            1.6558430974961045,
            1.6449153093148452,
            1.195393733535402,
            -0.7034497428691222,
            0.26510075805140376,
            0.44813299324232553,
            0.49266233347639077,
            0.4281378521074414,
            0.32501149074594027,
            -1.178664638955696,
            0.32860497833169,
            -0.3822060555908736,
            -2.6366519058168505,
            0.3011337235146978,
            0.21817524067655564,
            0.27112407893889356,
            1.6013217491042653,
            -0.1974833974934025,
            -0.8815539721139963,
            -1.0269782157906053,
            0.4681321932859479,
            -1.2961292872998496,
            0.8257538696677055,
            0.22086571784673337,
            -0.03886370147566766,
            -0.3071782457431276,
            2.726258559128534,
            -0.6083247780804827,
            -0.2505452483473177,
            -0.023878541417457034,
            -0.24790045143343772,
            -1.28784370691491,
            -0.9207520085206936,
            -0.73363914180427,
            1.2244825727860251,
            -0.8044164519788407,
            -0.045151080847173154,
            -0.6022696293325304,
            -1.273263258414866,
            -0.4414051565336677,
            -0.18228399465521747,
            0.13527919675587388,
            -0.7247089860661186,
            -1.2432725348826605,
            -0.8430626342805697,
            0.28524513056765843,
            0.6612808415354844,
            1.0719433827473888,
            -0.6671536082322808,
            1.0186812758896808,
            -2.6145265933189643,
            -0.970778611154658,
            -1.6783761080377904,
            -1.44633957927307,
            0.21901439649800683,
            -0.8141979720350768,
            -1.1557384858899782,
            -0.8173927422964924,
            0.01077428106331469,
            -0.3138574911324336,
            -0.8632598348475772,
            -0.5688399908107473,
            0.09676311306590625,
            -0.6713129635710997,
            0.009208326287489167,
            -1.2614296829867981,
            -0.19808510179634833,
            0.7487012804146835,
            -0.8754137198712594,
            -3.0180875905064144,
            0.059580929568247246,
            -0.9743619067828287,
            0.04321911875767488,
            -0.0850741143125073,
            -1.5603282446819795,
            -0.463949180404379,
            -0.7888665665928688,
            0.6979684245544323,
            2.3170555395409993,
            0.6704156039866408,
            -1.3481079426234472,
            0.24501479168635218,
            2.1554486537723077,
            0.8890852200171867,
            0.5184223650687558,
            -0.36494471410971707,
            -0.8942441083003542,
            -2.050391006913437,
            -0.1598821630364747,
            -0.21948980083094147,
            0.8600268981595178,
            -0.5817272623715316,
            1.4476217933241724,
            -0.05498089989020738,
            -0.5693128713640659,
            -0.014812192601476792,
            -0.5041675528674189,
            0.1993811103007522,
            -0.9201778092608982,
            -0.5891244036116661,
            0.5201489848074324,
            -0.845086050094028,
            -0.17520561822472586,
            -1.2201041193546196,
            -1.6547855684065833,
            0.9361424618426252,
            -0.6265992582807687,
            0.4153817568096764,
            -1.5966115356042312,
            1.5366652295488075,
            -1.8154374139514444,
            0.8247410192862662,
            0.2764267025703305,
            -0.16941040540271718,
            -1.159225194291426,
            -0.027728738195618937,
            0.019844462968517607,
            -0.16294143118771667,
            2.108230766560649,
            -0.21798513506114636,
            1.3325994455549568,
            -2.064336248317441,
            0.4521198850392217,
            0.6630992166822859,
            -0.21897818850512138,
            -1.4178622383809116,
            0.6797989851099031,
            -0.8417549427570068,
            0.5599304436735297,
            -0.5983258655673304,
            1.418269210737464,
            0.04044483245417381,
            0.03435773896663169,
            -0.027294060834047274,
            0.8041998306790562,
            1.7295960289426173,
            -0.394819641770596,
            -0.06117708638143577,
            0.724403673378817,
            0.1278060581007029,
            -1.6987784754015804,
            -1.119963809276061,
            -1.1081016198960865,
            0.46976836602643174,
            -0.08917453797627165,
            1.3103427588685814,
            -1.176291267907257,
            0.22974672424746193,
            0.6669534288165606,
            0.47201359181590197,
            0.6666072363717986,
            -0.7017916704113423,
            0.31779568520669227,
            -1.2180061151926014,
            -0.03449926384931886,
            -1.3036713834033509,
            -0.6817390233916755,
            0.00249116604470064,
            -0.08738092345906423,
            0.18140537954531055,
            -0.3572732176075961,
            0.8339950940296187,
            0.47373844633944384,
            0.6152502922217236,
            0.8602147888466942,
            0.2859876809016606,
            0.30410080366887965,
            0.22316606112993972,
            1.068010278786386,
            -0.24783631107097562,
            1.4798285061810315,
            -0.7928181828243901,
            1.2428947818668648,
            1.2838469691384042,
            0.9154326712184295,
            1.7890609383338894,
            0.325464631165507,
            0.25653445193640784,
            -0.7533976718906433,
            0.6823638345545867,
            -0.4416215825036644,
            -0.9517485896650526,
            0.6084640300337337,
            -0.8668026662366018,
            -1.1496468970838356,
            -0.550027684541378,
            -0.6240593931808515,
            -0.5811440331030948,
            -0.933475040367018,
            -0.7103878562453584,
            0.5069460181263797,
            0.4915324027771766,
            -1.252879020103638,
            0.22564584203189256,
            0.7711150552704015,
            -0.5216638401777091,
            -0.704378395037776,
            -1.421046619190847,
            -0.6139903340013239,
            0.2589072097619733,
            -0.37844306610852585,
            -0.5270211300461581,
            -0.8691141317968277,
            0.5062363283979694,
            0.6408720937323317,
            -0.9266052019227479,
            -0.5334075397407745,
            0.39907257882303016,
            0.0064758525884677206,
            -1.1387535122909407,
            -0.9924989877386629,
            -1.9692635191540873,
            -0.6619191106893939,
            0.7766946758800233,
            -0.6897106672789011,
            0.8716198590001616,
            0.5144426425316646,
            -0.30985270824068506,
            -1.4112895276647441,
            -0.382521600874588,
            -0.7192148847459541,
            1.3940797407751504,
            0.6692680868629286,
            0.45440523836952723,
            -0.7139929892211163,
            0.7026895891512837,
            -1.283247580937302,
            -0.05546027694390137,
            -1.7675873877918942,
            0.6500581675394678,
            -2.0638167136948216,
            -1.4789809708469766,
            -2.609381361533985,
            -1.0113153251929818,
            -2.138069369174711,
            -0.3210161657165042,
            -1.0293350246661077,
            -0.14194350429504304,
            -1.0475433676989816,
            0.4607473387014552,
            -0.47267862536842936,
            0.20573678897972478,
            -0.18023855724985094,
            -0.5885886599137318,
            -0.016047207216773197,
            0.611666961455849,
            0.31747674705502665,
            -0.7137462121629256,
            -0.03923758127719338,
            -0.2906361815166906,
            0.023354443942894716,
            0.2930023751893846,
            0.013529548447239909,
            -0.18788416822921886,
            -1.9222550404674035,
            0.09259847140669629,
            -0.7467469993214255,
            -2.9865201019189755,
            -0.4711366990740835,
            -0.8636354536881279,
            -1.1026437144893477,
            -0.6277161196890447,
            -0.7665187611478111,
            -0.04717885637923101,
            0.13032791670125118,
            -1.6330033074040446,
            -0.7329368356734055,
            0.47263047388470014,
            -0.49440361462247306,
            -1.4588254464781583,
            -1.0942667377941755,
            0.13439774911694177,
            1.0575365968103434,
            -0.21973586296487177,
            -0.119757265831158,
            -0.4808471742653677,
            0.24002728352212213,
            0.9785435518877285,
            0.46042739691133183,
            2.11926767311421,
            -0.6084968283253855,
            0.9704498110296907,
            1.5229079776771322,
            0.08388527666727214,
            -0.7607507114013683,
            -0.41882205522499516,
            -1.2592665940391805,
            1.0926379673414726,
            -0.34839887513480783,
            -0.8755946778807501,
            0.19196675960808132,
            -0.38938996346333893,
            -2.035908921656886,
            -1.4537255496377313,
            -0.9092622814007697,
            0.15926892602065745,
            0.25890294272344877,
            0.1512863609408878,
            -0.017180669316109863,
            0.5299345174046571,
            0.3711221239668368,
            1.3094945289440092,
            -0.18405585836248695,
            2.6644036871900747,
            0.7055334867516155,
            0.09527764489975829,
            -0.36947438756452006,
            0.342320953192891,
            -2.295662571193058,
            0.8603205895916269,
            -0.06545639374193463,
            0.40239975699173847,
            -0.40052227546700125,
            1.0701269543384817,
            1.972366058970912,
            0.9238118399271557,
            -0.7042917575071059,
            0.24784228141015846,
            -1.0087204697215095,
            0.07964298572333703,
            -1.4365439394424948,
            1.4989482105146907,
            -0.7326841156815249,
            -1.1072951132596813,
            -0.9751008419638024,
            0.7902146191635702,
            1.00319782420292,
            -0.4093155300855175,
            -0.9664957361537135,
            -0.07500876921799954,
            -1.2833865731193401,
            0.30407081287545984,
            -0.6019024281359479,
            -0.20615258066243303,
            0.7416450427582841,
            1.0794430692896209,
            0.6069782217519557,
            -0.5146416759799005,
            1.408544509461432,
            -1.2194390781416784,
            -0.3341348297153849,
            -0.632432904817045,
            1.211857556535976,
            -1.138752317949638,
            -0.853773630857444,
            -0.2617486506113685,
            -0.3599087114189578,
            2.8472328507896325,
            1.1722650554990035,
            1.3127721007484916,
            1.2978085822078376,
            1.0520843868551069,
            2.059592618703507,
            -0.6202088559238789,
            1.2062420047165372,
            -1.4870718472946232,
            0.7121033124988061,
            0.5579717048945388,
            -0.7874943668389881,
            -0.6047792508210615,
            -0.07411282014442833,
            -0.46055210171586697,
            0.2862081004318412,
            -1.7270600039052841,
            -0.6470350052732604,
            -2.8863113437360783,
            -2.44642106813712,
            -1.718224731497342,
            -0.09384030483322921,
            -0.39892874717961574,
            0.05640693528924307,
            -0.019506989758558094,
            0.046818352829362274,
            1.75067805639421,
            -0.7354267281061221,
            1.5733578093625942,
            0.709594942344839,
            1.1327438813120052,
            0.08586613850410368,
            0.4475099260607952,
            0.6026592578848767,
            -1.543568683931934,
            -0.856843459441884,
            3.092327810522571,
            0.10956972585003465,
            0.41234527306494434,
            1.284794217464748,
            0.018284217475296703,
            -1.3058678566160822,
            -1.372558504465007,
            -0.499058115992836,
            -1.228331502910358,
            -0.22257107249808222,
            0.6986941096359768,
            0.7333950439657261,
            0.27606407502193275,
            -1.9983639208051112,
            0.4683182727498806,
            -0.9202518978905845,
            -1.9633626281171792,
            1.3251285936577957,
            -0.21780686746154088,
            -0.6098984718340441,
            0.6097230728438953,
            -0.07358090048238984,
            -0.8603833585837884,
            0.44271986769977467,
            -0.4949479941663,
            1.2082374366316546,
            -0.5372540021103345,
            -0.359779027888574,
            0.8152283978015369,
            0.20932110439702656,
            -0.12187183644263166,
            -0.7951553595567216,
            -0.6892593206811936,
            -0.6219847235817203,
            0.6133293814861396,
            0.5263449427205632,
            -0.7322136046056651,
            -0.4953625311087219,
            -0.5714832500979277,
            -0.5623299330730788,
            -0.9382114758671226,
            0.9020724617934599,
            0.8394054232285683,
            -0.9168560343841572,
            0.5222309068130269,
            0.07212141509784176,
            -1.2918941370798838,
            0.042566418855311705,
            -0.5181824933248717,
            -0.195920805738138,
            0.7818184465832758,
            -0.18738516307409184,
            -0.7164039692084344,
            2.1328131690374494,
            1.1602812957852786,
            0.8354785025599399,
            0.4662379991029579,
            0.3380451899180448,
            -0.1209571691288144,
            -0.7319341144525243,
            0.6304723880387649,
            -0.8319671934485209,
            -0.9026187545374488,
            -0.5302693228602877,
            -1.9993522366968186,
            0.2555344365937769,
            0.25073411239069565,
            -0.13691251970368418,
            -0.5581925825346579,
            -1.4215511704255248,
            -0.7522462705043075,
            0.8764357769385325,
            0.6266170413262723,
            -1.9746008509589303,
            -1.0947470192191697,
            -0.9027276478782591,
            -0.9568727242470537,
            -0.041360057873598886,
            -0.35100119838366806,
            -0.6370197075141861,
            0.9860477052323858,
            -0.6375679949000777,
            -1.1736634602367506,
            1.244938713166609,
            0.07902092115141539,
            -0.768812511541862,
            -1.4767442013984147,
            0.23918208440116556,
            -0.47841888003193894,
            0.7052691005066668,
            -0.4731719036367526,
            -1.4765579512420732,
            0.3697670450153428,
            0.8351031762905675,
            -0.2134141577789873,
            -1.1138636698883628,
            0.4911350648114472,
            -0.1755024171714796,
            0.5619578084965885,
            -2.1745367251179046,
            -0.8916259681769104,
            -1.6315171750316053,
            -1.5654757825887238,
            -0.6125683821373502,
            -1.197781185900086,
            -0.4210490089617588,
            0.5618889956305191,
            -1.0286799960883064,
            -0.37246735121318747,
            -0.3820406887557133,
            -0.23138859968387843,
            -1.804212899085967,
            -1.1658289284343166,
            -0.6013225035090649,
            1.4903550483869474,
            -1.769103486741681,
            -0.24804858140678337,
            -0.3575343838248027,
            -2.063573303843005,
            -1.9736049568626515,
            -1.0316574407660923,
            -0.3595997514344524,
            0.382921004316184,
            0.8527956887549308,
            0.6850540629380132,
            1.2263538134122085,
            -0.08167457797930204,
            0.26319335918583286,
            -0.8474150542992178,
            -1.0873622254314672,
            -0.3667757618728421,
            -0.2914040276493261,
            -1.4889937599178293,
            0.5586569597203651,
            -1.5081878372035538,
            -0.17719638513942243,
            -0.5399507818822183,
            -1.9551113611744304,
            0.7742124765956411,
            -1.8628737201603758,
            -1.8312111687652308,
            -1.1687226155149952,
            -0.25658264632887506,
            0.41375799690824433,
            0.008975638530775378,
            0.41180352569188955,
            0.034729261964166834,
            -0.4513627280222554,
            -0.6352797253745419,
            0.9654911198126168,
            -0.05886257188238054,
            0.006508585799223484,
            1.2244073204471209,
            -0.46339228375266195,
            0.48431966407691435,
            0.03181810546659868,
            1.5312165761925354,
            -0.06852334247440382,
            0.13273062856455786,
            -0.7943110679494628,
            -0.7765535524166222,
            -0.7066114468586322,
            1.0064588685528288,
            -0.4999095410371615,
            -1.3347678788144108,
            -1.1568649764159216,
            -2.8477746207216335,
            -1.2356308950553723,
            -0.7967496925135864,
            -1.0492473386815566,
            -1.5233926844605654,
            -3.1308021117602727,
            0.6254146021393762,
            1.1349473789723663,
            -2.520206811504716,
            -1.022105012354164,
            0.0783521773053365,
            -1.5196733796351491,
            0.9953035532065884,
            0.5081843267007577,
            0.21136491831929693,
            -0.0654194477545661,
            0.482601931182695,
            0.23507627162708714,
            -0.36066719705931793,
            -0.8078556140054676,
            -0.7428331158540207,
            0.7984154330295135,
            -0.2662107641773453,
            1.7354276098651682,
            -0.41394171475349767,
            1.0562996129930522,
            -0.784478658489726,
            -1.3157946363127835,
            -0.4002262949046441,
            -2.353970824024364,
            -2.8026772011159644,
            -0.28476974276662137,
            -0.8403332681344555,
            0.4805208505667503,
            1.205176588033852,
            -0.16254704908286915,
            -0.08060358538101715,
            -0.23389587499419198,
            -0.3764259639005549,
            -0.6642574820487261,
            1.189092227107689,
            -0.5077880801515258,
            -2.254440959984778,
            -0.5217257441492568,
            -0.04776640710636918,
            -1.3507270327163152,
            -1.046063628286928,
            0.4879497813076159,
            -0.4268439943158172,
            0.7651143908079905,
            0.8312854791498703,
            0.17124133787707835,
            -1.1373315559020032,
            -0.4757653620979526,
            -0.29103914306721607,
            -0.9339657432173649,
            -0.4026099867357,
            -0.6382270681370237,
            -0.655038294110242,
            0.6109901373219302,
            -2.93821418372994,
            1.9388768967712318,
            0.26293701358888905,
            0.07778493223971822,
            -1.5237495532649938,
            -0.4744108282561825,
            1.5641192599502798,
            -0.08265315077804253,
            0.9050289435350943,
            2.1225443806284745,
            -1.024357575284253,
            -0.08320929910326982,
            0.5372971864241383,
            1.78482575831273,
            -0.7478508132190891,
            -0.21078716415234208,
            -1.2716347597283284,
            0.312687797009646,
            -0.4661937800406368,
            -1.8639688707691366,
            0.446774656394174,
            0.7508746262458122,
            1.6198297128951025,
            -0.2700449231026614,
            -1.0480025487924476,
            0.5972633429575142,
            0.641849047925213,
            0.04061283517031007,
            -3.3459515690459734,
            -2.1838720331106214,
            -0.50113342589505,
            -1.587136613252328,
            -1.873000788958652,
            -1.320834148935569,
            0.9663610642526864,
            2.2233744316127013,
            0.09898213094294266,
            0.728744522348217,
            1.0499928932154943,
            1.0680071544655518,
            -0.7694539736190051,
            0.6031901361926143,
            -0.5151598120955303,
            1.8136739249847995,
            0.11236494200938464,
            -0.9329856930876399,
            -0.993806208084296,
            0.6157984188797876,
            -1.108673509804855,
            0.6412954575440623,
            1.9210601100877924,
            -1.3673757810903702,
            0.45102572052100093,
            0.5805872366464014,
            3.1130982525049333,
            0.8789682676096563,
            0.719979797220288,
            0.01826166482284748,
            -1.406815088248091,
            -0.45678266213358076,
            1.2719955985931652,
            -0.1705448659650973,
            -0.3741176880379679,
            0.8189889724455997,
            1.3749788922436157,
            -0.5548923916130402,
            2.216575403719189,
            -1.0714626454970984,
            -0.471028786429782,
            -0.670413631484641,
            0.1467008958768609,
            0.28479365313965466,
            -1.5762866273377443,
            -1.1318993470345105,
            -0.5850559151414454,
            0.20037514646373913,
            -0.013868549077761605,
            0.5948593918850784,
            0.6502277107920684,
            0.3818123596449563,
            0.4430313265728013,
            0.809519877061477,
            -0.5912802198695223,
            1.3472343589831153,
            1.6861856801659785,
            -2.04904502164416,
            0.3703455844006942,
            1.9190208407744875,
            -0.3403454134493616,
            1.3333732305515074,
            0.23074028047714196,
            -0.3122285420685539,
            -0.08993796692809133,
            -0.08055086262452994,
            2.848908602842014,
            -0.943403626215948,
            -0.2815899229277998,
            0.507906435694881,
            0.11741761652931439,
            0.9469097461606516,
            -0.4152012864878691,
            1.4561511450090483,
            -0.6130729193602512,
            -0.14519994627842114,
            -2.054246502561118,
            0.311756474634364,
            1.687664686416342,
            1.2581970353081198,
            1.4282121425851542,
            1.184460208912431,
            -0.7069683939892659,
            -0.6797345283394597,
            0.3442049569645195,
            -0.8605244572867172,
            0.33625366384040395,
            0.24931663717403965,
            -0.7196890256627956,
            1.6011585976480487,
            0.19807579493968103,
            0.12069476597701256,
            -2.040848512130305,
            -2.350507965570581,
            -1.0878097321361535,
            0.6082513330244489,
            1.3475289581111751,
            1.9672635477181442,
            0.08818882436727081,
            0.5279571420292787,
            0.1457184120717555,
            -0.06857028524366063,
            -1.3246506814676922,
            -0.4617255787067856,
            1.4929779925430053,
            2.217703409624862,
            1.2951120943857064,
            -0.8237864099477987,
            -0.6031133597411141,
            1.8580972997949388,
            0.6588858986862035,
            0.03910174538617912,
            1.3931387267129263,
            1.454700003009784,
            -1.9100835572001207,
            0.5385037272322788,
            0.16863636417551808,
            1.7784327740650365,
            -0.3095946173857788,
            -0.15555178433280845,
            -1.3226627827563309,
            0.04309149798963843,
            1.2341267418680497,
            0.5423209101538227,
            0.9434957574135366,
            0.0038837857382343316,
            1.0672014783240646,
            1.6763139251895958,
            1.9311493908233732,
            0.17235054515597986,
            -0.5494285328317945,
            0.3558001422554953,
            0.7017257172042753,
            -0.4720595179013034,
            0.34385058724655865,
            -0.08736172288833027,
            -0.15234097718832498,
            -0.4459257914897437,
            -0.9519629486145467,
            -2.148100352662677,
            -0.9551322140752465,
            -0.48630315662062334,
            -1.2140610471785398,
            -1.686821940817827,
            -1.526468344058956,
            -0.7821619459368677,
            0.20307967610674987,
            -0.8760217979051792,
            1.6712717184133759,
            -2.018137428603671,
            -0.23967597532131082,
            1.3198002039182906,
            0.7721279285119791,
            0.6240386135371692,
            1.587876906223408,
            0.29574210495334546,
            -0.3206772954256721,
            -1.0269157778569797,
            -0.5972246388993407,
            -0.8171259191365325,
            -0.5159245668394552,
            3.0110703929052165,
            0.6679507600056904,
            1.1564100531709403,
            -1.7238109282585357,
            0.8649471336103172,
            0.5067541334317527,
            1.7377599967055914,
            0.7790713854952229,
            0.42041243875848017,
            -1.5075975495998357,
            -0.8942051806163794,
            -1.1625215542204064,
            -1.4075210089789099,
            1.5500424315589194,
            2.1130284497719134,
            -0.13828594890138088,
            -1.5402974160388507,
            -1.9291290603156213,
            -1.199312649263514,
            0.8266284881775873,
            -1.083441344578349,
            1.223613657883002,
            0.3301084519946511,
            1.2692258937203367,
            0.23782118307558098,
            -0.9775111804413738,
            -0.4221586478549685,
            1.064109525761792,
            -0.7084099728111483,
            0.3031267202667879,
            -1.6575154149069866,
            1.1113023131939364,
            0.3067125713828388,
            -1.9328199606337442,
            -0.6881072576400478,
            -1.4094544834768232,
            -0.7009975844310111,
            -0.08416101766289329,
            1.843389113622109,
            0.10683382567212427,
            0.5354068305922635,
            -0.2043902289695745,
            -0.2837459853851617,
            -0.7957716305652484,
            0.7431790317190814,
            -0.39096550075678277,
            0.7624911703742349,
            -0.0077522903300202475,
            -0.6119749252115428,
            -0.3661345226869057,
            -0.6447528636917917,
            0.3577964695259493,
            -0.8959446559348895,
            0.2093523243858837,
            1.1741689269627302,
            0.3691777045144541,
            0.03145965926088442,
            0.32706386981231045,
            -0.04412512632881527,
            -0.21361024626793526,
            -0.963851309944939,
            -1.498072542687258,
            -0.7676797219722794,
            0.7449511459139383,
            2.0359919616909496,
            2.3242310996484226,
            -0.8302319105918378,
            0.6032534517851467,
            0.8941033584527134,
            -0.1033245354217072,
            1.1817121611842563,
            -0.04282846900686694,
            -0.22162100765781279,
            -0.4859785587789993,
            -0.43875211800025715,
            -2.699232711490133,
            -0.33055844191937783,
            -0.17018886623745785,
            0.2888018337342791,
            -0.2546422442522254,
            0.14629553427053726,
            1.3865136717420736,
            0.5776036187442956,
            0.3827292509193415,
            0.29308898038360887,
            0.18098274885530055,
            -0.7516475128135649,
            0.28429712770772,
            0.5816623319919202,
            -1.7237153684039954,
            -0.08631060414471112,
            1.5445027234269866,
            -0.9947244773757264,
            0.007342115282614904,
            1.0440031475801275,
            -1.0165989832615383,
            0.864364747336545,
            1.0462428025213082,
            -1.5558275876090264,
            -1.4037317410550396,
            1.3672346283589127,
            -1.561907091438121,
            -0.6738905224548948,
            0.21497545655830694,
            -0.6398691948008804,
            -1.4794152512344951,
            1.216440373344636,
            0.6525046900812871,
            1.1275518801008169,
            2.9873883933240526,
            0.30194177764284796,
            0.4688933324154908,
            0.03939774729071653,
            1.5514398115318548,
            0.88808356709949,
            -0.7751839718105357,
            -0.4823953773505695,
            -1.3293186203275025,
            0.42307688123046205,
            -1.0488599735655189,
            0.3299486941535377,
            -0.3626659126514153,
            0.2181630121504681,
            0.11963074789029472,
            -0.09539976112501874,
            -0.1312279522305241,
            0.5108521270321702,
            0.6968219813284835,
            -0.5632453165899456,
            -1.3666270074199198,
            -0.6713975141819628,
            -0.30786887940689506,
            -0.5810778680510071,
            -1.1705992086409096,
            -0.0663510053333403,
            -0.8142171243658675,
            -0.6304888149207488,
            0.2847866184378029,
            0.2881858212040947,
            -0.484083338409063,
            0.15165405875617513,
            -0.35707519867338655,
            -0.25213134849116736,
            -0.7326919876329189,
            -0.2814184402955948,
            -1.2233878206626432,
            -0.7769481196807029,
            -0.3706370735613058,
            0.537723398555467,
            0.7418757201026295,
            0.5850185428559304,
            1.0730338759868638,
            -2.3928473366013923,
            0.8604079066179425,
            -0.8658991366083618,
            0.045405283563538235,
            -0.04478157938424346,
            2.2567734406292916,
            -0.9410968757447447,
            -1.0490463142780833,
            -0.548741769781859,
            -0.5672861659822678,
            -1.8868968039800873,
            0.0482654782807209,
            0.11660665898610664,
            -1.628615059371307,
            0.06980225505538662,
            -1.3342787743559525,
            -1.351378886328369,
            -0.24279915045531225,
            -1.3118972917505443,
            0.8626531209796894,
            -0.2768909334441645,
            -0.11162392961660582,
            0.0800470199987393,
            0.7310882038176912,
            1.3130540854404125,
            0.3587139220930732,
            1.5049150841896304,
            0.5184148569191915,
            -0.47333027479332723,
            0.46969915184691235,
            -0.17778407475018246,
            0.33594732196319094,
            -0.6877693726276621,
            -1.3495966370267365,
            1.3471860119269232,
            -0.6272801810013088,
            -0.43965288393790236,
            -1.108124770892745,
            -0.01900491354342132,
            -2.003008589205288,
            0.6967261623828086,
            2.3517201836939123,
            -0.5527173016132466,
            1.9008921207067615,
            0.8834816818005237,
            -1.6632964731457822,
            -0.9691676920548199,
            -0.7589822919955861,
            -0.08155647741658048,
            1.4287949067292882,
            0.8058257457978324,
            0.9270930058394147,
            -1.0404580352830128,
            1.1814775068969305,
            -0.25300291181165024,
            -0.47842800632544225,
            -0.3555539123261027,
            -0.9723488038599081,
            -1.3492346814894145,
            0.13100109464131368,
            -2.1661961921349038,
            -0.5049218145285986,
            0.20837757161870035,
            -0.29899836845805927,
            -0.13501332598296065,
            0.8573643685546913,
            -0.28620419758481014,
            -0.032099910814161,
            2.104986977608704,
            0.8679608645294323,
            0.7347705739981149,
            0.8945607391730568,
            0.8442119808731409,
            -1.7913690360916936,
            -0.29824334871966773,
            -0.04011577731044614,
            0.07733038547893197,
            -1.2526521963615982,
            -0.09892681887493951,
            0.042163112444089726,
            0.8677942037642162,
            -0.33307155851425485,
            0.44956494831230986,
            -1.434162657530646,
            0.35471007825335366,
            0.7938501922219745,
            -1.3890061793636261,
            0.7882807624130935,
            -0.9422998186183633,
            -1.5055884396878292,
            0.37763593198724993,
            0.12305882978198947,
            0.2737877135409215,
            -0.24973421951143146,
            1.5948804264940903,
            -0.7015987405337286,
            -0.3517341512609665,
            1.275150913883799,
            0.9501231186922608,
            0.7090277169837813,
            0.5575834249774778,
            0.20063056088133277,
            1.41181112843601,
            0.2095081207444726,
            -0.7358983339908554,
            0.5397397279480791,
            0.29633895608233984,
            0.19975115733918525,
            0.4888572368021577,
            -1.6688878313585744,
            0.22065392760509883,
            -1.4347872171771008,
            0.12343311613457321,
            0.7365720350427185,
            -0.7620164878730737,
            -0.13073822462132456,
            -0.19065182291279803,
            -0.610253936125597,
            0.3145661668011998,
            -0.34746490252437473,
            -0.7829923155662952,
            0.5668092507431429,
            -0.7984521630238084,
            0.9092523032530438,
            -1.655118799883109,
            -0.7246348226929686,
            2.6197295352603227,
            1.0195707719220273,
            1.3770750332297093,
            1.3264130294336292,
            0.6504612482502363,
            -0.7193295890523183,
            -0.09410501726232358,
            -1.2137325303273172,
            -0.5503115327605084,
            1.3405037991537028,
            1.2138013361939413,
            -0.010562248292766791,
            -0.47983289157393155,
            -1.9899727642198486,
            1.7891470668299663,
            1.0646218876864177,
            0.2606438443536772,
            -0.08190486022161313,
            0.23076341591582725,
            2.0147176707567422,
            0.017326994638172805,
            0.33252225573479094,
            -0.8723566158509015,
            -0.7897166689128027,
            1.0407894061958751,
            0.9160049937691243,
            0.7865322267076431,
            -0.2115076789259802,
            0.6699034936861517,
            0.8700158538776287,
            -2.5526763884877446,
            0.2834858169517724,
            -1.2360717326957724,
            -0.7419426294888756,
            1.0933746524639292,
            0.9878148802442726,
            -1.0789891897790678,
            -1.7400961637626098,
            1.514290414721592,
            0.33676973123164317,
            -1.0900044208428257,
            0.0738698289254698,
            -0.546099692245469,
            -0.7209704988134699,
            0.4139529719808196,
            -0.5063702286520445,
            -1.9012690910866032,
            0.8592994801416052,
            0.47411380542144466,
            0.7525878924220669,
            0.6537019082531524,
            0.17456622972255173,
            -0.9850518084983632,
            -0.9519007527321971,
            -1.5764426266412217,
            0.04229481529014642,
            0.5203549708746826,
            0.7874554493196757,
            -0.9093502652954686,
            0.9723327847151977,
            0.6514976530623967,
            0.0018850930125624823,
            0.20880444418942423,
            0.735597445414802,
            0.7032695764996142,
            -0.5695883774849727,
            0.39696287319771384,
            0.03340101989380591,
            0.16208841113285524,
            -1.083302501077695,
            0.5984540990432936,
            -0.8212143730843595,
            -1.4342806343089625,
            -0.4925718618369882,
            -1.8881847489812116,
            1.5576125888681447,
            0.41528195078884084,
            -1.3337163119057636,
            0.43855629802741297,
            0.4838013575027866,
            -0.35359489341714634,
            -0.757661059714505,
            1.0355851656870307,
            -1.7985973073199664,
            0.5697379069343347,
            -0.2693138857757767,
            -0.3145291523732253,
            -0.1089758118452063,
            -0.3938543983669623,
            0.8183814644413748,
            1.200912198046246,
            0.5702182768449228,
            0.2011702267399834,
            0.180605142863615,
            0.5320416387638633,
            0.987549714366391,
            1.140780140259929,
            -1.021768127972781,
            0.006915196684516795,
            -0.20032202593227855,
            0.6078528168755093,
            1.7375937408595707,
            0.7811064188404434,
            1.3789227599153073,
            0.6302003223518976,
            -0.021567536307941306,
            2.4873414006307955,
            -0.4931203024337803,
            -1.112831925165548,
            0.13405823898844843,
            0.27305438253326636,
            1.4923540184559843,
            -0.13869514615800263,
            -0.37217237881605414,
            0.5680281934945686,
            0.18035504571391242,
            -0.4583567652179333,
            -0.0668287200234612,
            -0.529731040760276,
            -0.11064147056530865,
            1.3570575281464876,
            1.3525665209763214,
            0.4070283003686696,
            -0.5322810502340862,
            0.7661533053215527,
            -0.15133846604016876,
            2.0956204379715118,
            0.8774770220061905,
            0.10384707636124735,
            0.2221726494161509,
            0.45395384020513263,
            0.368622416891793,
            0.498759642917536,
            -0.14495736756675756,
            -0.60797943741522,
            0.21290605164138865,
            -1.2953623246415449,
            -0.008980931564895753,
            -1.071788609494676,
            0.46165858659393816,
            -0.14225982458128597,
            -1.789539627914002,
            0.03618406103227335,
            -0.3604373940610141,
            -1.6501881226124089,
            -0.14711144010657892,
            2.224667961477468,
            0.33236557247040055,
            -0.951629422898368,
            0.6931998661227947,
            1.9312186869724202,
            0.1312011499075147,
            -0.7301141196138047,
            -0.07341796669694786,
            1.3208288008659517,
            -0.8466428056023748,
            0.51872716476733,
            -0.26098646931393,
            0.6511520058879438,
            -0.3580539616550084,
            -2.210977391333726,
            0.42456584123600016,
            -0.36392204567296793,
            -0.40645108300648547,
            -0.5382639050373695,
            -0.2934297798751438,
            -2.062717925819473,
            0.3572596376652405,
            0.12368728245447266,
            -1.8026972374891055,
            -2.001077565028575,
            0.3146540939925207,
            1.4422748253666353,
            1.0166374163467349,
            -0.5749904097900758,
            -0.15515505863311913,
            1.3688642419917871,
            -0.1461965359301761,
            -0.8695956633220525,
            -0.26019245967287896,
            1.3464003141640681,
            0.5212616165374072,
            -0.6274192898457174,
            0.01580741410362021,
            0.09311887913306856,
            0.08095870311242082,
            -1.1539872906408764,
            -1.1358277557182417,
            0.9877280380790346,
            -1.2946417841769065,
            0.8625623331597695,
            -1.2844892539518695,
            -0.5615961037076825,
            0.5638023884991854,
            -1.2114602717031755,
            1.1241051783669886,
            -0.3816464601492318,
            -0.7365952645146974,
            1.0082183157205098,
            -0.9675059453209114,
            -0.4415263078866881,
            0.32144154148888704,
            -1.7055383887516118,
            -0.02944684997181118,
            1.1928655657378198,
            -1.7378304474405915,
            -0.26620770299007046,
            1.6758965804174821,
            -0.4386350696017376,
            -0.7648386485167489,
            0.812201462513316,
            0.41990418814405045,
            -1.3538187559858816,
            -0.29246469021612614,
            -0.5440195756667369,
            0.15332305400749455,
            0.009344552757914506,
            0.7220951319767667,
            0.16404115648654458,
            -1.0167102629408462,
            -0.04083261345802088,
            -0.9618899237719676,
            -0.2648893964134889,
            0.16260464209019249,
            -0.9999739050739593,
            -1.5313254690724762,
            0.20089262567281568,
            -1.0561053389633197,
            -0.5879446851909895,
            -0.1826929721770205,
            -0.1545311568917586,
            0.17491815726924437,
            0.6318158242853237,
            1.29844978479477,
            0.8226783005619402,
            0.7989618790536408,
            -0.6080063781885294,
            0.5960005458484826,
            1.083473478442704,
            0.10594089850678845,
            -1.4908232122142253,
            1.2374437921842516,
            -1.2399143560236716,
            -1.028986452182788,
            0.2818190397879608,
            -0.1358615450553986,
            -0.7232026767378161,
            -0.9489613981194698,
            -1.2979986524203446,
            -0.5619881003880012,
            -0.012902348813453384,
            -0.167045384399151,
            -1.4736531044408994,
            -1.1169590876073754,
            -0.6554504238731794,
            -1.1914281278325178,
            0.28451398591069393,
            -0.6194140130725855,
            -1.2482581074768277,
            0.5574382719747152,
            0.458469071840981,
            -0.05588054489598395,
            0.7390343395708477,
            0.4576056836745489,
            0.34390804630882504,
            -0.8444910468213939,
            -0.1503809723461114,
            -0.45086489621317327,
            -0.1711924017340508,
            -1.245207354887624,
            0.572922013642401,
            0.30850381742824756,
            0.6443622037642653,
            0.1443804502464349,
            -0.3191946959181216,
            0.3841122178160361,
            1.1360049929965188,
            -1.4451627511912886,
            -0.7456031392428668,
            0.027950229078128854,
            -0.2926768463734051,
            -2.191479431780571,
            -1.9316769149973707,
            -0.25082412822785033,
            -0.5689327106862562,
            0.6758035886839605,
            0.05656517532326432,
            -0.6433059668833248,
            -1.063892220451075,
            0.4640424366925053,
            0.25236136444124,
            0.10665828320366011,
            -1.5829583656851183,
            -0.8356129094323504,
            2.0923396676236012,
            0.9510229037381953,
            -0.16509163237491586,
            1.3975661551532876,
            0.98040948916541,
            0.44425931476360925,
            0.332629026300115,
            0.6829151154388604,
            0.7769561289351357,
            -0.06665923275704057,
            1.4219168816539465,
            1.3792769494707522,
            0.015891558354714858,
            -0.0539349066253758,
            1.7503777064811394,
            -0.601288993720002,
            -1.4688961330903034,
            -0.0179717185469978,
            -0.39323408698750517,
            0.5892220630680923,
            0.42652774079161593,
            3.29801353805186,
            2.0206773775859412,
            1.1405571384754947,
            -0.1483509154513326,
            0.2554733548859574,
            -0.4458349375882432,
            -1.3400352535291247,
            -0.35006757857876536,
            0.45434572145793406,
            -0.6632407233301613,
            0.3290740237890647,
            -0.01327178657561696,
            0.2453342390044115,
            0.21715692251098592,
            -1.3706746517269364,
            0.8533723258704313,
            1.0392547944088177,
            -0.23313392367101257,
            0.5207013529136872,
            1.8367161254534874,
            1.076006021243324,
            1.0915206079268187,
            1.7593113858584446,
            1.0531244141047438,
            -0.39802490677106106,
            2.3251421638164715,
            0.24710894966725966,
            -0.4922834952657406,
            1.0460637292393693,
            0.31990440437428136,
            0.7129419402257429,
            -0.5083859768207468,
            -0.7233806146130377,
            -0.16674833069842726,
            -0.23143651688658576,
            -0.8353580596938027,
            0.03663173762894982,
            -0.36341086191410393,
            0.003895591079768026,
            0.41943163732457056,
            1.4731854538858147,
            1.697544809779232,
            0.16366280637360045,
            0.2122763483074777,
            -1.2850119233189137,
            0.9570415427496047,
            -0.15186408555746272,
            0.472054053153415,
            0.025678000338121724,
            2.5571708216179387,
            0.4480471179074031,
            -1.6365508098011825,
            0.2490309839157038,
            -1.0542594734855253,
            0.715779823688429,
            1.3395494517664774,
            0.05893723998204494,
            1.9579579965771958,
            0.9025716084162583,
            0.3496361774834725,
            0.26806731565624886,
            0.01466185321626117,
            0.3982441510166857,
            1.924653559980353,
            -1.0499726718778641,
            -1.140477015868719,
            0.6013700152183736,
            0.1801860588045066,
            -0.09768555167173625,
            1.449579172721498,
            0.6982082640390267,
            0.2786602721345254,
            0.5725720935599942,
            0.6961811938210599,
            -0.10953842280098817,
            0.4260814398236227,
            0.7999491892333693,
            1.529277476762171,
            0.620524469026418,
            -0.34735154761849196,
            -0.5495400805487061,
            -0.6103081819244313,
            -0.27024120895330095,
            0.15034188713504934,
            2.1431199070095373,
            0.4271279704031378,
            0.20212949554356566,
            0.6231503503614951,
            0.6184647884820791,
            0.6148359372452663,
            1.61210979953923,
            -0.9783798100499237,
            -0.6571252618425248,
            -0.36526413701157057,
            -2.0962249497786045,
            -0.14116897712598478,
            -1.050468994324873,
            0.1392041060837977,
            -1.3942912631189197,
            0.8133077014536592,
            1.0204328716712003,
            0.7201352603213561,
            -1.3014689673106279,
            -1.0489433794770928,
            0.6485746212072651,
            1.964251559317673,
            1.3077375609987474,
            0.1582552400709389,
            -1.292178993898183,
            -1.7738767433960867,
            -0.06062643617111918,
            -1.65801556486865,
            0.03748750698373496,
            0.7743955640185539,
            0.356870551308083,
            0.04073078232927459,
            0.7437982756534157,
            0.9663152129600152,
            0.5784705832537868,
            1.3516970592276347,
            0.8867449523246103,
            0.17720676977777852,
            -0.5985412604393557,
            -0.9941464967469805,
            1.3569029916567996,
            -0.8950909298008192,
            -0.6019041263286115,
            -0.4631535851451818,
            -0.6080046728648512,
            -0.06619400496893517,
            -0.31756837202116783,
            1.828424363311816,
            1.2812109315143583,
            1.7322695182442538,
            2.0441010941484095,
            -0.3353025466620943,
            -0.8106584567012013,
            1.85381177872946,
            -0.15028726472925993,
            -0.8089912226340077,
            -0.10558576945970347,
            -1.4154398246899258,
            -0.5920878776433496,
            -0.8833913028131545,
            -0.18875459004809905,
            1.5119946852054247,
            -0.19393284856032184,
            -1.1905058866118037,
            0.028262160612200375,
            -0.5144886206735056,
            0.5451409417710378,
            -1.3643340856409607,
            -1.939253496498316,
            0.30282066373841954,
            -1.7230546471209032,
            0.6820704664298874,
            0.4212985481364298,
            1.8250976856119139,
            0.7253758551226039,
            0.7469493275066056,
            1.5590084652113705,
            2.5444988807295217,
            -1.1815870299791247,
            -1.5804525297135086,
            -1.6633938436141682,
            -2.7084088761915064,
            -0.004050915826419678,
            -0.9789735994174609,
            0.7672875150839044,
            -0.9055082629473805,
            -0.2805690849505516,
            0.25218528121527284,
            -1.4746311417092195,
            0.10519353623837599,
            -0.8485964762585196,
            -1.8470069412199641,
            -1.3854708401388467,
            -1.3939428170461108,
            -0.1650018980681054,
            -1.4992993558444767,
            -2.402472112269134,
            -0.41957698347585515,
            -0.9035482198752145,
            -0.017899409254797674,
            -0.06188048468151468,
            0.8267220176168572,
            0.8206506416559175,
            0.5623183780461312,
            1.0602013706290525,
            1.2089021942535938,
            -0.3256956916149219,
            -1.4926653168472046,
            0.07639535566457542,
            1.1795630325283992,
            -0.8522523518495931,
            -1.3099274100062859,
            0.9222782323143229,
            -0.6370263098889075,
            -1.2347773121110004,
            0.6434311624404945,
            -0.4541744751267735,
            0.9516809771317302,
            -0.006689571358182956,
            0.9393467177230944,
            0.5287835591156085,
            -0.683357636806306,
            0.07701509292746342,
            -0.6851183095322405,
            -0.9580453926961078,
            -1.9631603548619656,
            -0.9997542078811557,
            -0.3759721552320793,
            1.87014122236818,
            1.8281238885391387,
            2.155282193450981,
            1.3888535298347027,
            0.6538928711796536,
            -0.47630435095762985,
            -1.5413871223427282,
            -0.19731681833962264,
            -0.023417033908508744,
            -0.41497010385333416,
            0.11326541143829874,
            0.7789635084653534,
            -1.3438553001060132,
            -0.9814330170020047,
            0.23763348231091674,
            0.9930383819705313,
            -0.3278011413136048,
            0.1210701750475697,
            0.468061624769085,
            -0.5928604223456083,
            -0.2877117019843677,
            -0.8118121919854574,
            -0.7278342454854654,
            -0.9943242905361984,
            -1.3185509545576586,
            1.7573362964380246,
            -0.622151253790719,
            0.8460922483447011,
            0.5773298129227603,
            0.08978978713577343,
            1.569760151283832,
            0.13850571413994547,
            -0.7570320620163932,
            -0.8973021579276442,
            -2.108148452554017,
            -0.880703264649791,
            -2.2113834743958583,
            -0.8318419813125435,
            0.45794108948417056,
            0.11949651683621601,
            -2.2411963596908335,
            2.1387548625209334,
            -2.1525813036878914,
            0.2846745335677882,
            1.4602485015322912,
            0.5083241471730033,
            2.0266551034460867,
            -0.7182104556048357,
            -0.10519503532826038,
            0.19937943696800645,
            -2.384751234144622,
            -0.7076183944086194,
            -1.211316132480411,
            -1.602609367344192,
            -0.29293347803708586,
            -1.6957748575901992,
            0.9806113759132987,
            0.3997660186071254,
            0.22041507334809451,
            0.24219631840903327,
            -0.11494419890481418,
            -0.44309817998884565,
            0.21827805442709391,
            1.268259406918802,
            -0.8327975213334591,
            -0.7597771960898326,
            0.8488949750930285,
            -2.2424840987219077,
            -1.8473853500576016,
            -0.8900305790565596,
            1.7373545731737015,
            1.059537313496928,
            -0.441112005911946,
            -1.9506695485817447,
            -0.7339561444645201,
            -0.6962606762042094,
            0.4796510390740913,
            -1.4868799909197448,
            -1.1880200381636783,
            -1.7662441356704663,
            -1.2815652223849487,
            -2.0036999311553276,
            0.8572989261182948,
            1.4608504498358017,
            0.4288305710378384,
            -0.02569535328303261,
            1.4464959509802617,
            1.9137598606097774,
            -0.10579943575583951,
            -0.6696819004966057,
            -2.140692569175673,
            0.3760657921848153,
            -0.47344060861194937,
            0.12974352735620145,
            -0.9673567780686593,
            -0.23303658020219303,
            0.019173146399360318,
            0.8805105484672586,
            -0.334794494628382,
            1.0665862533207169,
            -0.7156230003520744,
            -0.24838473311500664,
            0.6092287323397436,
            -0.11001564158312321,
            0.09091154918652303,
            -0.7327700717709652,
            -0.3713470141175689,
            0.3587253207475353,
            0.879072284627853,
            -1.683371662251639,
            0.45712834316801576,
            -0.05486846597711722,
            0.603442605633923,
            0.11688360598775892,
            0.18477000372108582,
            -2.0403289665632367,
            -0.6363072518473131,
            1.7182583763721904,
            -0.16764007538605571,
            -0.06075302509100828,
            -0.8138974032045624,
            -0.25191391195046553,
            -1.3944345234596724,
            0.4814516018040366,
            0.5963193198230688,
            -1.6833181288110435,
            -0.6741754274236145,
            0.53978003805373,
            1.4236694638057914,
            -0.02189855614005362,
            -0.33950495092802063,
            -0.48286451840453853,
            0.856218163156925,
            -0.7135735199627689,
            -0.054616136326787336,
            0.5223405513883143,
            -0.7015280698176406,
            -1.2507394178718632,
            -0.8762476053628798,
            -0.6575730809957673,
            0.5531653317611519,
            -0.3755124731967033,
            0.01573951108664816,
            0.6301097134003312,
            -0.5443898464766381,
            0.7697514798427137,
            -0.7866084232808004,
            0.07539680558299386,
            1.2824016055093217,
            0.4252338455299395,
            1.14064454825337,
            0.0974597106728775,
            0.8158616522552552,
            0.06861048991682799,
            -0.8100636590685257,
            0.01718917956995431,
            1.3297596310111677,
            0.33276416937997916,
            0.48384116636971986,
            1.1130961837567468,
            0.04371116740516704,
            -1.6667177744290462,
            -0.798447443399221,
            -1.5994085316391728,
            -0.12918577771115627,
            -0.6246755639906725,
            0.850575359377584,
            0.18523153786939156,
            -1.8224887283303275,
            1.625416481483176,
            -0.5753785479233481,
            -0.4443167135196228,
            -1.5150197857471837,
            0.4016597916004897,
            1.3426430803140115,
            -0.9999861022727261,
            -0.19263111868902996,
            0.144879891310141,
            -0.6643986356412699,
            1.2014067650218507,
            -1.3013862424838987,
            -0.04891342296793252,
            -0.023984989169157388,
            0.6750888547345426,
            -0.6107964125278261,
            -1.505520524142885,
            0.26649033433786656,
            -0.9729514208413442,
            -0.1394687798594917,
            -0.5681734255647635,
            1.5809973779542539,
            -0.4912458580233138,
            0.09423082103766607,
            -0.6162770375334519,
            1.004166764516901,
            -0.4974607800356264,
            0.4604662203223884,
            -0.23719030465941207,
            -1.1943798956436997,
            -1.7436748265657431,
            -0.9541955392966479,
            -1.7450765429689696,
            0.7599043975529799,
            -0.17590011921978344,
            0.6655379310328973,
            -0.25239800389532485,
            -0.10853771773214196,
            -0.5594195187313921,
            0.5465522376605837,
            -0.11614608558542498,
            0.5569705172029399,
            1.4659714558515375,
            0.10233092128887505,
            -0.6207360093588988,
            0.9358753432451692,
            -1.3890597292519935,
            0.8445375987064602,
            -0.8233257302510151,
            -1.3674292728789708,
            -1.3695731586646185,
            0.5880349462829386,
            0.2858473243838917,
            -0.7385460933280643,
            -0.5800600867826564,
            0.8224939874589864,
            0.3767873897398609,
            1.2657961830874376,
            -1.6600207808096392,
            -0.9378350038452293,
            1.139902447007031,
            0.1781551530099807,
            0.9720844313833094,
            -1.1163357112258852,
            -0.6842354390655255,
            0.49544557763242764,
            -0.9316798517339544,
            -1.1992821519923802,
            0.32810690985147134,
            0.2586709983615184,
            -0.7722337224906461,
            -2.0661517441858623,
            -2.2523892746056924,
            0.2926365997725784,
            -1.7581248916763421,
            0.6101257945231356,
            1.0566177796505745,
            -0.5176637126094858,
            0.34657303070798656,
            0.7130777633030205,
            0.7829227494468717,
            0.8737445793045296,
            -0.2922045900658156,
            -0.566891533167835,
            0.3766692445308579,
            -0.07710554683050737,
            1.6194789372051956,
            0.6030063693294844,
            0.3261742573003445,
            -2.095173138696456,
            -1.166204839003053,
            0.03319349934419816,
            0.14214669278541134,
            -2.255229825807433,
            0.41979527584514825,
            0.9187126628469205,
            0.8157346843180219,
            0.5862798099091717,
            -0.021660143363352823,
            1.1192563535670104,
            0.6530635276238443,
            0.3652382401438144,
            -0.40376704975746347,
            0.8398236600866837,
            -0.04687689763711157,
            0.8576574164641794,
            -0.5708019091383216,
            0.601269473853054,
            -0.17167376203314988,
            -0.7072913582857204,
            -1.0106471433563913,
            -0.2444422596089362,
            0.7764892412551274,
            -1.0387883728011997,
            -0.37864088203401275,
            -0.6381865978188687,
            -0.7906063051045328,
            -0.11887169851799262,
            -0.34224568722636006,
            0.8421005450708763,
            -1.0426909339799217,
            -0.16313024261751405,
            0.821918907079309,
            1.4216308373393742,
            -0.7809142737601543,
            0.4909297624608279,
            -0.09653446399764089,
            0.5971329914312623,
            2.540328985516205,
            0.1307253653433967,
            -0.03558524321559139,
            -1.634862458629618,
            1.2276624949578754,
            -0.27052639757642205,
            -1.3430370412596144,
            -1.4465791109943227,
            -0.4847983841565075,
            1.5857386437953636,
            0.9460556959558253,
            -0.33004275100099273,
            0.8818741253325234,
            0.4101899709095851,
            0.6815551477413667,
            1.0276220835728478,
            -0.16005060546456076,
            -0.031735206693904165,
            -2.103183142444016,
            0.9375283005093055,
            -1.0691586364869001,
            0.6274743552122449,
            0.23498035708257325,
            -0.009828318744392434,
            -0.5162802621768755,
            1.58275950400371,
            -0.529495106098701,
            -1.1857436838301014,
            0.024179973447129407,
            0.317760406286106,
            -0.21590606602577672,
            1.6441178575000968,
            0.030504808231980218,
            1.19208595590654,
            -0.40376763114129405,
            -0.3210172674905121,
            1.9108140256885267,
            0.8456943123119409,
            1.4945582421615802,
            0.5395854480031604,
            0.2581298980232819,
            1.5613124553681108,
            -0.18793720697281133,
            1.5997214875812658,
            -0.9697734797524878,
            -1.3695057944498736,
            -0.4962193209527701,
            -0.03291203627689266,
            -0.2736137732895752,
            -0.7947584172201031,
            -0.09865797447245832,
            -0.21732357334353816,
            0.37106150547609057,
            -0.36127359657925423,
            1.3980383561019558,
            0.4866697371457436,
            0.4799628319058665,
            1.692653122897175,
            -0.4196381040793428,
            0.812414682752866,
            -0.17613765377747478,
            0.3113116635091712,
            1.11133335496241,
            0.8961997804857197,
            0.5530875814641694,
            -0.6977694127939439,
            -0.8167685759695362,
            1.0612758272198468,
            0.6963078572254084,
            0.907406451627214,
            0.16115275772679272,
            -1.8124815494090747,
            -0.09945605957161972,
            -0.28616781767396393,
            2.9548666682923965,
            -2.164839084754318,
            0.8020634036488073,
            0.6101048568913396,
            -1.5145244264531534,
            1.669769691925896,
            -0.18219096960428183,
            0.4921747681850963,
            -0.9070250489057464,
            0.5315423315969504,
            -0.43140312761578364,
            -0.8038906489676354,
            -0.8647162375711538,
            1.2364007268519992,
            0.5200310888924777,
            1.4040521513091284,
            0.10055771230162383,
            -0.30754166198969274,
            1.5031596199104789,
            -1.5140292041817445,
            0.17180780132885076,
            1.1964901841100388,
            1.666272418404324,
            -1.1478169632580255,
            0.6396544643788076,
            -0.34364082881986246,
            -1.2187040649169638,
            -0.6630309027984478,
            -0.5324841846800827,
            -0.9536766441942883,
            -1.2003090246366006,
            -0.26264839725067546,
            -2.229782004950184,
            1.2862975725676649,
            0.7968896221012498,
            -0.28373013242546874,
            -0.12340319789300006,
            -0.9645107513434775,
            -0.7742871937214424,
            0.43011610982763204,
            -0.5041227641302215,
            1.1671997901338282,
            0.12063811306354742,
            1.3054538838477172,
            0.09620770909519483,
            1.6472575713213216,
            -1.3703651976551703,
            -0.7875376683248181,
            0.3093483636004069,
            -1.3597684534039705,
            -0.515259016247886,
            0.8364222640606424,
            -0.5209925283416137,
            1.180102519733852,
            0.2958094159672774,
            -0.18769186849348374,
            -0.507564460869689,
            0.9263345647137805,
            -1.123613944886538,
            1.7516884228837475,
            0.7543118892781263,
            0.07297926807483414,
            0.44555646029383444,
            -2.408381663468903,
            -0.6670611638494269,
            0.9658196845193646,
            -0.9747670997406438,
            -0.6058483753042705,
            0.1377037121768654,
            0.14951720025042015,
            -1.59030796808302,
            1.0143428939842214,
            1.0184609819097847,
            -2.5522868551001503,
            0.26776989165207765,
            -0.4703396078887452,
            -2.2157987212546257,
            -1.1503744731088432,
            -0.4490295922252865,
            -0.22500410188080158,
            -0.8611466035668798,
            2.1466837239533576,
            0.8677331668957603,
            0.7578689891385441,
            -0.48865678659876305,
            1.5191058527153414,
            -0.3074177956421314,
            -0.38737274078094397,
            -0.6508121978235878,
            -1.5398381377635857,
            0.4703041047009797,
            1.2567343272219045,
            -0.18336425495218853,
            -0.1919499221576111,
            1.273251707537679,
            0.38937375018992754,
            0.6860546826892995,
            0.5635185173670689,
            -1.9038591373658367,
            0.3997776404222199,
            -1.7379533639597624,
            -0.48810567904280816,
            -0.1599303839662475,
            -0.568637556188339,
            0.20180495208152416,
            -0.748509779420848,
            0.7991193570634503,
            -0.7095536571867969,
            0.3750076324634231,
            2.2774144221331127,
            -0.03739468385997851,
            0.892191486631199,
            -0.3346347481617133,
            -0.959566565941648,
            -0.5708293704065186,
            -0.2307356467459994,
            -0.6667819139254084,
            -0.3759905378562035,
            -0.6959452718391751,
            -1.0798089974243872,
            1.555934395057317,
            -0.1266242442014926,
            -1.2123979901966828,
            0.7577722288353815,
            0.6054780551992963,
            -1.5936721861876377,
            1.1016928125419514,
            -0.2288548547593789,
            -0.36808266168296294,
            -2.840658111102908,
            -0.24123059248369352,
            0.2200964075431318,
            -1.5818022878806,
            -3.4557764466415075,
            -1.0631180471658883,
            0.723765684584395,
            1.4347269087991235,
            -0.61960575287855,
            2.2125364837340635,
            0.9201449225106122,
            0.18239443971072328,
            -0.07668899700851713,
            0.18870331252403935,
            0.41117528767256223,
            -0.8392426693326733,
            -0.5484844704413485,
            -0.05427316883767322,
            2.090375549765899,
            0.7885332066761517,
            0.667182734660566,
            -0.6241394577960327,
            -0.9447137532260069,
            -0.942512275774214,
            -0.5465063613166413,
            -1.7472359042535253,
            0.03135138552097925,
            -0.2966686466981493,
            -1.4122482526483024,
            -1.057093317970763,
            2.299292256037252,
            -0.03222841607683207,
            0.026569498717446283,
            -1.0482160790237351,
            -1.0022219629461606,
            -0.6099570037110138,
            0.19745210649813805,
            1.2946989408046565,
            0.08183588389167543,
            -1.1521885033619788,
            0.1688304006995984,
            -0.6875432394968207,
            -0.40989874719706065,
            -2.0827097470981335,
            1.334456828760085,
            -0.676751883138584,
            -1.17228517221633,
            0.9493607897200401,
            0.550554944336143,
            0.005121210044824217,
            1.0802799833682166,
            -0.2732171309811371,
            0.7673785025247853,
            0.1112000731508151,
            -1.1784918947721486,
            -1.6287204660592511,
            0.7860254865661979,
            -1.0050049514993409,
            -0.5320594457930654,
            -1.266209671857119,
            -0.025672022332413377,
            1.8986622079972335,
            -0.6009347800348873,
            0.2004948733488013,
            0.06428661987951152,
            0.7736219277845228,
            -0.4741246434794375,
            0.4107449662190435,
            -1.1242706306995007,
            1.1408513102112807,
            0.9053015557853328,
            0.36119323932715436,
            -1.1683022444797864,
            -0.2688015062459138,
            0.793844139631758,
            0.6021085180313716,
            -0.27321310561646306,
            0.7688599569104676,
            -0.8645508898336478,
            0.3956973067250705,
            -1.178347250857072,
            -1.3198371397819395,
            1.1087334270588318,
            -1.2704648407155472,
            0.07292756740195382,
            0.23326034103377635,
            0.14943493773106556,
            0.707488640840363,
            0.6994633137988925,
            -1.0130531976350887,
            3.1618582148730088,
            0.9840046471153338,
            -0.4368249687366781,
            0.7684909512474429,
            1.18489525954346,
            0.19478726714980507,
            0.10135445194283571,
            -0.6986996527065218,
            -0.03114416126895135,
            -0.6302722962223297,
            1.2316630582370427,
            -1.1751091518292958,
            0.33814893751897224,
            -1.1812225023791227,
            -0.09933209524003694,
            1.064956936409697,
            -0.9485128601845116,
            0.12307194361478055,
            -0.3762063723595238,
            0.8272392062296491,
            0.3919278902307827,
            0.4197581055238282,
            0.28839789426981016,
            -0.6111002398402705,
            -0.48514303133890996,
            -0.7939590631752812,
            -0.9502516680465728,
            1.8223621890890396,
            0.27214450841035975,
            0.516877702406031,
            -0.39909292188926937,
            -0.5276422090822954,
            -1.6978478321511812,
            -0.037343038404211555,
            0.02840123919711134,
            -0.31465136727605253,
            -1.7589032536948794,
            -0.059043617755563785,
            0.30832958819493084,
            0.39671075726023225,
            -1.140972624146981,
            0.4176549075032236,
            -0.5427516421275084,
            0.2784114193721135,
            0.6514910757377546,
            0.25727863963501085,
            1.1135147691501812,
            0.1281182333480499,
            -0.010681779616854088,
            1.5444775993632784,
            0.2752894551900683,
            0.3873407075723415,
            0.8027642639985925,
            1.831746689109141,
            0.7370016844102633,
            1.6346546165242721,
            1.3530223117591433,
            -0.713844555160962,
            -0.2838288806627093,
            -0.6302577634453872,
            -0.029046959699792475,
            -0.712062356353275,
            0.09187576283899684,
            0.6270390324853152,
            0.42950619548925384,
            -0.5092184386246124,
            -1.3668263682363202,
            -0.8489599012780542,
            0.9493107433078901,
            -1.517031617994588,
            -0.5676042726630129,
            -0.7409544024196401,
            0.03437134985860383,
            0.6029130601786704,
            -0.1061067346471456,
            0.1997038872685527,
            0.4890061609286723,
            0.4319158974094671,
            0.17133086470078146,
            0.4628284176448888,
            1.7732199476308537,
            0.8587865127392991,
            0.47680050095887155,
            -0.48049608897775375,
            0.9756794729360542,
            1.5459462014457332,
            -2.3793381577243107,
            0.07852183815090871,
            0.8712298794836701,
            -0.04805022506818684,
            -1.0219647391141529,
            -0.08450300877932423,
            -0.965024313090187,
            0.13640971533903204,
            -1.2535204893131378,
            0.08295644116764331,
            0.27802899113969887,
            0.09062750751382162,
            -0.4153466237939934,
            1.1777663720694296,
            -1.893676240161711,
            -0.38429093091995964,
            0.43899467822970634,
            1.5098140448003536,
            -0.7893700104391107,
            1.9560959047471735,
            -0.11410168113017428,
            1.4191903319158583,
            0.8019190357468745,
            2.694108782809272,
            0.5848485415260152,
            -1.661794959295782,
            -0.3592004520008356,
            -0.9439211053376165,
            -1.6288706688859487,
            -0.822375767701916,
            -0.20951152858532,
            1.8346005848870122,
            -0.08398321974945315,
            1.404345068912688,
            0.9572246814974292,
            0.529988048434887,
            0.304537188062346,
            1.3552613667417104,
            1.0325747065059754,
            1.8359652601014316,
            -1.2356198923239605,
            0.10128062051262302,
            0.6543931291912418,
            0.6977834358525741,
            0.6407074033989014,
            0.7063709775287604,
            0.7851100557122768,
            1.3079440175466663,
            0.496571014474123,
            0.4667247613598393,
            0.8881570837432441,
            0.9133922673529606,
            0.1669267141271174,
            0.23518701566493166,
            -0.12657661795288702,
            -0.7377080121470896,
            -0.3618484152603372,
            0.18686695569304126,
            0.09632007702928294,
            -0.25355123945464564,
            -0.3301258486104832,
            1.797386984107313,
            0.5765453874658316,
            -0.32449623756035323,
            0.07252490350719458,
            -0.07732621058284829,
            -0.30407833043401306,
            0.08446985789279136,
            -0.9589558230206559,
            0.9862948854024045,
            0.5137033613721014,
            1.5970025541000605,
            -0.7482108343562743,
            0.9309506046658298,
            0.03589101068600659,
            -1.5578317626781457,
            -0.17557954569854678,
            1.088968038132087,
            -1.287808806575546,
            0.35985205813238713,
            1.1368665576264116,
            -0.6669347161822067,
            0.781262439573702,
            -1.0792816742500322,
            0.13394292348224793,
            0.3664729872592916,
            1.106407605053732,
            -0.016259523469869846,
            -0.3469769437695722,
            0.3360686089317671,
            0.4999515460924878,
            -0.971361317078781,
            1.1063106734420942,
            -0.04890821381583999,
            0.3098304617086278,
            0.3208389816285609,
            -0.5249552649732127,
            -0.16778001935992976,
            -1.241413177508223,
            -1.0321097232017695,
            -1.1390517007351695,
            -0.327516139898932,
            -0.9193310003815978,
            0.3681808471676655,
            0.8915463999578456,
            0.4661269066217676,
            -0.699712066469266,
            -0.289591203639328,
            1.5999793703249532,
            0.20822247825572776,
            -0.29745878450594676,
            -0.37175599714260643,
            -0.3555200957314492,
            1.4335834771796185,
            0.41245205445726446,
            2.0222575367493207,
            0.07370322057953772,
            0.6221516378400739,
            -0.681677534362086,
            1.458376553950178,
            2.3438396594485926,
            0.4233820862358326,
            1.3803774423439148,
            2.161775413877694,
            -0.6864349588450711,
            0.08024652922252601,
            1.0338976763404337,
            0.4010634009010996,
            1.213746875804167,
            1.121606370964261,
            0.07299728836769616,
            -1.0093388979352844,
            -1.4924871175382886,
            0.4461931432988153,
            -1.0118468030455834,
            -0.3642794301222808,
            -0.4016914128625889,
            -0.6872352577090074,
            0.4738471619101553,
            -0.8752272929650647,
            0.14370733528938698,
            0.7949714342544938,
            0.7355809301567804,
            1.094649653447063,
            0.6398342720767952,
            3.1469890969807373,
            -0.4569149767551405,
            -0.35004540199949113,
            -1.0950466048347944,
            0.9583613786876398,
            1.6789040594273736,
            -0.30722126128306804,
            -1.2033927909841777,
            -0.024489731714098177,
            0.8019464229524336,
            -0.5158623903199336,
            -0.6645335083274005,
            -0.2747909704180587,
            0.5437011097422666,
            -0.6036850095202421,
            -0.6035609807294445,
            -2.2670450353871727,
            -1.2931031702274216,
            0.16784687570524387,
            -0.5806089150063044,
            0.7319231694654776,
            0.3275180635267773,
            1.9010117113105884,
            0.8770605987030856,
            -0.7169789560829912,
            0.4421051372407677,
            0.7415113729457824,
            -0.49741745305378393,
            0.9478189832000505,
            1.15618881041953,
            0.07147041660726457,
            -1.3258121742989442,
            0.28222488004966634,
            0.9531224302509161,
            -0.5290584904082011,
            0.4023450474086715,
            0.6139322208029545,
            -0.3822024699087161,
            -0.3491790373761243,
            -0.07045283144940188,
            -0.2270687038438761,
            0.4400991563310775,
            0.4494555094573095,
            0.04168634446941985,
            -0.005416327352946425,
            0.4728335594988161,
            -2.8997656296828507,
            -0.38511680195989756,
            -1.0163111265937472,
            -0.955994735833995,
            -0.5716426278748008,
            -0.12987189238202904,
            -0.7835430245176803,
            0.3292325381748971,
            -1.0256537316428451,
            -0.5965941166781283,
            -1.9473642187663336,
            -0.952283207375537,
            0.3066406914056972,
            -0.5461502140530737,
            1.2282978633406414,
            1.5266105289549885,
            0.9444680413732645,
            0.49799466213227744,
            1.1853780857040135,
            -0.44939788604084946,
            1.2363731262126127,
            2.183300737832423,
            -0.7492065286343883,
            0.05386675793344027,
            -1.6632311867108442,
            -0.359482615980963,
            -3.564548189634133,
            0.813380535187542,
            0.6524109688610029,
            -1.5293262503075806,
            -0.8718527701217031,
            -1.0276669208605291,
            -0.4691470743030425,
            -1.398740086472699,
            -1.7188366812134248,
            -0.36899895498778024,
            -1.4409646931082885,
            -0.8420266666551846,
            -2.2038877353325153,
            -0.059715715099766,
            -1.2159754827888503,
            -0.7046788907557138,
            -0.4702166924307346,
            0.4026882337622332,
            -1.003201159575324,
            -0.5165167210978849,
            0.787246004144359,
            -1.183645129438804,
            0.4252791926579893,
            0.7519841382841266,
            -0.6043455373158393,
            0.8654876727913,
            -0.19191142515523824,
            -0.4609930172636564,
            1.840600209863373,
            0.22294723495244176,
            -2.4710625372820134,
            0.5886603488911801,
            -0.447616173587972,
            0.5843241005789435,
            -2.18868159639825,
            -1.220516452767717,
            -1.099608737234474,
            -1.0167161816032562,
            -1.0180443606536589,
            -2.292721440578466,
            -2.0418064793163073,
            0.17322027628698705,
            -1.1853737184438364,
            0.5236615279739546,
            -1.822965373745786,
            -0.5337960680945195,
            -0.7927919844440707,
            0.4730609679048559,
            -0.42421305528747366,
            0.9540378846061013,
            0.40446894832350494,
            -0.15034303545203262,
            -2.5486468600269276,
            -1.2431770534871178,
            0.8544273819361975,
            1.0808162885763708,
            -0.45600831040797946,
            1.2151520375089115,
            0.1533650314867583,
            0.19253019114558126,
            -0.30302092789463136,
            -1.0896638427017293,
            -0.13016286163535223,
            0.022666753527131916,
            -0.5235397530068491,
            -0.09141828914984229,
            0.05821055467499981,
            -1.6066022089514793,
            2.477457937230664,
            0.9054520369035415,
            0.9535702770772947,
            -0.03423200364955672,
            -0.5925092184699298,
            -0.04867145398553689,
            -1.4745704143122524,
            0.7142221513752779,
            -0.15839956654178808,
            -0.6382492626726651,
            1.3991415198904738,
            -0.5726500659790379,
            -0.006650649032357284,
            0.741945846962434,
            -1.4375457303594725,
            0.6871308684752905,
            -1.2707025078661485,
            0.46386343949667536,
            0.059866346604127936,
